0.138883024454
0.241685852408
0.0741646587849
-0.24932654202
0.11412448436
0.200301632285
0.317616701126
0.184216082096
-0.0505348034203
-0.143539711833
0.242823734879
0.220477730036
-0.168441444635
-0.357615858316
-0.137212812901
0.137552395463
0.0794982016087
-0.228501871228
-0.134417504072
-0.117145806551
-0.198213234544
-0.181510269642
-0.23538506031
-0.158740907907
0.0529555641115
-0.166644945741
0.0881611183286
-0.133979946375
-0.122710831463
0.200374990702
-0.117930650711
-0.180966556072
-0.421106219292
0.000480109360069
-0.264234095812
0.257565379143
-0.251031726599
-0.380216777325
-0.279523283243
-0.299845069647
0.374764710665
0.0311642680317
-0.177018553019
0.0118912290782
-0.0922055616975
0.433157861233
0.470203816891
0.243701994419
0.24721904099
-0.104872457683
0.141751617193
0.0905112177134
0.235910102725
0.0370386913419
0.0405929647386
0.344542682171
0.554294228554
0.447780817747
0.559232950211
0.233264610171
-0.166179716587
0.238828763366
0.110632255673
0.345822095871
0.0488403588533
-0.49710175395
-0.434661954641
-0.467841535807
0.069444604218
0.200925394893
-0.354181140661
-0.13073335588
-0.29826143384
-0.265271753073
-0.110126502812
0.033824659884
0.102296583354
-0.202616646886
-0.0586711578071
-0.141093969345
0.231339901686
0.0789134055376
0.182849273086
-0.165494605899
-0.0514871515334
0.156629219651
0.457843780518
0.343757033348
-0.12600068748
0.00352292973548
-0.228740140796
0.370782107115
0.425075739622
-0.0247077960521
-0.18962661922
-0.353664040565
0.151240408421
0.339148670435
0.332636803389
0.263577461243
-0.246944263577
0.166648074985
0.0264943353832
-0.300917893648
-0.170440167189
0.114235140383
-0.25672736764
-0.282542109489
-0.0702081620693
-0.226058602333
-0.018147142604
0.0313752554357
-0.171761766076
-0.267552405596
-0.102838344872
0.175162062049
0.159085720778
-0.0853070914745
-0.214954420924
-0.305747956038
0.365423947573
0.227565839887
0.0657780095935
0.142931267619
-0.200849205256
0.162605911493
0.147179111838
-0.000305808323901
-0.109007008374
-0.100539363921
-0.18895752728
0.222110062838
0.27401137352
0.0357469022274
-0.23125629127
0.0920997858047
-0.063775986433
-0.0298282299191
0.232413858175
0.123472765088
0.264827013016
-0.245693027973
0.00305058551021
0.0422526672482
-0.00206678593531
0.249465614557
0.234683200717
-0.103155694902
0.250008314848
0.248895332217
0.148276433349
-0.0106539065018
-0.174000695348
-0.383046030998
-0.0184811465442
0.236648514867
-0.222906515002
-0.201231792569
-0.235377132893
-0.263664662838
0.17578163743
0.299417853355
0.124772951007
0.00502213323489
-0.0295311193913
0.129332154989
-0.0952014699578
0.393167883158
0.39649361372
0.0640687644482
0.211978286505
0.0834181904793
0.0416063144803
-0.0642456486821
-0.00488802837208
-0.0129437996075
0.25490501523
-0.190264821053
-0.32702434063
0.032423004508
0.260685026646
0.218584567308
-0.358032286167
-0.178804919124
-0.192942470312
0.352966725826
0.0461949408054
-0.393495589495
0.092562161386
0.0107667697594
0.143092155457
-0.213607519865
-0.280067920685
-0.119303025305
-0.188725307584
0.10069514066
-0.00694823358208
0.0994243174791
-0.206493228674
0.231229260564
0.0392819307745
0.130809307098
0.410856962204
-0.00980606582016
0.0141068529338
0.218447059393
0.329759955406
0.197089850903
0.0489303357899
0.0767688006163
-0.123766317964
0.0824073851109
-0.162289947271
-0.109638012946
0.103453494608
0.147017881274
-0.255925267935
-0.282287865877
-0.38511583209
0.0667497441173
-0.0704727768898
-0.141228929162
-0.243134662509
-0.353206604719
0.00706522818655
0.393172085285
0.415342718363
0.453888863325
0.0751789882779
0.0649410784245
0.0214109923691
-0.182619169354
0.0549377277493
-0.170325726271
-0.0225141365081
-0.186990752816
0.170565366745
0.10345736146
0.0435121320188
-0.281079977751
-0.408521264791
-0.280666530132
-0.125256881118
0.132439613342
0.0646717995405
-0.323237687349
-0.190190881491
0.185230210423
0.129457265139
0.295287787914
0.0350556150079
0.232900083065
0.140941724181
-0.121459968388
-0.347146958113
-0.08163651824
0.238564714789
0.228049889207
0.132011309266
0.1249550879
-0.0744363665581
0.0739098191261
-0.0261116642505
0.0108755845577
0.293093591928
-0.262310504913
-0.186576217413
0.151315703988
0.460899502039
0.236304566264
-0.291832625866
0.097589597106
0.400682598352
0.445704400539
-0.10662240535
0.268989175558
0.20212008059
-0.118472263217
-0.0591142624617
-0.24507047236
0.00922831241041
0.153217002749
0.198459401727
0.0649944469333
-0.251093864441
-0.21545034647
0.276835113764
0.0538925863802
-0.199001193047
-0.379182368517
-0.104792743921
0.0463649891317
-0.12142854929
-0.127440750599
-0.192265838385
-0.19963426888
0.264188855886
0.139426514506
-0.0225320123136
0.10377125442
0.141681954265
0.41632437706
-0.0755220651627
0.113729551435
-0.215231820941
0.394884347916
0.125354111195
-0.040595702827
0.0817294716835
0.0171898603439
-0.142343193293
-0.270011901855
-0.059287071228
-0.23409204185
-0.279863655567
0.0696995034814
-0.268863648176
-0.248143956065
-0.0645586997271
-0.153339773417
-0.142942041159
-0.296701312065
0.0875086113811
-0.29990491271
-0.115973673761
-0.252805501223
-0.309396952391
-0.0181066822261
0.25757598877
0.262288242579
-0.22355312109
-0.0473566353321
-0.0852531120181
0.259410768747
-0.0444011464715
-0.14687050879
0.0600070022047
0.235902056098
0.368298918009
0.278567761183
-0.264233022928
-0.129936501384
0.286779224873
0.336764991283
0.306482821703
-0.210262298584
0.203299090266
0.217658534646
0.384136497974
-0.145198568702
0.169650375843
-0.143961563706
0.140751719475
0.102850802243
-0.074922375381
0.0500190556049
-0.056829418987
-0.0140503412113
-0.197319895029
0.0659650266171
-0.121405661106
-0.300963968039
-0.332078397274
0.0585906617343
-0.19662502408
0.120286397636
-0.36342394352
-0.332340538502
-0.229988247156
0.134319514036
-0.229848772287
-0.135287716985
-0.0779760405421
-0.0913557037711
-0.0817697048187
0.397112756968
0.11941922456
-0.0263720508665
-0.212245166302
-0.277657270432
0.244850590825
0.0473815873265
-0.143101587892
-0.344742953777
-0.191133603454
-0.0251385495067
-0.171072527766
-0.237761959434
-0.254538059235
-0.172382473946
-0.157416373491
-0.212989225984
-0.315858095884
-0.272804200649
-0.160978406668
0.0994136482477
-0.214233189821
-0.17642082274
-0.163927197456
-0.00297318026423
0.104872837663
0.187879756093
0.271821975708
0.0539498515427
-0.190401121974
0.0456540212035
0.405156970024
0.0370827391744
0.221108034253
-0.283216804266
-0.0433493480086
0.260220378637
0.351585119963
-0.097936630249
-0.0324763841927
0.302673488855
0.200636982918
0.299038946629
-0.0916468724608
-0.20024921
0.213148087263
0.308346569538
-0.0496091097593
0.0416951067746
0.093822427094
0.390225231647
0.427377402782
0.38102081418
0.526786208153
0.154754817486
0.132393613458
0.405777186155
0.289227843285
0.129358619452
0.156698301435
-0.425301611423
-0.495860189199
-0.384063839912
-0.181943207979
-0.0495931692421
-0.405448287725
-0.452365547419
-0.430869370699
-0.323841691017
-0.0808550044894
0.0133909052238
0.150638312101
0.0812315940857
0.144827723503
0.0345261022449
-0.0128040909767
0.232567295432
0.36283403635
-0.0887940526009
-0.088207013905
-0.0181120075285
0.315927177668
0.148154139519
-0.121225506067
0.0551302582026
0.0962162911892
-0.247255384922
-0.333741247654
0.0234912205487
-0.258489370346
-0.135949507356
-0.351368755102
-0.40413531661
-0.257926791906
-0.219932183623
-0.305089831352
-0.306703656912
0.05342688784
0.0358586162329
-0.0259955860674
0.0450563728809
-0.0666378960013
-0.168060079217
-0.0484813563526
0.167378485203
-0.371518135071
-0.334158420563
-0.0763304978609
0.0617361404002
0.298415005207
-0.243703380227
0.194115236402
0.445736438036
0.337015509605
0.188317269087
-0.0142073808238
0.362093985081
0.294849842787
0.121182665229
-0.237190082669
0.344799727201
0.355602890253
0.0344016775489
-0.154591321945
0.0138086322695
