-0.0116266272962
0.0109726395458
0.0122194569558
0.00692177703604
-0.0264220684767
-0.0437378585339
0.000244445342105
-0.00697452574968
-0.0449563525617
0.0657279118896
-0.0100682321936
-0.0107562271878
-0.0795298442245
-0.0476079285145
-0.0125498939306
0.00920304842293
-0.0190598163754
-0.0198910683393
0.00238906755112
0.0356925688684
-0.0700987130404
-0.0275065246969
0.0264787282795
0.0325641073287
0.00426610652357
-0.0167864318937
0.00136832636781
-0.00310027436353
-0.03786675632
-0.0173667166382
0.028693465516
0.0239347722381
-0.0691453441978
0.0205908976495
-0.0300524849445
0.00843412149698
0.0611122101545
0.0331675037742
-0.0429154783487
-0.0115425633267
-0.0117556657642
0.0323089361191
0.0501594915986
0.0574850998819
-0.00539619429037
-0.039812181145
-0.00482598086819
0.00891595426947
0.0119057549164
0.0463529229164
-0.00559518067166
0.0371663607657
0.0864694043994
0.0728180631995
0.036445800215
0.00232846173458
-0.00884769484401
0.0871479511261
0.0992590337992
0.0439066104591
-0.0500553324819
0.0210213940591
0.0152883380651
-0.0268568061292
0.0247627813369
0.0118398601189
0.00970897451043
0.000427124032285
-0.0710555464029
0.0365229360759
0.0370619259775
0.0269905552268
-0.0431868210435
-0.0789473429322
-0.0741264000535
0.0099872648716
-0.0355510674417
0.00483938260004
0.066313996911
0.0544841811061
0.0239040181041
-0.0550556257367
-0.023330386728
-0.0324449241161
0.0529791526496
0.0470348596573
-0.0286585874856
-0.0360483787954
-0.0639995932579
-0.0671572089195
0.0519204773009
0.0251748953015
-0.0449306108057
-0.0154167087749
-0.0132969273254
-0.00872359611094
0.0679109692574
0.0283741075546
-0.0629093423486
-0.0222602039576
0.047142688185
-0.0542248040438
0.00446615694091
0.022221468389
0.0148676931858
-0.016195314005
0.0432870201766
-0.0569089651108
-0.047047033906
0.0455573685467
0.00255415053107
-0.0136133944616
0.0165175888687
-0.0364833585918
0.0218494087458
0.0294024460018
0.0130462991074
0.0629817768931
0.00702633615583
0.061928384006
0.0387266948819
0.0285194385797
0.00902313925326
0.0627762228251
0.0195572338998
-0.0542394854128
0.041668381542
0.0194971598685
0.0295940507203
0.0495502538979
0.0162099208683
0.0112911863253
0.0296457111835
-0.0406403392553
0.0317859053612
-0.0097927255556
0.0348322689533
-0.0595959536731
0.0117117715999
0.0220462158322
0.0273348800838
0.0445678643882
0.0309071205556
-0.00116785278078
-0.0636564418674
-0.0543735064566
0.00325693050399
-0.0180585868657
0.0269034076482
0.0198416728526
0.0234493073076
-0.0300033334643
0.0533984862268
0.0480539128184
0.0229889266193
-0.0146136656404
-0.0368196032941
-0.0492012538016
-0.0457981340587
-0.0232101455331
0.0449942462146
0.0513806529343
0.0331589058042
-0.043028306216
-0.057101726532
-0.0461925454438
-0.00366632826626
0.0218736417592
-0.0565909035504
-0.0641190484166
0.00646075373515
-0.00282839173451
0.035552687943
0.0351101234555
-0.0701463446021
-0.0318500734866
-0.0571426711977
-0.072888456285
0.0128525970504
0.0112107312307
0.000100274737633
-0.0451674088836
-0.0257523786277
-0.0502056516707
-0.0305964276195
-0.0572237111628
-0.0120384143665
0.0168284364045
-0.0426304973662
-0.0183591414243
-0.0349595025182
0.00806747283787
0.0346136838198
-0.0151598127559
-0.0449364297092
-0.0376431457698
0.036670986563
-0.000869154813699
-0.028810063377
0.0387147143483
0.0400883071125
0.0471764691174
0.0368897877634
-0.0692999660969
0.00306491227821
-0.0247194319963
-0.0278175566345
0.0784777551889
-0.0191364847124
-0.0363156460226
-0.0252884067595
0.0569154843688
-0.0515811890364
0.0166297461838
0.0101344482973
0.0121189327911
-0.0432742908597
-0.0269978623837
0.0196627676487
-0.0173611044884
-0.0463139750063
0.0427427701652
0.0172786917537
-0.0107871759683
-0.0648205131292
-0.0211517103016
-0.00670453347266
-0.0374041125178
-0.0176931712776
-0.0490685291588
-0.0319025181234
0.0041594542563
-0.00418523047119
0.0527125746012
0.0318087302148
-0.0334659330547
0.0150227639824
0.0255621671677
0.0430201217532
-0.0186371318996
0.0808749645948
0.00954712182283
-0.00847031269222
-0.0488285273314
0.0026828951668
0.0508959591389
0.0436049103737
-0.00937002617866
-0.0201629363
-0.0628048703074
0.0492899045348
0.0211656261235
0.058467246592
0.00436828052625
-0.0419357270002
0.0547187104821
-0.0769710689783
-0.0592314824462
0.0461745709181
-0.0265657417476
0.0388380214572
-0.00974113773555
-0.0193634293973
-0.0544261112809
0.00486083654687
0.0320794433355
0.047830466181
-0.0103004509583
0.0252886414528
0.00901800766587
0.0553188808262
0.0607411153615
-0.0483698956668
-0.023815760389
-0.0907268673182
-0.0379131510854
-0.0726263597608
-0.0233812686056
-0.0225976314396
0.0403027161956
0.0550289228559
-0.0398232601583
-0.0178436785936
0.0059433192946
-0.00702828029171
-0.00800019223243
-0.0329263210297
-0.0191415008157
-0.0234352946281
0.0362823344767
0.00896116904914
-0.00325589487329
0.0434641055763
-0.0149557674304
0.00512035051361
0.0106607656926
0.0382710918784
-0.0140124848112
-0.0299767777324
0.0399359203875
0.0519633740187
0.0154113536701
0.0307908412069
-0.0309143494815
-0.0329918600619
-0.0617326647043
-0.0379541777074
0.00687289750203
-8.3659972006e-05
0.0395605005324
0.00198959489353
-0.0327136404812
0.0116452928632
-0.033023905009
0.0696678906679
0.00597809394822
-0.00239207083359
0.0152788832784
-0.00116454274394
0.0296912007034
0.00608828756958
0.0384547077119
0.0240899026394
0.0319678485394
-0.0249218735844
-0.0288119614124
-0.00457601668313
0.0305258817971
0.0222314596176
-0.0372064635158
-0.0234716366976
-0.0860644727945
-0.065093100071
-0.0527533441782
-0.0820280089974
-0.0237406343222
-0.000947721942794
-0.00911896489561
-0.0405944436789
-0.0169861726463
0.0388728938997
-0.0182550977916
-0.00887417513877
0.00913494825363
0.00410187710077
0.0606183707714
-0.0414277650416
-0.0402976125479
-0.0272484384477
-0.0481472089887
0.0118732731789
0.0290614236146
-0.0719031095505
-0.0667252019048
0.031476881355
-0.023140784353
-0.0167577732354
0.0196695066988
-0.0158283449709
0.0374219045043
-0.0552656911314
-0.0343918278813
0.0362544432282
0.00656996667385
0.0470617972314
0.0420333817601
0.058346580714
-0.0156567767262
0.0706047564745
0.00350516918115
0.0526739396155
-0.0491889864206
0.0353806838393
0.0458528026938
0.0478602610528
-0.0370491109788
0.00278378953226
-0.00157790898811
-0.0545650720596
0.0510402806103
0.042623527348
0.011272996664
-0.00311356480233
-0.0068806419149
0.0462379157543
-0.0378198511899
0.0220226217061
-0.00461288494989
-0.00621114112437
0.0739495009184
-0.0403442829847
0.00535726873204
-0.0143843134865
-0.00803512334824
-0.0237907171249
-0.00202026194893
0.0249284598976
0.0198941659182
0.0590366087854
0.0350833274424
-0.0605305619538
-0.00505971349776
-0.0142887188122
-0.0461678206921
0.0461243912578
-0.0357970558107
-0.00274740089662
0.000165875826497
-0.045359890908
-0.0195224303752
-0.036083728075
-0.0049259075895
-0.000285280926619
0.0126332389191
-0.0474895089865
-0.0392116717994
0.0420797728002
-0.0193881094456
-0.0282738320529
-0.0177964288741
0.0173858720809
-0.00759318238124
-0.0431679226458
-0.0264490842819
-0.00916796829551
0.0287657994777
0.0429463610053
-0.0176877714694
0.000301308813505
0.0606499314308
-0.015874799341
-0.00097731128335
0.0594841577113
0.050449963659
0.0540147684515
-0.0111565347761
-0.0159402247518
0.056870162487
0.0314573161304
0.00874584913254
0.0507883764803
0.0247924439609
0.025575298816
0.00960263609886
-0.000464798271423
0.0401648879051
0.000982793164439
-0.0458728037775
-0.0299345552921
-0.0481258444488
0.0270117856562
0.0509374141693
-0.0021401590202
0.0390830114484
-0.0494739823043
0.00471169734374
0.0281324833632
0.0706229507923
0.057634562254
0.0421217083931
-0.0164690390229
0.0457733310759
0.0342735908926
0.0144355520606
0.0156010026112
0.0404820218682
0.00622645905241
0.00624713068828
0.071900844574
0.0317592844367
-0.0134205082431
0.0325302071869
-0.0379277206957
-0.0461480282247
-0.0532489195466
-0.00216808030382
0.067145049572
0.0335914045572
0.056333296001
-0.0103736231104
0.0340262874961
-0.012429038994
-0.0422670394182
-0.0298218391836
-0.0460825748742
-0.00966531131417
0.0224638842046
-0.0162697229534
-0.013344024308
-0.0699881911278
-0.0760613754392
-0.0350425727665
-0.0714674815536
0.0112560866401
-0.0735192298889
0.000829362426884
0.0336508639157
-0.0388752780855
-0.0125081520528
-0.0356930978596
-0.0363202728331
0.01459996216
0.0147199025378
-0.0179030690342
-0.0470519736409
0.0250950790942
-0.0395209006965
-0.00117348728236
-0.0605930015445
0.0422326773405
-0.0629732981324
-0.0163837019354
-0.0144271878526
-0.049034319818
0.0534435138106
0.0473956018686
0.0245156958699
-0.0508898124099
-0.0514833554626
0.0370537377894
0.0513257831335
0.0355836413801
-0.0228652562946
-0.0407766252756
0.0403419807553
0.0489920377731
-0.047681260854
0.0232005082071
-0.03528014943
-0.0123771904036
0.0407868176699
0.0501412823796
0.0430122241378
-0.0133848907426
0.0322467647493
0.00960443168879
-0.0419241786003
0.0315610617399
-0.0266033206135
0.0602445565164
-0.0227182600647
-0.0365526266396
0.00367421540432
-0.00570178870112
-0.00280105485581
0.0244852714241
-0.0352339111269
0.00358948297799
-0.0350712798536
0.0164366550744
0.00114589650184
0.00220726244152
-0.00494373310357
0.00978213641793
-0.00232178089209
0.0547272823751
-0.014621485956
0.0250065140426
-0.0518198981881
-0.0736100673676
0.0687956064939
0.000680852972437
0.0613535866141
0.00125291314907
-0.0563334673643
-0.0191658623517
0.0170656368136
0.0504896789789
-0.0219676345587
-0.0235166754574
-0.0397367961705
-0.0499326214194
-0.0374565161765
0.0098671913147
0.0111383432522
0.0186154022813
0.013359375298
-0.0543766021729
-0.00657793972641
-0.0420157909393
0.0837894380093
0.027744885534
-0.0189732797444
-0.0528599657118
0.0299714542925
-0.0499471649528
-0.0324919931591
-0.0241247992963
0.0629663839936
-0.0457331128418
-0.0640875920653
-0.0884304270148
-0.0700875073671
0.0303091946989
0.000207678065635
0.00497158011422
-0.00759685831144
-0.0651991814375
0.0114768669009
0.0204166267067
-0.026290345937
-0.00748199550435
-0.0267805531621
0.0087199145928
0.0426699891686
-0.000210353799048
0.00696651497856
-0.00164975970984
-0.0324369929731
0.080845579505
-0.0250270050019
0.00722760567442
-0.00467210356146
0.0228606946766
0.0855645313859
-0.00462377350777
-0.0452833287418
0.0509670041502
-0.0659896284342
-0.00812105741352
0.0306082200259
-0.0193427186459
0.0021596327424
0.0247601363808
0.0239252541214
0.0331147685647
0.0134347612038
-0.0437897406518
-0.0364073142409
-0.0435894727707
0.0226911529899
-0.0096719879657
-0.0262979585677
-0.000777490611654
0.0121528524905
0.030257133767
-0.0364373251796
-0.0568016469479
-0.0524988919497
-0.0524854026735
0.00632167654112
-0.0453098155558
-0.038116492331
-0.0208903532475
-0.0529230907559
0.022506993264
-0.077278919518
0.00382775859907
0.0177396535873
0.012037131004
0.0400182977319
0.0362938791513
0.0050906050019
0.00970570929348
-0.0569699145854
0.0330100096762
-0.0177801717073
-0.0364549942315
-0.0167347025126
-0.00704982085153
-0.0291216690093
-0.00230908906087
-0.0180506445467
0.0170334503055
-0.0361783094704
-0.0304465200752
-0.0185488276184
-0.0187216252089
0.00322883203626
0.0227080956101
-0.00649984739721
-0.0617263764143
-0.0644989386201
-0.0718518644571
0.0471685230732
-0.0174147095531
0.041555352509
0.0435501784086
-0.0230874866247
-0.0470526814461
-0.0208137724549
-0.0354649797082
0.0483445599675
-0.0564188659191
0.0727866142988
-0.0748987868428
-0.0275040920824
0.025404529646
-0.0247063394636
0.0989034324884
-0.0115884430707
-0.0404863990843
0.0368771292269
-0.0505142919719
0.0115486923605
0.00526464032009
0.0378507785499
0.00416882522404
-0.0210104677826
0.0268973726779
0.0319088548422
-0.0125316157937
0.0355597473681
-0.0334765277803
-0.0320373997092
0.039612159133
-0.0470034331083
0.0280635915697
-0.0365516133606
0.00494895176962
-0.0434869192541
-0.0365940742195
0.015948118642
-0.0805447921157
0.011658905074
0.051517598331
0.0667834505439
-0.0274949371815
0.0123312659562
0.0409484021366
0.032985586673
0.0211435221136
0.0243317727
-0.0213888864964
0.0185239240527
-0.0169713292271
-0.0284376647323
-0.0518693625927
0.0417139455676
-0.0178829263896
0.0433702506125
0.0266240090132
-0.0308724883944
0.0136086754501
-0.0735292956233
-0.00853417720646
-0.00909611396492
-0.00680517451838
-0.0409224890172
0.00361275929026
0.0222318135202
0.0485802665353
0.0433617457747
-0.0225581489503
-0.0306653250009
0.069365799427
-0.0244801174849
-0.0461600758135
0.0307835303247
0.0584503822029
0.0636037439108
0.00896032713354
-0.0434436164796
0.0523611567914
-0.020131347701
0.0385430380702
-0.00774907693267
-0.00415638322011
0.0321213416755
-0.0947713702917
0.0349176377058
-0.0624421574175
-0.0287820138037
0.0347565896809
-0.046020463109
-0.0526701584458
-0.0389443598688
0.0368732362986
0.0213379245251
0.0464371852577
0.00431509548798
0.0244978237897
-0.0019972610753
-0.00233169761486
0.0673393905163
-0.0415469408035
-0.0300770606846
-0.0454834960401
0.0349595993757
0.00508552743122
0.0482904240489
0.0512665472925
0.0320499613881
0.0113834608346
-0.0165348127484
-0.00784251280129
0.0191990751773
-0.0199532993138
0.0513494461775
0.0320337675512
0.01598902978
-0.0199840888381
0.00741669023409
0.0598689690232
0.0660606250167
-0.00383991049603
-0.0150550333783
-0.0470699630678
0.0348880141973
0.0712899044156
-0.00585009716451
0.023198030889
-0.00327502307482
0.00895198993385
-0.0161423813552
0.016037248075
0.0284086894244
-0.00407064985484
0.017116131261
0.0263078659773
-0.0487183667719
0.0227996017784
0.0268911067396
0.0272602774203
0.0462785065174
0.0324750952423
0.0377874821424
-0.00831681862473
0.0134746991098
-0.012816962786
0.0365895777941
0.0133300973102
0.0316611975431
-0.0419018603861
0.016307272017
-0.0320662483573
-0.0145490709692
0.0236335936934
-0.0298301856965
0.0289354231209
0.0550488643348
-0.0353846028447
0.0109887486324
0.0412932299078
0.00270966859534
0.0237728264183
-0.0350643657148
0.00658483011648
0.0349839292467
0.00737088499591
0.0150276869535
-0.0872926041484
-0.000820974295493
0.0483286008239
-0.0375653170049
-0.064637042582
-0.0645371675491
-0.00762049341574
0.00899262819439
0.0408923365176
-0.0168225392699
0.0446580275893
-0.0234746150672
0.0138300377876
-0.00317707145587
-0.0229189451784
-0.0271425265819
0.0182206369936
0.0205395910889
-0.0256588440388
-0.0242269989103
-0.037654645741
0.0445892252028
-0.052469458431
0.00067767436849
0.0608624443412
-0.0150026101619
0.0543199554086
-0.0281383823603
0.00415273522958
0.0820640176535
0.075738184154
0.0568095855415
-0.00871241278946
-0.0398695282638
-0.0536428689957
-0.0370686128736
0.0137549648061
0.014187428169
-0.0397854708135
-0.0558727495372
0.00103704922367
0.0604413636029
0.00103748776019
0.0389318503439
0.0351604968309
0.0281756334007
-0.0178210753947
-0.0128821060061
0.0621844083071
0.0484161786735
0.0104419728741
0.0254842173308
0.00904185604304
0.0537945479155
0.0736034438014
0.0868470296264
-0.0111868055537
-3.84026789106e-05
0.0327114500105
0.0190400481224
0.0167560335249
-0.000768502708524
-0.0400775671005
0.00150888424832
0.0480020828545
0.053415171802
0.010617996566
0.0371342822909
0.0117002269253
0.00455844029784
-0.0492709651589
-0.00852121692151
0.0674673095345
-0.0354739762843
-0.0779958739877
-0.0736217945814
-0.0339452438056
0.00625413702801
-0.0355276614428
-0.055312808603
-0.049421556294
-0.0058531104587
-0.00836204737425
0.0395586565137
0.0423197075725
-0.0261567234993
-0.0359733849764
-0.0246933363378
-0.0506500303745
0.00527750328183
-0.02392173931
0.0323925241828
0.0224673748016
-0.0713914781809
0.0577843114734
0.0486876182258
-0.0107132270932
-0.0403364151716
-0.0884144380689
0.0559453070164
0.0738238692284
0.0649392604828
-0.0017185624456
-0.0367343202233
0.0272373445332
0.0140737174079
0.0106914658099
-0.0664669200778
-0.0468612574041
-0.0242119915783
-0.0211383551359
0.0698821991682
-0.00936079863459
0.0253625866026
0.0520554743707
-0.0359962843359
0.0048523391597
0.0368394292891
-0.0309550035745
0.0133933620527
-0.0148038584739
-0.0437593646348
-0.0407726205885
0.00103027350269
0.0853055715561
0.00313263270073
0.0379932895303
-0.0411150977015
-0.0436175279319
0.0343774706125
0.0650369897485
0.0142890457064
0.017251810059
-4.62126590719e-05
0.0462143868208
-0.00657751085237
0.00293858745135
-0.0706288293004
0.000763951451518
-0.0193044506013
0.0208034869283
-0.00434924801812
0.0308649744838
0.00953962095082
0.00740484241396
-0.0429058857262
-0.0449211336672
0.00543940253556
0.00141547503881
0.0162708312273
-0.0316689126194
0.00988218188286
-0.000736674410291
-0.0227268878371
-0.0265546459705
0.033073130995
0.00469059031457
-0.0705171599984
-0.0245959162712
-0.0466364771128
-0.0849718227983
0.0790503397584
0.0069065131247
-0.0189222991467
-0.0173436608166
-0.0630865544081
0.012307039462
0.0511261709034
0.0241975355893
-0.0393611416221
0.0108931558207
0.00238852691837
0.044480394572
-0.0542843155563
-0.0287155397236
-0.0204274319112
0.0703717395663
0.0427917577326
-0.0558670051396
0.036035913974
-0.000857655191794
-0.0368699915707
-0.0213339775801
-0.0204243808985
0.00217934837565
-0.0182531308383
-0.0519598908722
-0.0433441512287
-0.0563703589141
-0.0372452549636
-0.0317401252687
-0.0279484186321
-0.00556010380387
0.025741821155
-0.0766231119633
-0.0970828458667
0.000986352097243
-0.0379693321884
-0.0430171266198
0.00581190362573
-0.0522619858384
-0.0125276716426
-0.0232105497271
-0.0676072090864
0.0284691471606
-0.0179704669863
0.0356164611876
-0.0343885980546
0.0524499043822
-0.0695246830583
-0.0413146167994
0.0322672650218
0.0185900945216
-0.0271472893655
-0.0429385714233
0.0282273925841
-0.00705428887159
-0.0457892939448
0.0444651097059
0.0416559316218
-0.0146459555253
-0.0197739992291
0.0158593952656
0.0408057309687
0.038118518889
0.0419083349407
-0.00602456601337
-0.021340848878
0.00584607338533
-0.0393170118332
0.0307674091309
-0.015708906576
-0.0144727826118
0.0149118052796
-0.0728843137622
0.0246752407402
0.0726127326488
0.00979897286743
-0.0148651218042
-0.0466010980308
0.0672048851848
0.00374721293338
0.0321319699287
-0.0021649019327
0.0170442387462
0.0100308470428
-0.026698442176
0.0195327587426
-0.0288256648928
-0.0989743620157
-0.0474643781781
-0.00765608111396
0.00320099806413
-0.051048066467
-0.0351559519768
-0.00267516518943
-0.0196423642337
-0.0383451990783
-0.0170505438
-0.0173224173486
-0.0558467917144
-0.0280183088034
0.00215794099495
-0.00674100872129
-0.0572978667915
-0.0471755899489
-0.0376824215055
0.0623912960291
0.0202882066369
-0.0185590535402
0.0017007496208
-0.0101459184662
0.0442873351276
0.0126912193373
-0.0601557381451
-0.066666610539
0.0413288995624
0.0365255959332
-0.0565080605447
-0.0484447181225
0.00686944974586
-0.00739291263744
0.0276212226599
-0.0190907008946
-0.0091810207814
0.0266510602087
0.00775857409462
-0.0332800075412
-0.0515672452748
0.0315023772418
-0.0263324696571
0.0436199493706
-0.0435466468334
-0.0502011962235
0.0287229139358
-0.00542510440573
0.0340645462275
-0.00773917185143
0.0355474241078
-0.09826618433
-0.0233364198357
-0.0530433543026
-0.0232536308467
-0.0774508491158
-0.0491734594107
-0.0482426248491
-0.0486217886209
-0.0244212057441
0.0364630557597
-0.0528396107256
-0.0344554781914
0.0607295036316
0.0499828308821
0.0326594598591
-0.0132403625175
-0.000686331884935
-0.0217863507569
0.0178345944732
-0.049210049212
-0.093897677958
-0.0754458904266
-0.0395269282162
-0.0400379598141
-0.0203729439527
-0.0448120348155
-0.0169743150473
0.00230357935652
-0.0355957858264
-0.0445472002029
-0.00530458940193
-0.0189816001803
-0.0374571233988
-0.0248408280313
-0.0849625244737
-0.0757053270936
-0.0626547709107
0.0153357954696
0.0562449544668
-0.0143506405875
-0.0373412407935
-0.00470058526844
0.071754321456
0.0864788815379
-0.0116624142975
0.0178776364774
-0.00893791113049
0.0148149160668
-0.0200538206846
0.0338448248804
-0.063412040472
-0.0699803680182
0.000215838037548
0.0413139313459
-0.0567751526833
-0.0215010493994
-0.0425788424909
-0.0372409261763
-0.0145040014759
-0.0426004230976
-0.00495785009116
-0.0422941148281
0.0344925485551
0.0692697390914
-0.010669873096
-0.0169502571225
0.0100931832567
-0.00639808690175
-0.0166315436363
-0.055686853826
-0.037812512368
-0.0157703198493
0.0166125688702
0.0483214184642
0.0128043601289
0.0313720926642
0.00432739732787
-0.0213784016669
-0.0277850646526
-0.000805252057035
-0.0268329232931
-0.0260498020798
-0.0537796355784
-0.0573941729963
0.021788418293
-0.0695465728641
0.0200138762593
-0.0396030321717
0.021703818813
0.0475777946413
-0.0484558157623
-0.0326922088861
0.00119997025467
0.0504165329039
0.0174108445644
0.0284637156874
-0.0359396748245
-0.0223915632814
0.0189028084278
-0.0485913231969
0.00703072082251
0.0491106621921
-0.0629021003842
-0.0244753491133
-0.000471834646305
-0.00681040761992
-0.034525487572
0.0290588978678
-0.0631830617785
0.00783781334758
0.0139971841127
0.071435071528
-4.69012320536e-06
-0.0719189718366
0.0456680878997
0.00523229967803
0.00542106851935
0.0336193777621
-0.0067145829089
0.0595913231373
-0.0233302358538
0.0517951063812
-0.0690671056509
0.0253141690046
0.0287998951972
-0.0806101262569
-0.0245192330331
-0.0718457996845
-0.0356749631464
-0.025711517781
-0.0376997031271
0.00338818319142
-0.0024384604767
-0.0854736864567
-0.0616079606116
-0.0611378028989
-0.0082381349057
0.0649118125439
-0.0124483155087
0.00745087629184
-0.0609275884926
0.0106529761106
0.00279627088457
0.0156211117283
-0.0463684014976
-0.0530245117843
0.0289125405252
0.0413953103125
-0.0527534298599
-0.0333834439516
-0.0533565618098
-0.0497462116182
-0.022883400321
0.0472424477339
-0.0494534671307
-0.00356149603613
0.00726121524349
-0.0131070250645
0.000132062079501
0.0250697955489
-0.0342478491366
-0.084840297699
0.0154141476378
-0.0234150364995
0.0110484920442
-0.0436945557594
-0.0103163570166
-0.0161263998598
-0.0295934993774
-0.0516686961055
-0.0213457662612
0.00412628846243
-0.017030345276
-0.025006769225
-0.0133815333247
-0.0176954567432
0.050053473562
0.0567041970789
0.0642578080297
-0.0616744793952
0.000211858336115
6.75516494084e-05
-0.0258589591831
-0.0267349332571
0.0447741560638
0.0739609003067
0.0844008848071
-0.000543311354704
-0.0445195659995
0.0275629851967
0.0454697050154
0.0742845833302
-0.0205499809235
-0.0743317976594
-0.00704721780494
0.0629254430532
0.0258685089648
-0.0153113277629
-0.0399390943348
0.0773754194379
-0.0148251596838
-0.0538561977446
-0.0544136315584
0.00304671819322
0.0576493777335
-0.0465899668634
-0.0606490336359
-0.0177434571087
0.0201410669833
-0.0658167824149
-0.0295141469687
-0.0752359628677
-0.0521216727793
0.0134016079828
-0.0453216470778
-0.0445421524346
-0.0666394680738
0.00782469473779
0.0274025313556
0.0478950664401
-0.042740073055
0.0199496150017
-0.0725134536624
0.0463004261255
0.0262962523848
0.0026318251621
0.0154251325876
-0.0425136350095
0.057831030339
-0.0395825691521
0.0609459243715
0.0135189993307
-0.0200828332454
-0.0160876903683
0.0658156946301
-0.0421070307493
-0.112280726433
-0.0148705746979
0.0203359853476
-0.0316038914025
-0.0622740313411
-0.0707690343261
-0.0448888987303
0.0760184824467
0.0335307493806
-0.0264895167202
-0.067449182272
-0.0137315941975
-0.00681726634502
-0.0265348162502
0.00999963190407
-0.0160652883351
-0.0191873926669
0.0887932851911
-0.0059548728168
0.0629241541028
-0.0173201821744
0.0244424734265
0.0305016357452
0.0580186098814
-0.0444889292121
0.0658982098103
0.0922555550933
0.0221862755716
-0.00629997020587
-0.0491336174309
0.0952664315701
0.0886376202106
0.0483480170369
0.0409199893475
-0.0388037115335
0.0768544301391
0.0409241840243
0.0157443378121
-0.0470893494785
-0.0979895293713
0.0237296037376
-0.0251413825899
-0.0631028786302
-0.0774434357882
-0.0616731382906
-0.0568787641823
-0.0837716460228
-0.0731037929654
-0.0333983041346
-0.0261939540505
-0.0265931561589
-0.082926645875
-0.0625592768192
-0.0337020419538
-0.0365714840591
0.0101174004376
-0.0541302897036
0.026421898976
-0.0274141263217
0.0486424639821
0.00227774563245
-0.047050151974
-0.0567257888615
-0.0445790886879
0.0448670499027
-0.0302992537618
-0.0485614016652
-0.0532737709582
-0.00187250389718
-0.0242877732962
-0.0249829515815
0.00215140660293
-0.0319349467754
-0.0200049448758
-0.042070351541
-0.0626033693552
-0.0240439996123
-0.0419819764793
0.0320218764246
0.00627448782325
-0.0686087235808
-0.0569045543671
-0.017495309934
0.0286316331476
-0.0141246048734
-0.0807282030582
-0.0225257333368
-0.0334764271975
-0.031541954726
-0.0193506348878
-0.0222742129117
-0.00728445593268
-0.0131316697225
0.0328278541565
0.00197941809893
0.0482066944242
0.0294660385698
0.0490862391889
0.00454848399386
0.00934847071767
0.0497053936124
0.00937170628458
-0.0596300773323
0.00448159640655
0.0301898866892
-0.00240142387338
-0.017911080271
-0.0622055158019
-0.0206676833332
-0.0618234239519
-0.00170472287573
-0.0814934521914
-0.0191925093532
-0.0155938751996
0.00114171509631
-0.0786138251424
-0.0397083163261
-0.0497069582343
0.0224237386137
-0.00623333547264
-0.0091134654358
-0.0956307426095
0.0182701256126
-0.0554967112839
-0.0161801353097
0.0279755871743
-0.013085110113
0.0298249013722
0.0570275485516
-0.00771215185523
-0.0155912647024
0.0395097136497
-0.0236414689571
-0.050045799464
-0.0491540655494
-0.00732866209
-0.0672820955515
-0.0661177113652
-0.0356229767203
-0.0730646252632
-0.0196950510144
0.0212066359818
-0.0176029521972
-0.0475977249444
-0.0314131714404
0.0195859596133
-0.0308019611984
0.0361366532743
-0.057869348675
-0.0107153393328
0.00648956000805
-0.00809717271477
-0.0238481573761
-0.0431714691222
0.0466706231236
-0.0410270653665
-0.0318474210799
0.0489645302296
0.00626944424585
-0.00122232921422
0.0467438586056
0.0379563942552
0.0237076226622
0.0233869571239
0.00459929462522
0.00353304413147
-0.00641105603427
0.0498801916838
0.0262972936034
0.0134377339855
0.0137469405308
-0.0176086481661
-0.0138914007694
-0.018389172852
0.0467673279345
0.0237103346735
0.00999633967876
0.00697871018201
0.00806705933064
0.0692472010851
0.0875882208347
0.0274224672467
-0.031227177009
-0.0691915228963
-0.00541889248416
-0.0873445346951
-0.0798222571611
-0.0935622081161
-0.0323348604143
-0.0315322466195
-0.0954097434878
-0.0250016525388
-0.0305879190564
0.0259136781096
-0.0248295422643
-0.030531084165
0.005969687365
0.00834798719734
-0.012289329432
-0.0271124392748
-0.00333401933312
-0.0545007064939
-0.0641520917416
-0.10598231107
-0.0772569850087
-0.0551080554724
-0.055741135031
0.0203767959028
-0.0402938388288
-0.0669929087162
-0.0365939252079
-0.0871454253793
-0.0216606557369
-0.0112604573369
0.0356413461268
0.0503185763955
0.0604594945908
0.042029555887
0.0546591281891
0.01394172851
0.0484024770558
0.0031293455977
0.0303061418235
-0.0242210999131
-0.00913233216852
0.00447862176225
-0.0388795286417
0.0526888407767
0.00902040302753
-0.00819224864244
-0.0395726263523
0.043675031513
0.0664141625166
0.0682187825441
0.0401555672288
-0.0169288124889
-0.0330644883215
0.0548476614058
-0.0326782986522
-0.042082734406
0.0591092854738
-0.013377789408
0.0505240634084
-0.0684639960527
-0.054264344275
-0.0572021119297
-0.0359862148762
0.00283806188963
-0.015120296739
-0.030259648338
0.00767498835921
-0.0559699200094
-0.0264019351453
-0.0826697424054
-0.069860227406
-0.0694370269775
-0.0282054021955
-0.0535467192531
-0.0457444265485
0.00764791900292
-0.0269658882171
-0.020899258554
0.0226524285972
-0.0156858954579
0.0549570024014
-0.0165778957307
0.00470819696784
0.0351431034505
0.00415301555768
-0.00461271032691
0.084586083889
0.0441732481122
-0.0315462350845
-0.0337255336344
-0.00686132954434
0.00643794378266
-0.0413684770465
-0.019781107083
-0.0423990897834
-0.0167145095766
-0.0482526794076
-0.0645261928439
-0.0219451785088
-0.0642534792423
-0.0139047522098
0.0112443966791
-0.0267817974091
-0.0309901237488
-0.0105772390962
0.00629181880504
0.033729750663
0.0123065346852
-0.0127177471295
-0.0438849851489
0.0491404533386
0.0265974868089
-0.0131255984306
0.013293011114
-0.0441773235798
-0.0452282913029
-0.0468362122774
-0.0274845752865
-0.0087596187368
0.0228339023888
0.0165987126529
-0.0049756122753
0.020251095295
-0.043422523886
0.0217212047428
0.0289205629379
0.0270819626749
-0.0107078934088
-0.00924893282354
-0.0310558173805
-0.0548050366342
-0.0194625034928
0.0207070726901
-0.0690527185798
-0.0333094373345
-0.0190175566822
0.0497331432998
0.0238617658615
0.0194759704173
-0.0118232890964
-0.0366066209972
-0.0425602011383
0.0346691384912
-0.0304432138801
-0.0678443461657
0.0667255595326
0.07538754493
0.0295372288674
-0.0703950375319
-0.0241226255894
-0.0279477778822
-0.0810216590762
-0.0460065566003
-0.0107955615968
0.00674428092316
-0.0236112978309
-0.0774942189455
-0.0592919103801
-0.0127802183852
-0.0583146996796
-0.0066326004453
-0.0186052471399
-0.0586030967534
0.00680560478941
-0.0448577776551
0.0170454718173
-0.0382474139333
-0.0411409884691
-0.0184718649834
-0.0403271503747
-0.0160670988262
-0.00986969377846
0.0494361519814
-0.0494888573885
-0.00974349025637
-0.0248409006745
0.0493595786393
0.0254625156522
-0.038257420063
-0.0135394912213
-0.00666824914515
0.0115338591859
-0.0820667222142
-0.0361532382667
0.0324856564403
0.048074092716
-0.0355158746243
0.0410280786455
0.0134612685069
0.00150588294491
0.00509139662609
-0.0741038694978
-0.0864109545946
-0.0820565670729
-0.0628573819995
-0.0996972620487
-0.0383876860142
0.0207626260817
-0.088127605617
-0.0810745954514
-0.0330459922552
0.0458969250321
0.00623371638358
-0.0153277274221
-0.0283342693001
-0.00507264398038
0.0588502697647
0.016502507031
-0.0180863011628
-0.0340769290924
0.0815793350339
-0.000909346097615
0.0102541772649
-0.0236198082566
-0.030929800123
-0.0104195354506
-0.00211330107413
-0.0389666333795
0.00665552355349
0.0273345820606
-0.00657704332843
0.0299107693136
-0.00731930974871
0.062167301774
0.00952936895192
-0.000370478752302
0.0322995185852
0.0238489564508
-0.0110971899703
-0.0364126339555
-0.0022517379839
0.0153990294784
-0.0227832496166
0.0389678776264
0.00971292238683
-0.0376134812832
-0.0543358996511
-0.044849280268
-0.0334910862148
-0.0159494094551
-0.0518315955997
0.0494786538184
0.063869215548
0.0346320718527
0.020487671718
0.0629812031984
0.0623263120651
0.0127535937354
0.0500668250024
0.0401770584285
0.0617141574621
0.060209415853
-0.0322975702584
-0.0580436363816
-0.0197976268828
-0.0609979182482
-0.0835566669703
-0.0608344525099
-0.00128213048447
-0.00669570779428
-0.0592829175293
-0.069324336946
-0.0753598883748
-0.00130846723914
-0.0737019851804
-0.00395416188985
0.0484751425683
-0.054521266371
-0.0692847296596
-0.100895754993
-0.0517528168857
-0.0641807317734
-0.107889190316
-0.0654625222087
-0.0703413486481
-0.043079957366
-0.0351209305227
-0.0369477756321
-0.0516830198467
0.0218796953559
0.0337179861963
0.0808875262737
0.0221003629267
0.0348735526204
0.00279708649032
0.0721794888377
0.085460357368
-0.0163774657995
0.0505032911897
-0.0166900027543
-0.0391965582967
-0.0414585769176
0.0408341102302
0.0769630298018
0.0159632377326
0.0180124863982
0.0852167159319
0.0051947766915
-0.00105629279278
0.0555332042277
0.0079175401479
0.0648258030415
-0.00360528146848
-0.0675034672022
-0.0134465629235
-0.0542087815702
-0.0860121771693
-0.0429079979658
0.0369639545679
-0.0585834383965
-0.0287495851517
0.00830143690109
-0.0349091589451
-0.0178158767521
-0.0753955096006
-0.0470713041723
-0.0420315228403
0.0450391881168
0.0650740489364
0.0810698196292
0.0137054678053
0.054897736758
0.0444985888898
0.0661689713597
0.0423151403666
0.0675412639976
-0.0251994952559
0.00931325834244
0.0148018542677
-0.064928598702
0.0227899998426
-0.0518193617463
-0.026715317741
0.0207565929741
-0.0790706053376
-0.0417822673917
-0.0850895270705
-0.0712178573012
0.0249615907669
-0.0630900338292
-0.0459157936275
-0.033187109977
-0.0375540480018
-0.0365100316703
-0.0832997784019
-0.015932969749
-0.0721539109945
-0.084362372756
-0.00140350195579
-0.0949704945087
-0.0620628632605
0.000692972738761
-0.058347389102
-0.0521405749023
-0.0240652039647
-0.0808989629149
0.00892278272659
0.00414422247559
0.0624370984733
-0.00748807005584
0.0229113996029
0.0653812512755
0.042821906507
0.0558527484536
0.0344562269747
-0.0288086272776
-0.0577298477292
-0.0262071751058
-0.0391038656235
-0.0495765842497
0.0325386896729
0.128843531013
0.101394683123
-0.00795063376427
-0.0338653251529
0.0350176356733
0.0421151220798
0.00317693431862
0.0145945716649
-0.0203791055828
-0.0636421740055
-0.106632426381
0.0133912479505
-0.0353296324611
0.0472115464509
-0.0555000342429
0.00697394227609
-0.0142106777057
-0.0268471091986
-0.00769141642377
-0.0250907689333
0.0221105292439
0.0366868413985
0.0554938875139
-0.000599430757575
0.00239854119718
0.0503977760673
0.0280531067401
0.02858796902
0.0269857421517
-0.0052910624072
-0.022729428485
0.0219997726381
-0.0382144637406
-0.0613584108651
-0.0615214966238
-0.0379783622921
-0.0237746089697
-0.0397257655859
0.00639912532642
-0.0102100819349
-0.0513213612139
-0.0561328940094
-0.0339212268591
-0.0669911652803
0.0405268371105
-0.0338603593409
-0.0424927696586
-0.0791844427586
-0.0624905191362
0.0395556129515
-0.0853107944131
-0.0709118172526
0.010208257474
-0.0438753589988
-0.0705167576671
0.0444703698158
0.0506415702403
0.0548485517502
0.0274652317166
0.0168988760561
0.0396680645645
0.0463761724532
0.0457068942487
-0.00387565349229
0.0603209063411
0.0183064322919
0.00985067058355
0.00856051314622
-0.0474195703864
-0.0285480190068
-0.00117500848137
0.00478126574308
0.0561287328601
0.0153444027528
-0.0492654629052
-0.0227635204792
0.0965078920126
-0.0145138446242
-0.00806617829949
0.0228957887739
-0.00566635699943
-0.0154553186148
-0.0559709668159
0.0615803860128
-0.022987395525
0.0287329796702
0.0041362401098
-0.0345899164677
-0.0177028235048
0.0275117140263
0.00787533726543
-0.0126403197646
-0.0363968238235
0.0189840849489
0.0261865202338
-0.0144629394636
-0.0419632270932
0.0108702294528
-0.0413421206176
0.0249964464456
-0.0573074817657
-0.0372615978122
0.0468933694065
-0.0313293561339
-0.0318930372596
0.0203780215234
-0.035207811743
-0.0363959781826
-0.0277360957116
-0.0196047928184
0.0320255495608
-0.0410910919309
-0.0470654144883
0.0455010905862
0.0240107029676
0.0395997203887
0.0363336615264
-0.0474811121821
-0.0323337316513
0.0074795987457
0.0444075502455
-0.0703445896506
-0.0798483192921
-0.0534292198718
-0.0507076866925
-0.0238146837801
-0.0166369378567
-0.0468115769327
-0.0606422573328
-0.00106641137972
-0.0285815000534
0.00751324836165
0.00772889936343
0.00993739813566
-0.0123012838885
-0.0247355625033
0.00834154710174
0.0474913753569
-0.0267341416329
-0.0251479204744
0.0273011233658
-0.0287423804402
0.0406587384641
0.0152834123001
0.00191895198077
-0.0275545716286
-0.025650030002
-0.00255599594675
0.00404406618327
0.0356689803302
0.0163566675037
-0.0505226813257
-0.0413339100778
-0.0368263535202
0.00316537776962
-0.014557258226
-0.0105733890086
0.00404628552496
-0.028864974156
0.0355248525739
0.0155495088547
-0.0433152727783
-0.0030734448228
0.0531443096697
-0.0106450859457
-0.0370217561722
-0.0451780371368
0.0388147309422
-0.0128164403141
0.00212526018731
0.0309409350157
0.0613015219569
0.0328785181046
0.00775608979166
0.0385812707245
-0.00574101647362
0.0445429012179
-0.0556186661124
-0.0177007187158
-0.042004365474
0.0419170223176
0.0457442291081
0.00951877608895
0.0253442060202
0.0125530231744
-0.0282673016191
-0.05098663643
0.0445791296661
0.0153281595558
-0.0398674719036
0.032936964184
-0.0382397547364
-0.00954104959965
0.00744412653148
0.0330679677427
-0.0136444214731
-0.0464292541146
-0.00355694210157
-0.0430604815483
0.0173515230417
0.0107725514099
0.052494097501
0.0282191801816
0.0192736200988
-0.0459907017648
0.00707152951509
-0.0431850850582
0.00988360028714
-0.0359638780355
-0.026592630893
0.0346663407981
-0.0659742131829
0.0333929806948
-0.0428555198014
-0.0552093237638
-0.00682969763875
-0.0216488465667
-0.00318277138285
-0.0296292137355
-0.0361373350024
-0.0383579581976
-0.0224773157388
-0.0317756161094
-0.00693659577519
0.0369748063385
0.00571365235373
0.00668516382575
0.0165435317904
-0.0363528393209
-0.0125001529232
-0.0316473022103
0.00329409353435
-0.0136640220881
0.0212358571589
0.0330928899348
0.0232985485345
0.0139211239293
-0.0432385466993
-0.0270885117352
-0.0332108214498
-0.0452570989728
-0.000969593471382
-0.0639422163367
-0.000286652124487
-0.040182352066
-0.0702050179243
0.00148162804544
0.0524442121387
0.0283233113587
-0.0673703476787
-0.0222632065415
0.0277213454247
0.0639281794429
-0.00828290823847
-0.0206652637571
0.0320757105947
0.0554468892515
-0.067805506289
0.0402934812009
-0.0501956567168
0.0529133118689
-0.0338567383587
-0.0259838588536
-0.0461764372885
-0.0469236373901
-0.00890186987817
-0.0175377372652
0.0203369464725
0.0116459000856
0.000658957345877
-0.0157469715923
0.0354561209679
-0.00626120623201
-0.0250023771077
0.0395714715123
0.06222339347
0.0795503631234
0.030438227579
-0.0350128822029
0.0521139651537
0.0694652125239
0.00242640706711
-0.0385813340545
0.0565764456987
-0.00339985149913
0.0576233938336
0.0257345698774
0.00576274609193
0.0591762550175
-0.0571802891791
-0.0501163080335
0.0226868633181
0.0487737841904
0.00365201430395
0.0222225822508
-0.0379836931825
-0.0730617418885
0.0559605583549
0.0189806483686
-0.0367017798126
-0.0473250597715
-0.00793804135174
0.0386014096439
0.000364536070265
0.0113639365882
0.020521428436
0.0186806321144
-0.0146566424519
-0.00602264795452
0.0544907487929
0.0358726531267
-0.0543401986361
-0.00763102248311
0.0141300447285
0.0327799320221
0.0164112895727
-0.0497651919723
-0.0157949905843
0.0410396941006
0.0265687406063
0.0166020113975
-0.00200655148365
-0.0416310727596
0.0010897249449
0.0529857836664
0.00403312500566
-0.0122783500701
-0.0415670014918
-0.00696267327294
0.0323853679001
-0.0368721410632
-0.0150700844824
0.0231628455222
-0.0405546426773
0.017083466053
0.0436006523669
-0.0502685010433
-0.0273060258478
0.00166924356017
0.0313584841788
-0.0158811733127
-0.0608066208661
0.0114653054625
-0.018971959129
-0.0186391156167
-0.0472542718053
-0.00986511167139
-0.0177274942398
-0.0569898448884
0.00332004576921
-0.036105453968
0.0452066510916
0.0366399437189
-0.0475506000221
-0.00590581912547
-0.0161832123995
-0.0469286926091
-0.0105092087761
-0.052499871701
0.0172650348395
-0.0434332564473
-0.0521395131946
0.00874709989876
0.00948635395616
0.0261357761919
-0.011431036517
-0.0518455244601
0.014809589833
0.00310053536668
-0.0119809331372
-0.00865909736603
-0.0138342184946
0.0426286458969
0.00338503927924
0.0250519085675
0.0239214524627
-0.00283758551814
-0.0319990068674
-0.0232841409743
0.0220090802759
0.0591443628073
0.0327919349074
-0.0494084395468
0.0246428027749
-0.00610607070848
-0.0173248611391
0.0185196790844
0.032582230866
0.0335068814456
-0.0437747649848
0.0173319205642
0.0265425220132
-0.0014512212947
-0.00156510586385
0.0497193001211
0.0302935279906
-0.0763678252697
-0.0618529580534
0.0273115243763
0.0128478175029
-0.0175445154309
-0.0456079468131
0.0293706040829
0.0687615647912
8.50471842568e-05
-0.00698069855571
0.0404045209289
-0.0245632193983
0.0430612787604
0.0040797367692
-0.0439060479403
0.0402913838625
0.0398861579597
-0.0284167900681
-0.0454357638955
-0.0341278016567
0.0181020144373
0.0227809268981
0.0443635545671
0.0416788160801
-0.0122780567035
-0.0322847887874
-0.0193816330284
0.000525123323314
-0.0447029322386
0.0189708266407
-0.00631359219551
0.0461474023759
-0.0392197370529
0.0157970935106
-0.0372987724841
0.000228144068387
-0.0679607093334
0.024191884324
0.0468650683761
0.0192637871951
-0.0320963263512
0.0355855114758
-0.00904017314315
-0.00266993138939
0.00938334781677
0.0478256046772
-0.0238800942898
-0.017436536029
-0.0500221922994
-0.0704779177904
-0.0117974737659
0.0852776244283
0.0204424634576
-0.0744741782546
0.0320776998997
0.0995688587427
0.00366692175157
-0.0141188893467
-0.0175736378878
0.0714768320322
0.0696959421039
-0.019621944055
-0.0434280820191
-0.00960552506149
-0.0383952371776
-0.0256165713072
-0.0107470154762
0.0469704121351
0.0286484602839
-0.01404525619
-0.0662864893675
-0.0089796576649
0.0416153147817
-0.0580227710307
0.0501511842012
0.0467611253262
-0.0731479972601
-0.0495166890323
0.0234259665012
0.0883154943585
0.0231520235538
-0.0741409659386
0.0179080534726
0.0111902020872
0.0469957999885
-0.0595693141222
-0.0399412475526
0.0208145510405
0.0402045659721
0.000540195789654
-0.00765772536397
0.0316260457039
-0.00957789923996
-0.0335792265832
0.0234450250864
0.00109597516712
-0.00899010710418
0.0392156243324
-0.0540152788162
-0.00740656396374
-0.0479292273521
-0.0582056753337
0.0522961206734
-0.00769114401191
-0.0633303001523
-0.0172156523913
-0.0119528379291
-0.0809192210436
-0.0164017323405
0.0111327562481
-0.0213330816478
-0.0379976779222
0.00150386954192
-0.0111121088266
-0.0100962854922
0.00659872405231
0.00989265087992
0.013312343508
-0.0168069843203
-0.0188058465719
0.0189413297921
-0.0305562037975
0.00984164327383
-0.0411709100008
-0.0559440217912
0.041416529566
-0.0150680439547
0.0210114046931
-0.0755309388041
0.0130972489715
-0.0153048373759
0.00452390918508
-0.00103678589221
0.00118086591829
-0.0336856245995
-0.0423538945615
-0.0840857475996
0.0122375329956
0.0143001759425
0.0343108177185
-0.00631281966344
-0.00618665898219
-0.0404801778495
0.0278540905565
0.0112011143938
-0.00715562375262
0.0080976402387
-0.0542078837752
-0.0165758803487
0.0203618202358
0.0349637046456
-0.0382448174059
0.00147510343231
0.0613543242216
-0.0283256284893
-0.0228308383375
0.0604452341795
-0.0155160920694
0.00992896594107
-0.0479412712157
-0.026670569554
0.0248352698982
-0.0186180640012
-0.0379662550986
0.000703379861079
-0.035869371146
-0.046507474035
0.0129743153229
-0.0152924293652
-0.0379693768919
-0.040395244956
-0.035246938467
-0.0358793511987
-0.0362850576639
-0.0130271874368
-0.029947431758
0.00605385750532
-0.00275153317489
0.0326778255403
0.0226887613535
-0.00246252282523
0.0337328761816
-0.042034342885
0.0185469705611
0.0135700153187
0.0111494623125
-0.000354978139512
-0.0208376105875
-0.0346418395638
0.0342146493495
-0.0362238101661
-0.026603884995
0.0624799728394
0.0238731391728
0.0184894744307
0.00901047047228
-0.0130889154971
0.0661301985383
-0.0407520569861
0.0140803307295
0.0703331753612
0.0757799223065
-0.0195341594517
-0.0389028564095
-0.0174388643354
0.0188035145402
0.0775786936283
0.0616799108684
0.00114241801202
-0.00478498963639
-0.0568306036294
0.0173980519176
0.117650702596
0.0822082161903
0.0700114816427
0.00293936044909
-0.098240531981
0.00437446683645
0.00493529206142
0.0735192671418
0.0666264295578
-0.0149432485923
-0.0597579069436
-0.0444767512381
0.00337957381271
0.00835504569113
-0.0632493719459
-0.0235656928271
0.0179389622062
0.0467764846981
0.0521620810032
-0.0151992104948
-0.0218280535191
0.01728576608
0.0651103407145
0.0466025210917
0.047123003751
-0.0914191678166
-0.000588195805904
0.0178351253271
0.0967912077904
0.0911340564489
0.00253188051283
0.021591912955
-0.104919284582
0.028614345938
0.102977640927
0.0454319491982
-0.00958118215203
0.0443407632411
0.0717650279403
-0.04755204916
-0.0262184794992
0.0220927782357
0.0370440706611
0.0707847848535
0.00586564932019
-0.0898447260261
-0.0528422556818
-0.047036383301
0.083012022078
0.13651253283
0.0170915219933
-0.0180453043431
-0.0387609153986
-0.0926935747266
0.126157313585
0.0863416492939
-0.0216369424015
0.0312667638063
-0.1142122522
-0.0242454335093
0.00716964807361
0.0175935663283
0.0280149262398
-0.0288698021322
0.0345295257866
-0.0182049479336
-0.0252344924957
-0.0433416292071
-0.0245887544006
0.0674945861101
0.0626138523221
0.0578805170953
-0.0100279487669
-0.0356653891504
0.0177328549325
0.0365915559232
0.0716860815883
0.00299441418611
-0.0340549685061
0.0191409625113
0.0598595738411
-0.0214222986251
0.0376366041601
0.0243371576071
0.041983474046
0.00960125122219
-0.0421754010022
-0.0399398468435
-0.0109524186701
-0.0429844520986
-0.00525200180709
-0.0604106076062
-0.0289210360497
0.0233932752162
-0.0335664562881
0.015548623167
0.0271287187934
-0.0418152622879
0.0550671704113
-0.0166295636445
0.00138113112189
-0.0463683828712
-0.0720977708697
0.0522655248642
-0.00590476812795
-0.0455535203218
0.000568833318539
-0.0450954474509
-0.00655333604664
0.0333688519895
0.00975105166435
0.0088342083618
-0.0473698377609
0.00510997977108
0.0447716191411
0.0387321636081
-0.02625904046
-0.0671178176999
-0.0250002965331
-0.0169585831463
0.0208381284028
-0.018558524549
0.027435740456
-0.0179379004985
0.013610497117
-0.0319232009351
0.0183108635247
-0.0244278125465
-0.0200860518962
0.00682374928147
0.037469342351
0.0268923938274
0.0201324280351
-0.0306792873889
-0.00495128287002
0.0509241707623
-0.0523958615959
-0.0429733619094
0.0451738871634
0.062377884984
0.0433902479708
0.0322167128325
-0.0566380470991
0.0203499980271
-0.0166593845934
0.0255896616727
-0.0228325165808
-0.0311491508037
0.0031631947495
-0.0230049248785
0.00494751706719
-0.00209408346564
-0.012241284363
0.043782632798
-0.0604224726558
-0.00718292221427
0.0235614012927
0.0223073773086
-0.0304167512804
-0.056835193187
-0.0371483638883
0.0151382191107
-0.0467105992138
-0.0277284365147
0.0499002858996
-0.0307726226747
0.0515794865787
0.0168865248561
-0.0282346531749
0.023548360914
0.0169751681387
0.00992774032056
7.08686493454e-05
-0.016894698143
-0.0101591031998
0.022538330406
0.0202188752592
-0.00130990706384
0.0572151504457
-0.0203559100628
-0.037577021867
-0.0170820374042
-0.0209147073328
-0.0118420924991
0.00122959958389
0.00351718650199
-0.0157633237541
-0.0264448262751
-0.00467196432874
-0.0449589006603
-0.054181728512
-0.0612549670041
0.0232578683645
0.0658444538713
-0.0402712039649
-0.0480199344456
-0.050091098994
0.0375750698149
0.031368445605
-0.000492527906317
-0.0442482642829
-0.0221009608358
-0.0883160829544
0.000750345468987
0.0362127870321
-0.0365331396461
-0.0258024893701
-0.00596124073491
-0.0780711844563
0.0706058889627
0.028390141204
-0.0448450446129
-0.040116880089
0.052657738328
-0.0196929164231
0.0148003809154
-0.048188496381
-0.020995547995
0.0426837317646
0.0480803176761
-0.00580595526844
-0.0701196119189
-0.0150489611551
0.0594313777983
0.00881174206734
-0.00528466468677
-0.00414082827047
-0.0312526077032
0.0186000857502
0.100983835757
-0.0197558123618
0.0289489459246
-0.0277454089373
-0.0240077544004
0.055691819638
-0.0210587121546
-0.0504103675485
0.0125689972192
0.0514063164592
0.0564073957503
0.008933971636
0.0307092685252
-0.0122525813058
-0.00519031565636
0.0229005608708
-0.044105052948
0.0297310706228
0.00336583470926
-0.00261868257076
0.106544271111
0.0467804856598
0.0145447384566
0.0120275737718
-0.086445376277
0.0573521256447
0.039623785764
0.0133741507307
0.0459559969604
-0.0474363155663
-9.10607195692e-05
0.0550032481551
-0.0100849485025
-0.0370703674853
-0.0211810227484
-0.0153374345973
0.00645309593529
-0.00381843745708
0.0366822443902
-0.0390517041087
-0.0428173020482
0.00737099116668
0.0635574236512
-0.0279273521155
-0.0290970802307
-0.0664259642363
0.00262690684758
-0.0398335456848
0.0534581020474
0.016794225201
-0.0287587083876
-0.0473660007119
-0.0512982085347
-0.0339594185352
-0.00129434105475
0.0425911396742
0.030529178679
0.030028346926
0.0503891371191
-0.0177362337708
0.0215067490935
0.0170498527586
-0.0246987361461
-0.0124601321295
-0.0098540848121
0.0123552270234
-0.0806218162179
-0.0760472491384
-0.034681878984
-0.019817084074
0.0372350551188
-0.0784950181842
-0.0739160776138
-0.0944031625986
-0.0176762975752
0.0502680018544
-0.0451097413898
-0.0662261247635
-0.120293073356
-0.0659414157271
-0.0236318912357
-0.0221385825425
0.0344275981188
0.0291135814041
-0.0467096082866
0.025986213237
0.0087810754776
-0.00670946389437
0.0088637471199
-0.0481694862247
-0.0342859253287
0.0269664619118
0.0465291440487
0.0474602989852
0.0213507935405
-0.0354322530329
0.0570625402033
0.0234110262245
0.0169547684491
0.0755757391453
0.0386877059937
0.00868471618742
0.00692396378145
0.0698495954275
-0.00672783795744
-0.0143907284364
0.0385222658515
0.0533747896552
0.000679614837281
-0.0102322818711
-0.0202899649739
0.0509710051119
-0.035262208432
-0.0671093836427
-0.0462478883564
-0.0115475226194
0.071213811636
0.0623309649527
-0.0265658535063
-0.0683441460133
-0.0852318406105
0.0281736254692
-0.0447101891041
0.0362675264478
-0.0537692047656
-0.0321078039706
-0.0395383499563
-0.0419560968876
0.0639645308256
-0.00579794403166
0.0190047621727
0.0462420918047
-0.0173631459475
0.00193156686146
0.0656565800309
0.0438882932067
-0.0186849758029
-0.066858753562
0.0220603663474
0.0140820862725
0.0310464221984
-0.0822080746293
-0.0454785786569
-0.0749131292105
-0.0275754835457
0.0349742472172
-0.00186848489102
-0.0446902662516
-0.0625344440341
-0.057462092489
0.0588069744408
-0.0513082146645
0.0185283441097
0.0106206135824
-0.0511633940041
-0.0352432578802
-0.0531006529927
0.0169099513441
-0.0182849820703
0.0242289081216
-0.0198478251696
-0.0457201786339
0.0351736806333
-0.0387216731906
-0.0172762610018
-0.0494146905839
0.00833310652524
0.0495058745146
0.042281486094
0.0244418308139
-0.0663780868053
-0.00772321224213
0.00336742959917
0.0184732563794
0.0817137360573
0.0370490588248
-0.102250345051
-0.00194348627701
-0.0108338249847
0.103760629892
0.116636000574
0.0694121941924
0.00866860151291
0.0573140233755
0.0261040143669
0.0075846449472
0.0369357950985
0.00357940862887
0.0267578102648
0.0174701679498
-0.0358575172722
0.0292605906725
-0.0247046146542
-0.0241511613131
-0.0627609267831
-0.00123184651602
-0.0427517853677
0.0319327190518
0.0613247528672
-0.00832938868552
-0.00784434936941
-0.0528328865767
0.0012836009264
0.0350485555828
0.014414655976
0.0420877560973
0.0422140359879
-0.044934142381
0.0333113335073
0.00791267864406
0.00261453492567
-0.057443510741
-0.016878163442
-0.0406837798655
0.0228893030435
-0.0518585853279
-0.063979037106
-0.0660652220249
-0.0418344475329
-0.0185682680458
-0.0568326562643
-0.0648868307471
-0.0293000824749
-0.0333483442664
-0.0497403480113
-0.0949907824397
-0.0110791493207
-0.014239192009
-0.0484398193657
0.0167528875172
-0.0520331375301
-0.0671498402953
0.00496139191091
-0.0340132936835
-0.0239258091897
0.0458614714444
-0.0117105673999
-0.036804202944
0.0197939220816
-0.00444495258853
-0.0167028252035
0.00720558082685
0.0257865916938
0.0101281264797
0.0288235545158
-0.000149577943375
-0.0587465688586
0.0333743058145
-0.0205870047212
0.0359514020383
0.108306027949
-0.0685374885798
0.0270367972553
0.0473560169339
0.111218310893
-0.0405371151865
-0.0593392141163
0.00124542787671
0.0540189445019
0.0437259972095
0.0808642953634
-0.064082197845
-0.0265276245773
-0.00530134467408
0.0218239538372
-0.0105368345976
0.0456403419375
0.00351630756631
-0.0738819018006
-0.029783943668
0.055863417685
0.0207104757428
-0.0437591820955
-0.117401659489
-0.0423290207982
0.0459322147071
-0.0658661350608
-0.0423967987299
-0.0530719831586
0.0193027108908
-0.0385694392025
-0.0782216340303
0.0102071799338
-0.0647716075182
0.00981776136905
-0.0892307311296
-0.0213416218758
0.0392962247133
-0.0196725763381
-0.0519709140062
-0.0666002631187
-0.0371304266155
-0.0031274468638
-0.020525528118
0.0188663806766
-0.108879186213
-0.00772151025012
-0.0202764347196
-0.0488498881459
-0.0683552473783
-0.0437933690846
-0.0101072769612
0.0369516424835
-0.057750120759
-0.0731599852443
-0.0575908236206
-0.00782755576074
0.0640305951238
-0.0316316522658
-0.0425029546022
-0.0450444594026
-0.0723048448563
0.0583411380649
0.0808889865875
-0.00857706554234
-0.0216604545712
-0.0695223361254
-0.0701477304101
0.0458986796439
0.041901152581
-0.00521349580958
0.0292689576745
-0.0543863289058
0.0140872588381
0.0358592234552
-0.0660428851843
0.0213653352112
0.011633371003
-0.0210905801505
-0.0292554683983
-0.0169482901692
0.0100302714854
0.00646834215149
0.0954537913203
0.0544033907354
0.0548712126911
-0.03139577806
-0.0472530163825
0.0628424063325
0.025871893391
0.0442231893539
-0.0144965071231
-0.0587079524994
-0.013723009266
0.083574347198
0.0379167534411
-0.0212774928659
-0.00571741396561
-0.0699633136392
0.0467162393034
0.0169331189245
-0.0127143505961
0.00427956599742
0.0295809060335
0.00256048282608
-0.0491052754223
-0.0575279667974
0.0139445178211
-0.0451677180827
-0.0228153057396
-0.0732624605298
0.0321691073477
0.0588449239731
0.0116472542286
-0.0311583839357
0.00893858075142
-0.0813453271985
-0.016435245052
0.0487737990916
0.0266585852951
0.0472861528397
-0.0170286074281
0.00486371526495
0.0245773214847
-0.0197578612715
0.0152317155153
0.0219519305974
-0.0470878258348
-0.054830212146
-0.00105664390139
-0.00360555876978
-0.0262073203921
0.0599362328649
-0.0172403715551
-0.00778988702223
-0.016053551808
-0.0801443979144
0.0581432916224
0.0317617803812
0.0256623215973
0.0551357753575
-0.0664313137531
-0.0669083744287
0.00251583568752
0.0555159822106
0.028333902359
-0.0625347271562
0.0223796665668
0.00278976885602
0.0311393924057
-0.000297685794067
-0.0876161828637
-0.037580512464
-0.0183246396482
-0.0149088660255
0.0192814208567
-0.0756784304976
0.037241332233
0.016691384837
0.0317324772477
0.0283993892372
-0.033439386636
-0.0139680327848
0.00887864641845
-0.0320040546358
-0.0117662968114
0.016538053751
-0.0505748726428
-0.030210705474
-0.0502583794296
0.0337414629757
-0.0527293048799
-0.035993732512
-0.0835366547108
0.090868294239
0.0774512067437
-0.0506779477
-0.0334399491549
-0.0499880202115
0.0546491183341
0.0674816519022
-0.0126316752285
-0.0226866323501
-0.0454000532627
-0.00944858416915
-0.0161838438362
-0.0193980410695
0.0439532920718
-0.0297751557082
-0.0823227465153
0.0466287024319
-0.0110978055745
-0.0351377017796
0.0070253633894
-0.0463664270937
0.072690308094
0.000228325749049
-0.0454553738236
0.0334003269672
0.0666029378772
0.00108920363709
-0.087291046977
-0.0190753154457
0.00384993851185
0.0668594613671
-0.0140954870731
-0.0065048225224
0.0488303378224
0.0118147842586
-0.00755146890879
-0.0534812361002
0.0147788543254
0.0203513428569
0.075115762651
-0.00911884568632
-0.104165025055
0.0117907058448
-0.0123935099691
0.0476145148277
-0.0532798431814
-0.0590802468359
-0.0322637408972
0.0245913323015
-0.0285469219089
-0.0765492096543
-0.0145535152406
0.00918089225888
0.026375323534
-0.0423785410821
-0.0314509645104
-0.014178680256
0.0227397792041
0.013146805577
0.0245263949037
-0.0572789572179
-0.105980992317
-0.0468457378447
0.104944713414
0.0172255877405
0.0202684216201
-0.0597954653203
-0.064511410892
-0.0220876242965
0.0700026601553
-0.0300585255027
-0.0817089527845
0.0241808854043
0.0164962857962
0.0622568875551
-0.0104381293058
-0.0247216653079
0.0408839657903
0.033931273967
-0.0230153817683
-0.0665136948228
0.00767792202532
0.00297919660807
0.0425746738911
-0.0491714701056
0.0474355742335
0.0214450452477
-0.0270356517285
-0.00569415604696
-0.0280712824315
0.0451356582344
0.0211002770811
-0.0211186837405
-0.00483465893194
-0.0343291386962
0.0448418967426
-0.016232945025
-0.0732893794775
0.00821426417679
-0.0507791824639
0.00729692773893
0.0275389682502
-0.0717323943973
-0.0262687467039
-0.00844170153141
0.0889997929335
0.0281875971705
-0.0184051189572
0.0164139308035
-0.00382177555002
-0.0075925597921
0.00870583765209
0.0303326249123
-0.0124725662172
-0.033605851233
0.0205302070826
0.0128614362329
-0.0565917491913
0.0327280759811
-0.00610392354429
0.0133175291121
0.0494924411178
-0.0444267876446
0.049434568733
-0.0020019703079
0.0787077993155
0.0945370495319
-0.02805554308
0.0320358425379
0.0674873068929
0.0766376182437
-0.02888632752
-0.0469113625586
0.00429402198642
-0.0834222733974
-0.0194059461355
0.00406610779464
-0.0375907346606
0.0629070848227
-0.0417126975954
0.0215237140656
-0.059251524508
0.0166604127735
0.0574381202459
0.00895680859685
0.00509552843869
-0.0575723908842
0.0460713990033
0.01578791067
0.101631172001
-0.0457788035274
0.0162726845592
0.0961929485202
-0.0331229306757
0.0405266806483
-0.0395310372114
-0.00219823699445
0.0621087551117
0.0375403501093
-0.00150784244761
-0.0122610991821
0.0443801395595
0.0566122755408
-0.0321520604193
-0.063797198236
0.0105631100014
-0.0179118104279
0.0127965034917
-0.0444002263248
-0.0302000064403
-0.0859787240624
0.0686256811023
0.0727023258805
0.0165518075228
-0.054172758013
-0.0301990285516
0.0492037534714
0.0608054101467
0.0324706248939
0.0091000283137
0.0421701818705
0.0570675469935
0.0527474805713
-0.0123531296849
-0.0192965269089
-0.00897412095219
0.00931167043746
-0.0248740203679
0.0287388004363
0.00912902597338
-0.0367444455624
0.0606062375009
0.0243621189147
-0.00470423372462
-0.0534451827407
-0.032201513648
0.068918146193
0.0434436686337
-0.00952225085348
-0.0162040721625
0.0331090055406
0.0603473857045
-0.00372827262618
0.0119361104444
-0.00161947996821
0.0784337297082
0.0406104028225
-0.0875465497375
-0.0765247642994
-0.0247871875763
-0.0424108766019
-0.0794574767351
-0.105640023947
0.0282319635153
0.0558080822229
0.0255429409444
0.0353422909975
-0.032416831702
-0.024762602523
-0.00273697078228
0.0530505999923
-0.0271656420082
-0.0885080173612
-0.0425134971738
0.0779982283711
0.0721212178469
-0.0383451655507
-0.0889216139913
0.013709324412
0.0709124431014
0.0181397795677
-0.0304318424314
0.0309858787805
-0.00976212695241
0.0280425790697
-0.00611353013664
-0.0112347304821
-0.0222086813301
0.0249619949609
0.00536269554868
-0.0564788654447
-0.062916778028
0.0125101618469
0.0577944666147
-0.0073518641293
-0.0498045310378
-0.0315427929163
0.0285285376012
-0.0514195784926
-0.0218091756105
-0.0505308993161
-0.0265435334295
-0.0271225962788
0.00877159275115
-0.0317252576351
-0.0435909442604
-0.0864219516516
0.00408721901476
0.0354548841715
-0.0206801947206
-0.0218821763992
-0.0449820421636
0.0114129669964
-0.00210016197525
0.0440816245973
0.00453797262162
0.0351941473782
-0.0339048840106
0.0260020196438
0.00832214578986
-0.0602289251983
-0.0129851941019
-0.0269628558308
-0.0117802415043
-0.0700698196888
0.031697653234
0.0661157369614
-0.0751860961318
0.000937635195442
-0.0374467559159
0.0733248218894
0.0133811701089
-0.0234129000455
-0.00486877327785
-0.0575165450573
-0.0259816646576
-0.0850996747613
-0.0356224700809
0.0346094556153
0.0125845512375
0.00624667527154
-0.0344563238323
-0.0824514403939
0.00985220912844
-0.0495496429503
0.0289657656103
-0.061825659126
-0.0303052179515
0.0326822698116
0.104831106961
-0.0142489522696
-0.0576022528112
0.0232997853309
0.0894750282168
0.00783326663077
-0.0368883050978
0.00653389003128
0.055984351784
0.027186891064
0.0433873683214
-0.0269522834569
-0.0228262729943
0.0067175948061
-0.0411281920969
-0.0611072070897
-0.0512145981193
-0.093916259706
-0.0279661361128
0.00528037501499
-0.00600799126551
0.0285668317229
0.0423358641565
-0.0361657701433
0.0122752105817
0.0316458530724
-0.0269660539925
0.01598736085
0.00752792786807
-0.0626142323017
0.00412200344726
-0.00297784269787
-0.0249317847192
-0.0208294205368
0.0643338933587
0.0291759166867
-0.0203604754061
0.020654425025
-0.0328623056412
0.0318860299885
0.0240363348275
0.111324317753
0.121540553868
0.0915352925658
0.00835646223277
-0.0678005442023
-0.0619088336825
-0.0695356726646
-0.0294200479984
0.0319046154618
0.00919322483242
-0.0468299090862
-0.0268720500171
-0.0542159378529
0.0308736301959
0.056032884866
0.0944944769144
0.00596316065639
0.0501364134252
-0.00204932782799
-0.0144394356757
-0.0151603436098
-0.00607923883945
-0.0437794104218
0.0566410496831
-0.041431620717
-0.0877262726426
-0.0344806872308
-0.00680688023567
0.135722354054
0.180821895599
0.202384799719
0.149644687772
0.0219822153449
0.0153690576553
0.150761157274
0.175553321838
0.205111458898
0.110551677644
-0.0868752077222
-0.10077213496
-0.147127181292
-0.0998317301273
-0.0127420015633
0.00965530052781
-0.0420335903764
-0.0671817138791
0.00159996841103
-0.0262763556093
0.0513121448457
0.0277267359197
0.102478854358
0.0558323785663
-0.00206857547164
-0.0376332364976
0.0466947965324
0.00493380939588
0.0374263077974
-0.00499498611316
-0.119313895702
-0.0631996840239
-0.0932671502233
-0.0182677153498
-0.0212240852416
-0.0865184143186
-0.00468378467485
-0.0883559882641
-0.101042494178
-0.0896877869964
0.00402535591274
0.0490326322615
0.0118768662214
0.00123478739988
0.0348952263594
-0.0327985771
-0.0245939940214
0.0338361561298
0.0568741075695
0.0359205156565
-0.0337460264564
-0.0595470778644
-0.0688119232655
0.0144129162654
0.0377649180591
-0.00230596819893
-0.0253169238567
-0.0722349435091
-0.0312284249812
0.0171349328011
0.0740556195378
0.0492185428739
0.0877541229129
0.00260011432692
0.0655981451273
0.0197692923248
-0.0324361622334
-0.0697090625763
0.0117624839768
0.0305667873472
0.00399078661576
0.0565378256142
0.000921562197618
0.0760156959295
0.00106355641037
-0.0353889837861
-0.0355706401169
-0.00024038956326
-0.0434636697173
0.0347453393042
-0.043432276696
-0.0779526755214
0.0108674354851
0.0248603653163
-0.0590887777507
-0.0773090645671
0.0242563895881
-0.064500644803
-0.0126847391948
-0.0072502316907
0.0453411825001
0.0163925029337
0.0190158877522
-0.0280403289944
0.0144205372781
-0.0230410732329
0.040281444788
0.0353070087731
0.0468174181879
0.0724845677614
-0.0161379333586
0.0436599291861
0.0660987719893
0.075837507844
0.0200942531228
-0.064901791513
-0.0444415993989
-0.0775598287582
-0.0277823247015
-0.0716952010989
-0.0256166104227
-0.0388873964548
0.00598704162985
0.00769477384165
-0.0795447677374
0.0211042370647
0.0534643568099
0.0508024208248
0.0211541075259
0.0637771710753
0.0257722660899
0.0452895723283
0.0524596646428
0.0366476736963
0.0443667657673
-0.0605773665011
-0.030506150797
-0.0207877811044
-0.0263285916299
0.00860397517681
0.0395546294749
-0.0687122493982
-0.00917164981365
-0.0877304002643
-0.107812590897
-0.0192473493516
0.0114261424169
-0.0010618326487
-0.0653471127152
-0.00881746970117
-0.0326720513403
-0.0283771213144
0.0431106388569
-0.0308746024966
-0.0436854735017
0.0198466926813
-0.0548444837332
-0.0286634881049
-0.046965919435
-0.00377374677919
0.0754491761327
0.0849131718278
0.0619004145265
0.0169793646783
-0.0440514497459
0.0497189611197
0.086959078908
0.090846285224
0.0822041109204
-0.00520312599838
0.000250577228144
-0.0269100479782
-0.0150463469326
-0.0363082438707
0.024552308023
-0.00407589925453
-0.0207293257117
-0.00339257018641
-0.034895863384
-0.0604774281383
0.0669163241982
0.00397875998169
0.0492818430066
-0.040341924876
-0.0577280558646
0.0557763129473
0.0359554030001
-0.0453417785466
0.0409320853651
-0.0169186387211
-0.00354593759403
0.0911857709289
0.0472217574716
0.160369470716
0.0866576805711
-0.017807725817
-0.0370717346668
-0.00232733972371
-0.00807118788362
0.000250143930316
0.0210466124117
0.00622452190146
-0.0708363577724
-0.0292575526983
-0.0691835731268
0.0410928912461
0.0402554608881
-0.0400238223374
-0.0271013323218
0.00833377335221
-0.0272170770913
-0.0175599176437
0.0537428893149
-0.0389016829431
0.0211647823453
-0.103087216616
-0.0623500943184
-0.0488772504032
0.0484335198998
-0.00583730498329
-0.0178042165935
-0.0534467026591
-0.0747814178467
-0.0578415468335
-0.0621001720428
0.0603381320834
0.053707100451
0.0178936179727
0.0525206364691
0.0426227115095
-0.0288851335645
0.0478595308959
0.0140000563115
0.00931308791041
-0.0596016384661
-0.0521243400872
-0.0837587639689
-0.0418255552649
-0.0734748542309
0.00922808051109
0.00534592755139
-0.0228558015078
0.012130879797
0.0095084682107
-0.0179044473916
0.0336585715413
-0.0446828715503
-0.0299692843109
-0.0357096530497
-0.0423000454903
0.0347602292895
-0.0140931233764
-0.00734172994271
0.00860344991088
-0.0288148932159
-0.0306295733899
-0.0145291462541
-0.028136042878
-0.0767686888576
0.000195998029085
-0.0223189294338
-0.01705567725
0.0296065062284
0.0371722243726
0.00977186113596
0.0422720424831
0.0944250449538
0.0994516387582
0.0181589014828
0.028084570542
0.0101845674217
-0.00640913937241
0.00210368726403
-0.0547987110913
-0.00918797589839
0.0252520758659
0.00633727572858
-0.043972954154
0.0107149407268
0.0109261609614
-0.00468983873725
0.018860405311
0.0478065609932
0.0344354771078
0.0206712950021
-0.0373852811754
0.000554079539143
-0.0104391900823
-0.0339174792171
0.00101317698136
-0.0249263979495
-0.0921448543668
-0.107147477567
-0.0522265508771
0.00124253367539
0.0139441583306
0.00346257886849
0.000850531447213
-0.0824015364051
-0.0565145723522
0.0281053073704
0.0575289092958
-0.0156292803586
0.0203751642257
0.0144558362663
-0.0304979588836
-0.0631002560258
0.0265477094799
-0.0362485051155
-0.0622670315206
0.00461064232513
0.0452371612191
-0.0110420491546
-0.0511064119637
-0.0700950324535
0.0301532745361
0.028353869915
0.032861687243
0.0819239988923
0.0209733564407
0.0126771675423
0.0180284176022
-0.00104187964462
-0.0403170213103
0.0467311404645
0.014644253999
0.0801978558302
0.0391168296337
0.0301458332688
0.0618691854179
0.0159148033708
-0.0311684329063
-0.0223107561469
-0.0137121481821
-0.0547028817236
-0.0203774869442
-0.0709455311298
-0.0929346382618
-0.121217347682
-0.056768130511
-0.0285379942507
-0.0346792079508
-0.0256052594632
-0.0239226203412
0.0210167020559
-0.0353386700153
0.0524903163314
-0.000808322802186
-0.024068986997
-0.00295678339899
-0.0311896055937
-0.0161190293729
-0.0150805264711
-0.0480039454997
-0.0230026300997
0.0350376851857
0.00369282043539
-0.0225619841367
0.0305938273668
-0.00497194845229
-0.0355405248702
0.00163797289133
-0.00373853114434
-0.0100492574275
0.0136082600802
-0.109410211444
-0.0734090059996
-0.0945521071553
-0.0554905086756
-0.00649797450751
-0.111840792
-0.111818812788
-0.099574893713
-0.0321865752339
-0.0581087842584
-0.0326480381191
-0.0340892225504
-0.0398439802229
-0.0323421433568
0.0161049515009
-0.0330041944981
0.0577470064163
0.0311446096748
0.0568691268563
-0.0379735156894
0.0376790873706
0.0728391557932
-0.0341078862548
-0.0169396437705
-0.021079916507
0.0712232887745
0.169918254018
0.273377418518
0.178309097886
0.165734156966
0.00166107923724
-0.0380101427436
-0.02249937132
0.0796315521002
0.0203530266881
0.0543337240815
0.00356753310189
0.016729677096
0.0615134313703
0.0755989849567
-0.0438814722002
0.0279226209968
-0.030882852152
-0.0290066469461
0.0133312605321
0.0521953329444
-0.011181649752
0.0157986469567
-0.0255109481514
-0.0302959643304
0.0418726168573
0.0966502502561
0.143325105309
0.0975917652249
0.0637741684914
-0.00725789368153
-0.0333361364901
-0.00369339715689
0.0123974699527
0.00818766932935
0.00702008744702
0.0128806149587
-0.028370205313
-0.0351653285325
-0.0151116251945
-0.0216802265495
-0.00263657514006
-0.0155597785488
0.0732003226876
0.0600546188653
-0.0856789425015
-0.0595545619726
0.0383679866791
0.0638267323375
-0.0431005097926
-0.024934316054
-0.0381640680134
-0.0959913879633
-0.0214899983257
-0.00571703119203
-0.0655719041824
-0.00947018992156
0.0038250205107
0.0960261002183
-0.0418578609824
0.0142619041726
-0.0176271926612
-0.0105096520856
-0.00758893648162
0.00244938395917
-0.0216752421111
0.0401096493006
0.0270156953484
0.00320035777986
-0.0282732937485
-0.0489165745676
0.00903173256665
-0.0168350562453
-0.0656122490764
0.00790652167052
-0.0322161465883
-0.0696272030473
-0.0564787015319
-0.0625911578536
-0.0708636492491
-0.0249405521899
0.00663895020261
-0.0522380694747
-0.00420112675056
0.0380828790367
0.0410645566881
-0.0373151376843
-0.0351166129112
-0.0219993181527
0.0197095312178
0.0471315942705
0.0665323212743
0.0145146595314
-0.0593065917492
-0.0381038226187
0.0369656048715
0.0271740145981
0.0711301937699
-0.0226903632283
-0.0159523002803
-0.0405556745827
0.00189562619198
0.0889307409525
0.108100362122
0.0903446003795
-0.00515883928165
-0.0748355165124
0.0596029944718
0.0131542850286
0.0470508262515
0.00576003454626
-0.0382676497102
0.00130603543948
0.0561152696609
0.0483802370727
-0.0422259494662
-0.043892107904
0.0657194778323
0.0322120077908
0.0659642145038
0.011953368783
0.00467626936734
-0.0103500699624
-0.0363662317395
0.0664736405015
0.0945226401091
-0.0373523384333
-0.0262151509523
-0.00279961153865
0.0220878012478
0.120241627097
0.106464982033
0.0496759340167
0.0148668512702
0.0456496439874
-0.0142445461825
-0.0742408484221
-0.0296850223094
-0.0166947823018
-0.00368507695384
-0.0664281398058
-0.00487055210397
-0.00233216281049
-0.049863897264
-0.0440322235227
0.0181162375957
-0.0294797942042
-0.0706743896008
-0.0303717758507
0.031023491174
0.0519398152828
0.129854589701
0.0455818027258
-0.00141374557279
-0.0408394634724
-0.0125901736319
0.0705242604017
0.0748942643404
0.0707805752754
-0.0199523065239
-0.0362908951938
-0.0465325042605
-0.0405185371637
0.0309548471123
0.0257376991212
0.0656988546252
0.0576216354966
0.0349223427474
-0.022311842069
0.0345557890832
0.0650618225336
0.0503534525633
0.0273511558771
0.0486276112497
0.0324102006853
-0.00594154698774
0.0350591242313
0.0284492187202
0.0449168756604
0.0390068851411
-0.0376082397997
-0.0516855381429
0.0259797479957
0.0179204624146
-0.0165302921087
-0.0734651982784
-0.0426599793136
0.00453890720382
-0.00051458273083
0.0234232842922
0.00247840536758
-0.0241539627314
0.0130013255402
-0.054427202791
-0.0405973494053
0.0368666648865
0.0232340916991
-0.028713144362
-0.024924416095
-0.0387076810002
-0.00947906635702
0.0810282453895
0.0615592338145
0.0163620822132
-0.026085851714
0.0406116247177
0.0717017352581
0.0448108464479
-0.00766673544422
0.011817606166
0.0158148854971
0.00779835646972
-0.00125041196588
-0.0391400642693
-0.0435220524669
-0.000445896905148
0.030273552984
-0.0370691008866
-0.0340008884668
-0.0396744348109
0.0519909411669
0.0220933482051
0.0520070903003
-0.0438831374049
-0.0131956459954
0.0390316322446
0.0458459854126
0.0716188549995
0.0718910396099
0.0610665418208
-0.0612127780914
0.0150996670127
0.042358327657
0.0942456945777
-0.0227845478803
0.000103850448795
0.00821769423783
-0.0175690855831
0.0321467034519
-0.0383214019239
-0.0399619080126
-0.0247218906879
-0.038088336587
0.0358047038317
0.0132197327912
0.00505987321958
-0.0345613546669
0.0204081777483
0.0268957652152
0.00760324951261
-0.0667236894369
-0.0460635311902
-0.0174078624696
-0.0368412695825
-0.0217390079051
-0.00939488504082
0.0284223817289
0.0124284261838
-0.0248669311404
-0.0433285944164
-0.0656897053123
0.0447800010443
0.0301537998021
0.00565365003422
0.064986564219
-0.0383110046387
0.0546928681433
-0.0366120971739
-0.0488648042083
0.0308001227677
-0.0449897944927
-0.0385866463184
-0.00597469275817
0.00292871403508
0.0264883022755
-0.0440283343196
0.00678034033626
-0.0504726432264
-0.0527793839574
0.000939230027143
0.0285210981965
0.0260826125741
0.0353854298592
0.0220402628183
-0.0580415539443
-0.0724427625537
0.000891945906915
-0.0607087723911
0.0437295660377
-0.0420990549028
-0.0655235424638
-0.0594585388899
-0.0226146820933
0.0317567847669
0.0302226878703
0.000593244621996
-0.076672963798
0.0212575979531
0.00639579864219
-0.0231063775718
0.074403360486
0.0580408498645
-0.0569162145257
-0.0423746593297
-0.0649061053991
-0.0311525519937
-0.0210369676352
-0.0117078078911
-0.00117944565136
-0.0417657643557
-0.054042454809
-0.0418688133359
-0.047357827425
0.0398557409644
0.0122618740425
-0.0574228838086
-0.101022735238
-0.0179810374975
-0.0428027287126
-0.0229065641761
-0.0516707226634
-0.0788991972804
-0.059847343713
0.0260063223541
0.0155591880903
0.00635674316436
0.0171907432377
-0.00529106333852
0.0422568395734
-0.00433017779142
0.0381749682128
0.0341865606606
0.0381284505129
-0.0089261168614
0.00309176323935
0.0326921269298
-0.0229372996837
0.0305016748607
0.0490470118821
-0.0285022240132
0.0307799838483
-0.0122552542016
-0.0334011763334
-0.0350057184696
-0.016767764464
-0.0511192083359
-0.050001706928
-0.0310463570058
-0.0448951534927
0.0142371607944
0.0119384145364
0.0220349133015
0.0398952998221
-0.0182341225445
-0.0248317010701
-0.0601398646832
-0.0458963625133
0.029200265184
-0.0482268407941
-0.0139771299437
0.0525516085327
0.0270676035434
0.0141080450267
-0.0344118103385
0.0490053929389
0.0144904172048
0.0285797156394
-0.0384877994657
0.0156708974391
-0.00389683945104
-0.0052631017752
-0.013092091307
0.0176960341632
-0.0391720831394
0.0236104615033
-0.0425281859934
0.00123943691142
0.00855450797826
-0.0357319191098
0.0106662241742
-0.0471554324031
0.0435646623373
0.00967588834465
-0.0110753700137
-0.0279053896666
-0.0538187809289
-0.0332909487188
-0.0382665209472
0.0383349619806
0.000101875266409
-0.0237933713943
-0.0105426413938
0.0214770287275
0.00269715930335
-0.038896355778
-0.037885773927
-0.0783548355103
-0.0760780125856
-0.00376000464894
0.0248539466411
0.0291592776775
-0.00527410022914
-0.0125480135903
-0.0318492539227
-0.0609598085284
0.0559238865972
0.0696723088622
0.0187481865287
-0.0480705834925
-0.0623490996659
0.0615085437894
0.0104035129771
0.0359719060361
0.0088358214125
0.00527082569897
0.0316833779216
0.0507933087647
-0.0196903496981
0.0226945318282
0.0510502308607
-0.0384753346443
0.051112730056
-0.0115863215178
-0.0284567251801
0.0317305959761
-0.0582671687007
-0.0306329056621
-0.0502436682582
0.015274554491
-0.0430126897991
-0.0241102613509
-0.0150052011013
-0.002563779708
-0.0282419323921
0.025141634047
0.0603022165596
0.0174545682967
-0.0274035967886
0.0447049215436
0.0316618643701
-0.0229516010731
-0.0167822614312
0.0173239354044
-0.0324473753572
0.0233938507736
-0.0775307118893
0.000421220000135
0.0313768573105
-0.0429442450404
-0.0327594578266
-0.0265401937068
-0.0445371307433
0.004528908059
-0.0574570223689
-0.0472009032965
-0.0700275152922
-0.0758433490992
-0.0204466357827
-0.0301508195698
-0.0496316365898
-0.0735016539693
-0.015803815797
-0.0125275738537
-0.054907605052
-0.0135483723134
0.0219144802541
-0.0340221486986
-0.0794462189078
0.0237793978304
-0.0380129031837
0.0564738474786
-0.0225031692535
-0.02005485259
-0.0420713946223
-0.059609644115
0.0547906570137
0.056466139853
-0.00205763569102
-0.00208653509617
-0.0103440359235
-0.00381842092611
0.0558654740453
-0.00541772460565
0.049673140049
-0.00969885941595
-0.0381509102881
-0.0361429229379
-0.00840801000595
-0.042314324528
-0.0100374696776
-0.016183745116
0.0235304962844
0.0349360890687
0.0610870309174
-0.0398110970855
-0.0586128942668
0.0146813718602
0.00893584545702
0.0690155923367
0.057745333761
0.00920822285116
-0.0380008593202
-0.00917058717459
0.0492793284357
-0.0310500711203
0.0956708416343
-0.0007263738662
-0.0537708476186
-0.0574497282505
-0.0611741691828
0.0526199378073
-0.00942380633205
0.0155125074089
-0.0263188667595
-0.00630151340738
-0.00927794631571
0.0123277399689
0.021503392607
0.0646285861731
-0.0386734679341
-0.0284509658813
-0.00656947586685
0.0287189148366
0.0300752278417
0.0125783123076
-0.0577013492584
-0.0112919844687
-0.0271183270961
-0.0364145487547
0.0197294633836
0.050968658179
-0.0471807047725
-0.0648444965482
-0.0043064719066
0.0286920126528
-0.0574838444591
-0.0196349173784
-0.0130247659981
0.0349767394364
0.01469644811
-0.024823833257
-0.0328835807741
-0.0301049705595
0.0311001930386
-0.012097408995
0.0122551005334
-0.0467848815024
0.0263288561255
-0.0514457188547
-0.0625429674983
-0.0730024427176
-0.0373864993453
-0.00740573415533
-0.0328506417572
0.015265032649
-0.0560505911708
-0.037065140903
0.0377279669046
-0.0129882181063
-0.00320661137812
0.0382934175432
0.0286874137819
-0.0204100180417
0.0411424189806
-0.0302246250212
0.0475405305624
-0.0330532006919
-0.0221149083227
-0.0417557507753
0.043055664748
-0.00916473846883
0.0577298440039
0.0032992195338
-0.0396192744374
0.0265111252666
0.0479968264699
-0.0204222928733
-0.0531668700278
0.000571369833779
0.0050432686694
0.00339985080063
0.0380918979645
0.0204023830593
0.000766797107644
0.0328810177743
-0.0253960434347
-0.0282202921808
-0.0361396931112
0.0259343571961
-0.0116176493466
0.0223552323878
0.0174773260951
0.0309816729277
-0.00745727634057
0.0380945429206
-0.0831049457192
-0.00496912607923
0.0471657924354
-0.0579132810235
-0.00751394359395
-0.0290168523788
-0.0309676844627
0.0316568687558
-0.0538482517004
-0.00589170400053
0.0398628413677
-0.0199313703924
-0.0198213122785
0.00866725947708
-0.0321041531861
-0.0480705015361
0.0252333749086
0.051810272038
0.0286913346499
0.0241129882634
-0.0159678887576
-0.0357821844518
-0.0496752113104
-0.0212634261698
-0.0189529806376
0.0642530396581
-0.0274955760688
-0.0765345394611
0.00292934989557
-0.0226063616574
0.0204862467945
0.02751474455
-0.0938128978014
-0.0189056638628
-0.0319040939212
0.0160538908094
-0.0194510389119
-0.0193257611245
0.0083106122911
0.0254356488585
0.0671473816037
-0.0345482826233
-0.0287407245487
-0.0234450194985
0.0172381605953
-0.0010473029688
0.012579283677
-0.0540073029697
-0.0219171643257
0.0625148937106
0.063255533576
0.00595246022567
-0.0749615654349
-0.0216511394829
0.0401840955019
-0.00132948055398
0.0438929758966
-0.057960499078
-0.0778417438269
0.0309503413737
-0.0542029552162
0.0402018837631
-0.0433327183127
-0.0447073094547
0.0377922281623
0.0169766545296
0.0436298884451
-0.0347649529576
0.0352874882519
0.0731669589877
0.0371018052101
0.0787066370249
-0.0144289908931
0.0363813079894
0.0219002533704
-0.0480625666678
-0.00813324004412
-0.0258543174714
-0.0142148565501
0.0541491135955
0.00541999563575
-0.0663358345628
-0.0528500713408
-0.0441515818238
0.0698745846748
0.026188319549
-0.0692581534386
0.0146976467222
0.0363516919315
0.0234569925815
0.00279395934194
0.0397573113441
-0.022280998528
0.0360756143928
0.0309826377779
-0.0292865652591
0.0236105304211
8.03596049082e-05
-0.00083884363994
0.0414796881378
-0.0398699529469
0.0551193766296
-0.0465489253402
-0.0353409387171
-0.0401681698859
-0.0321105457842
0.00588839314878
-0.0695492252707
-0.0437451936305
0.0526230596006
0.000211526479688
0.0117803933099
-0.0362622700632
0.0178154539317
-0.0203099325299
-0.0336111672223
-0.0114453891292
0.0379080027342
-0.0207146536559
-0.0114840436727
0.00661534024402
0.0581384263933
-0.0237387083471
0.0038350741379
0.0521568842232
0.00578677142039
-0.0375428833067
-0.0223374925554
-0.0357880331576
0.0454105660319
0.0114305056632
0.0451553575695
-0.0408532470465
-0.0699098706245
-0.0120319537818
-0.0644448697567
0.0122257899493
-0.0330416858196
0.0388050489128
0.0125408144668
0.0447576604784
-0.00313989026472
-0.0260909162462
0.0294640883803
-0.0299766082317
-0.0257186647505
0.0162614732981
-0.0288646053523
-0.0530854687095
0.0636708289385
-0.0234361607581
0.0385400280356
-0.0153633179143
-0.00615074811503
0.0142557024956
-0.0221740454435
0.0507947728038
-0.0407790951431
0.043756082654
-0.00688655348495
0.000912476622034
0.00401410227641
0.0485837832093
0.0744351893663
-0.0469773337245
-0.0115375677124
0.0273822508752
-0.0200333707035
-0.0356327146292
0.0256164334714
-0.0366948843002
0.0224741306156
0.0363041944802
-0.0194802843034
0.0320383608341
0.0376609154046
0.0539582632482
-0.0502454563975
-0.00887201540172
0.0679855048656
0.0330260619521
-0.00195167702623
-0.00509030418471
0.0305843390524
-0.0370972678065
0.015736958012
-0.0577720180154
0.0602796375751
0.0207196641713
0.0150148561224
-0.0381323024631
-0.024618530646
0.0328544005752
0.03825981915
0.0350549817085
0.0616076812148
-0.0410805828869
0.0326255187392
0.0265152528882
0.0199254527688
0.0481204017997
0.0300479121506
-0.00536814471707
-0.0561179853976
0.0457199215889
-0.00926072802395
0.0515524074435
-0.0685787498951
-0.00618008477613
-0.0107712419704
-0.0416056439281
-0.033532563597
-0.0562187284231
-0.0408658236265
-0.0442553423345
0.0182582065463
-0.0279017724097
-0.0177618768066
0.0442314334214
0.000120985903777
0.052705835551
-0.0344594717026
-0.0611195154488
0.0425703264773
-0.00588427763432
-0.0181031730026
-0.0766066461802
0.00819167308509
0.0237507354468
0.0374420955777
0.0268507841974
-0.00567684182897
0.0494601689279
-0.0698789134622
-0.023664014414
-0.016245925799
0.0246413890272
-0.0445768535137
0.0494495779276
0.0159682147205
0.00309168547392
-0.0230792891234
0.00714155379683
0.047904022038
0.0388765893877
0.0378373041749
-0.0273496750742
0.00350812450051
0.0148320281878
-0.0184149220586
0.0399953834713
0.0391716733575
-0.0213947538286
-0.0230926163495
0.0685790106654
0.0178243424743
0.0327238962054
0.019167970866
-0.0131206735969
0.00151891028509
-0.0389819294214
0.0397738851607
-0.0194883570075
-0.050633110106
-0.00364556279965
-0.0328789539635
0.0236217938364
-0.0416478328407
0.0129710063338
-0.0320641100407
0.00951010733843
-0.050781134516
0.0214651152492
-0.0383882299066
-0.036675862968
-0.0415223501623
0.0356177799404
-0.00915714260191
-0.00101798167452
0.0255713425577
0.0189765747637
-0.0411514267325
0.0365198142827
-0.048636123538
-0.0123861161992
-0.00343572837301
0.00464707100764
0.00555462110788
0.0478000082076
0.0116658871993
-0.0490994751453
0.0173446573317
-0.0306030288339
0.0236733555794
0.0153987668455
0.0283767580986
-0.0323437489569
-0.0623814761639
-0.0233559180051
0.069814696908
0.0256664082408
-0.0309260264039
0.00348923052661
-0.0228321570903
0.0102843157947
0.0265054870397
0.00297882105224
0.0134371360764
-0.0243164561689
-0.0520448945463
0.0324405618012
-0.0134081579745
0.01167598553
-0.0494809523225
0.0382585413754
0.0129542350769
0.00438639009371
0.0111508695409
0.042623475194
-0.0488297455013
-0.057495072484
-0.0096717569977
0.0105698956177
0.0627096965909
0.0427272729576
-0.0570688955486
0.0329318530858
0.052850369364
-0.0424093976617
-0.00786366593093
0.0302987266332
0.0503904297948
-0.0478781238198
-0.0134396990761
0.0682314485312
0.0334492623806
-0.0275877155364
-0.0484239794314
0.0468016378582
-0.00832635071129
0.0393709689379
-0.00669641280547
-0.0257777702063
-0.0468294098973
-0.0156415291131
0.0265003759414
4.25677644671e-05
0.00129146745894
-0.0123121328652
0.0247356183827
0.0244767423719
0.0358374044299
-0.023615039885
-0.0377083159983
-0.0177982691675
0.0361921451986
0.00356885720976
0.0222289599478
-0.028051353991
0.0383445806801
-0.0214683972299
0.0343444719911
-0.0246560480446
0.00764506915584
-0.00167017802596
0.0102023463696
0.0237517021596
0.0171251539141
-0.00208165240474
0.0530377887189
-0.0183051731437
-0.0203078649938
-0.0513767488301
-0.0141431819648
-0.0302444025874
-0.0286396406591
0.0705156996846
-0.0596338622272
0.0343704819679
0.048629950732
0.0590027458966
0.0376340448856
-0.0396549329162
0.0272030904889
0.0101566873491
0.0600296035409
0.0437580347061
0.0227488130331
-0.00387546233833
-0.0547868870199
-0.0223731976002
-0.008101827465
-0.0136405769736
0.0195116326213
0.0362381860614
-0.0370860174298
0.00252335472032
-0.0396708585322
-0.0260469503701
-0.0621441267431
-0.0645902901888
0.00990621186793
-0.0292745437473
-0.0640028268099
0.0240727793425
0.0247437991202
-0.0208763834089
-0.0944002792239
-0.0625701472163
0.0048699285835
0.017087854445
0.027720561251
-0.00136876676697
0.0393787287176
0.025004370138
-0.00571195455268
0.0345822498202
-0.0132379392162
0.0186701342463
-0.0445120222867
0.022899646312
0.0115366335958
-0.0141993584111
0.0521919578314
0.0329506099224
0.0484413504601
0.00740450434387
0.0138791846111
-0.029678216204
0.0509803518653
-0.0169786326587
-0.0183845162392
0.00590479234233
-0.00109629612416
0.0131951281801
0.0542361885309
-0.0590496733785
0.0532844588161
0.0128522478044
0.0193363763392
-0.0165762081742
-0.0311695318669
-0.0522408187389
-0.0197950992733
-0.0250139571726
-0.0535066649318
-0.0639050230384
0.00411667162552
-0.02882261388
0.0304224155843
-0.0380771793425
-0.0271394308656
0.00269185425714
0.0553634241223
0.0620453432202
0.0730217695236
0.0337605923414
0.071209423244
0.0352682508528
0.014476747252
-0.0181605834514
0.0569092445076
0.0696724802256
0.00152463989798
0.0304235331714
-0.0492843240499
-0.00218224991113
-0.0291917975992
-0.0235982853919
0.0444414019585
0.00975841656327
-0.0558235347271
0.0230983700603
-0.0925758630037
-0.00497462367639
-0.00821983721107
-0.0217352695763
-0.0927827060223
-0.0726781636477
0.0262510702014
0.00820868089795
-0.0473360009491
-0.00539390044287
0.00694839237258
0.0384396575391
0.00754058174789
-0.0355343967676
0.0107493884861
-0.0596677586436
-0.00546635081992
-0.0373149067163
-0.0469533763826
-0.0516382977366
0.0189223457128
0.0233073420823
0.0374827831984
0.110132239759
0.0850104913116
0.033856369555
0.00586007582024
0.0209090039134
0.0215473026037
0.0474688857794
0.0833842530847
0.0224736426026
-0.00551867624745
-0.0242697093636
-0.0219496153295
0.0350489802659
0.00652293208987
-0.0551650896668
0.0093265902251
-0.0732791498303
-0.0672532692552
-0.0617200173438
-0.0375180318952
-0.056817561388
0.042155764997
0.0640945509076
0.0391312800348
-0.0421099066734
-0.0680944100022
-0.0403922386467
-0.0585644878447
0.0219852589071
0.0106503199786
0.00992663577199
0.00662810914218
-0.00344287673943
-0.0359267517924
0.0753540471196
0.174539685249
0.156844526529
0.116397425532
0.0892207846045
0.0351811125875
0.045806452632
0.106733106077
0.051649235189
-0.0450331270695
-0.0186502896249
-0.119486227632
-0.0200316905975
-0.0465746000409
-0.0476386360824
-0.00959788821638
-0.0122116236016
-0.0650914609432
-0.0347991660237
-0.035013705492
0.122284412384
0.0514671094716
0.00120846414939
0.00133491843008
0.0237329434603
0.0593350306153
0.00126427749638
0.0259278137237
0.0682714432478
-0.0226915068924
-0.039905872196
-0.00185179675464
0.0136393867433
0.00392109667882
0.01461491175
-0.0276048500091
0.0226509068161
0.0327139347792
0.0585787445307
0.0494716241956
0.00762371718884
0.0362157523632
0.0423289127648
0.0153710208833
0.0320942848921
-0.0464877709746
0.0434881597757
-0.0153786381707
0.0961071699858
0.0791197419167
-0.00523217022419
-0.065411426127
-0.0473845675588
0.00423756008968
0.0248669832945
-0.0315132029355
0.0281262658536
-0.0698597803712
-0.0399350598454
0.0594201572239
-0.0705461502075
-0.0180873014033
-0.0560225434601
-0.0911558642983
-0.0800684168935
-0.000176361863851
0.0162597671151
0.0505574196577
0.00945031736046
-0.0449321568012
0.0431111715734
0.0227214470506
0.0803250670433
0.0219806563109
0.0195536259562
-0.0136627787724
-0.00666342815384
0.0483446903527
0.0264598783106
-0.00932579580694
-0.0780344083905
0.0452061966062
-0.0394747629762
0.0193025562912
-0.0038493371103
-0.0363240391016
0.0210700295866
0.0473823659122
-0.0361714102328
-0.0201741792262
0.0590220838785
0.0148526774719
0.00788923539221
0.0334804579616
-0.0236949622631
0.0591116212308
0.0973972678185
0.142322465777
0.0514801777899
0.0568173490465
-0.048783633858
0.054847151041
0.0474694892764
0.00999381672591
0.0239331275225
-0.0726539418101
-0.0718426406384
0.0321879573166
0.0193593334407
-0.0424698404968
0.0412997789681
0.00756537402049
-0.0495765097439
-0.00276766391471
0.0562919229269
-0.0235593430698
0.0228715259582
-0.00612268550321
-0.0192784126848
-0.0356822311878
-0.0351777300239
-0.0377053171396
0.0249639768153
-0.0690647512674
0.00395519286394
-0.077178299427
-0.0773478001356
-0.0251779034734
-0.01981898956
-0.0358417183161
-0.0386678799987
-0.0719676613808
-0.0559387914836
-0.0781416445971
-0.00301411142573
-0.0011888750596
0.0195277556777
-0.0128947962075
0.0645706728101
0.0706305503845
-0.00691662728786
-0.0399456769228
-0.0254302825779
0.0151269137859
-0.0384542532265
-0.0530655868351
-0.0524455569685
-0.0452372767031
-0.0754540637136
-0.0100373420864
0.0160619076341
0.0201249811798
0.0903088450432
0.0167984943837
-0.025322670117
0.00279172719456
0.0911564677954
-0.00389443570748
0.023454669863
0.0495196320117
0.0119259404019
-0.0685172155499
-0.0830394104123
-0.0262342691422
-0.0357243865728
-0.0109772505239
-0.0359503477812
0.0633984878659
0.00019768839411
-0.00843337550759
0.0447024069726
-0.0186971612275
-0.0982042327523
-0.104692451656
-0.0382702462375
0.0262728221714
0.0174083244056
0.00176935351919
0.0519450940192
0.0610618069768
0.0478463508189
0.118854247034
0.126481756568
0.0588114112616
-0.0294912364334
-0.0126269934699
-0.075169749558
-0.0930927470326
-0.0914733707905
-0.0725948736072
0.00209985603578
-0.0553772896528
-0.0489204227924
-0.046837810427
-0.0833991542459
0.033101875335
0.0644941478968
-0.0213704146445
-0.00858912430704
-0.0877114981413
0.0757193043828
0.0602767281234
0.0430375412107
0.0422512739897
0.00933325942606
-0.090242087841
-0.027758397162
0.0634117946029
0.0524932332337
-0.0727430582047
0.000751318759285
0.000633789168205
-0.0463382489979
0.025603281334
-0.0108745303005
-0.0316034592688
-0.0186074990779
0.00637270137668
-0.00866280123591
-0.0723717883229
-0.0331424288452
-0.0240926612169
-0.0718499496579
-0.0627819895744
-0.00178220041562
-0.0661080032587
-0.072289660573
-0.0110587077215
-0.00337107409723
0.040894087404
0.0158995352685
-0.0035853870213
-0.0319958738983
-0.0292706117034
0.0142534840852
-0.0253006350249
-0.0403057523072
0.00509846070781
0.0609385557473
0.0368396416306
-0.0162938460708
0.0461223125458
-0.039703220129
-0.00676073739305
-0.0183810517192
-0.0841130614281
-0.0655144304037
-0.0898205935955
-0.0237746834755
0.00464883586392
0.00435941386968
0.016695542261
-0.0244346372783
0.0270273163915
0.00351336947642
0.0628119930625
0.0620974227786
-0.0110433995724
-0.0360114946961
-0.000475283013657
-0.0525256097317
-0.0896932929754
0.0223687067628
-0.0789784491062
-0.0696412324905
-0.0793150961399
-0.0182894989848
-0.0607441328466
-0.00873235333711
0.00935695134103
0.0370932668447
-0.0194534230977
0.0192080903798
-0.0275742355734
0.000663257029373
-0.00878190156072
-0.0478283502162
-0.0771139636636
-0.0462596155703
-0.0470112003386
-0.0898818746209
-0.0610746666789
-0.0122365457937
0.0291274152696
-0.0669642239809
0.0735627710819
0.0240949373692
0.0236683003604
-0.00636811647564
-0.0183246918023
-0.0485504716635
-0.00255804904737
0.0506051704288
-0.0369901955128
-0.0402427650988
-0.0644094794989
-0.0133892679587
-0.111527703702
-0.0283032041043
-0.063185788691
0.0212050210685
-0.0665026456118
-0.0877448990941
0.0243683233857
-0.0718700662255
0.07062805444
0.0101427035406
0.0149784954265
0.028653299436
0.0372057817876
-0.0238334834576
0.0471018366516
0.0101960608736
0.0432827584445
-0.0231276359409
-0.0390147194266
-0.0453235581517
0.0409842990339
0.0438090227544
-0.00262706284411
-0.0819353759289
-0.0577564761043
-0.113289311528
-0.0818347260356
-0.0359007380903
-0.0541328340769
-0.124688901007
-0.103389233351
0.0150280566886
0.0566131956875
-0.00223867432214
-0.055011883378
0.0356684662402
0.0157527849078
-0.0335118286312
-0.0834132805467
-0.0752928555012
-0.0829128995538
-0.0914265736938
-0.103270933032
0.0456368550658
-0.0587586835027
-0.00517667224631
-0.0349365286529
-0.0989914089441
0.0518879182637
-0.0552970841527
-0.0191086605191
0.0293496586382
-0.00434727501124
0.00408947980031
-0.0744654387236
-0.0249273739755
-0.0448537804186
0.042216219008
-0.0669031590223
-0.00830191001296
0.00192815123592
-0.0645627006888
-0.0112777110189
-0.0229879524559
0.0209836103022
-0.0594736412168
0.0139233209193
0.036380648613
-0.0614418163896
0.0551893673837
0.117532402277
0.107836656272
0.00526330946013
-0.0484249033034
-0.0875101685524
-0.110668540001
-0.115168586373
-0.0422909334302
0.0879057571292
0.133747383952
0.156877875328
0.179039791226
0.0711373388767
0.0264843236655
0.155176535249
0.114167921245
0.093827329576
0.0582530796528
-0.0134825771675
0.0289783626795
0.0258465241641
0.0917169377208
0.0285645723343
-0.0417647100985
0.0652062520385
0.0077559244819
-0.0250173844397
0.00471674697474
-0.0280265435576
-0.0789519175887
-0.0416408702731
-0.0618736594915
0.028539955616
0.00903316959739
-0.0322124585509
0.0524481609464
0.0253555327654
0.0499553605914
0.0532207898796
0.0722364187241
0.0678833201528
0.0322764664888
0.0385625623167
-0.00832401309162
-0.0329884923995
-0.00862893741578
-0.0941860899329
-0.0777419582009
0.027542643249
-0.033551376313
-0.0449125766754
-0.0442521087825
0.0419624224305
-0.0215747039765
-0.00625242339447
0.117418341339
0.0520197898149
-0.0210689138621
-0.0798474103212
0.00390008022077
-0.0320373252034
-0.0301935765892
0.0356704443693
-0.104870922863
-0.0840598270297
-0.078765630722
-0.0540978126228
-0.0208412688226
0.0363602116704
0.0376093015075
0.0190058406442
0.0420893318951
-0.00702892616391
0.0390609949827
0.0112558575347
-0.00581574626267
0.00953155383468
0.00052681309171
-0.0167124215513
0.000875108467881
0.0166554376483
-0.00291197141632
0.0471590124071
0.02522280626
-0.0218503251672
0.0341052487493
0.0298793502152
-0.0371623598039
-0.0235635433346
-0.0289385057986
-0.0582389459014
-0.00652944575995
-0.071928113699
0.0374284535646
-0.00198853597976
-0.0580222681165
-0.00531596690416
0.0366848744452
0.0553295761347
0.0083939563483
-0.0710197538137
0.000291133532301
0.0184250175953
-0.0545204691589
-0.0306987892836
0.0130335586146
0.00865380000323
-0.0282391607761
0.0364286080003
-0.0148759288713
0.0087627125904
0.0255403276533
-0.0413941405714
0.0518559888005
0.0380032099783
0.0192921366543
0.030591679737
0.00368262152188
-0.0133240632713
-0.0119522325695
-0.0545306317508
-0.0168829988688
0.0130977481604
-0.0801564753056
-0.0862738117576
-0.0490318126976
-0.0544168353081
0.0104874242097
0.00515859993175
0.0973922163248
0.0963723734021
0.0650650411844
0.0408754087985
-0.0288822967559
0.0110668269917
0.0486200228333
-0.0239982251078
-0.0127745559439
-0.075287565589
-0.0286241434515
-0.0265910867602
-0.0599257126451
-0.108010835946
-0.00791282020509
-0.0110323354602
-0.0445548929274
0.00242416188121
-0.0375760421157
-0.0323121286929
-0.0261214692146
-0.0024637945462
-0.0429937802255
0.0139420963824
0.00924264639616
0.00161925831344
0.0111391004175
-0.0406409054995
-0.0707414671779
0.00282342196442
-0.0648142322898
-0.0434649400413
-0.0483147576451
-0.0665584132075
-0.0514581762254
0.0206253994256
-0.0200502872467
-0.0428482405841
-0.0231168363243
-0.0187806077302
-0.0498587079346
0.0229102727026
-0.00698092021048
-0.0160762369633
0.0251821037382
0.00445724325255
-0.0669203400612
-0.0146701885387
0.00435852399096
0.0292884707451
-0.0551340132952
-0.0361227616668
-0.0200164355338
-0.00318759749644
0.00623714737594
0.0110131436959
0.00569060072303
0.025130065158
-0.00069647381315
0.0493345670402
0.0645529255271
0.0623552836478
0.0642935335636
0.0492461510003
-0.0343782603741
-0.00508005963638
-0.0213458910584
0.0693443343043
0.0166094396263
0.024402545765
0.00559145957232
0.050325345248
0.0502092354
0.0107555110008
0.0331238470972
-0.0335732735693
-0.0142792873085
-0.0399483144283
-0.0248723421246
0.0206734780222
0.0127650815994
-0.0356961004436
-0.0691407620907
-0.0349857658148
-0.0563002936542
-0.0287728179246
-0.0182196740061
-0.0703178793192
-0.0262763071805
-0.0127665856853
-0.0205995701253
0.00650946423411
-0.0118756992742
0.0351420529187
0.0645069107413
-0.0321920402348
0.0154797891155
-0.0169353485107
0.0506693385541
-0.0345460996032
0.0137867210433
0.000139756826684
-0.0133497752249
-0.0448811985552
0.0286882314831
-0.00916264299303
-0.0372584424913
-0.0769686475396
-0.0225652176887
-0.0122268870473
0.0285405833274
0.0441968627274
0.0380386970937
0.0260832384229
0.0027922342997
0.015415892005
0.0116815399379
0.00392539193854
-0.0163022670895
0.0401304401457
-0.00764380022883
0.0306611862034
0.0234516281635
0.0249049719423
-0.0434977896512
-0.0380422510207
0.0193234551698
-0.0317819677293
-0.0212559383363
-0.0276969727129
-0.0373167023063
0.000296552316286
-0.0310184378177
0.0526611171663
-0.023499764502
-0.0387394540012
0.0564289391041
0.043783031404
0.0269494913518
-0.00998575612903
-0.00913516804576
-0.0582561269403
-0.0325897596776
-0.0178500134498
-0.0325295291841
-0.0266743786633
-0.0720834434032
-0.0297476034611
0.0473962128162
0.0244426690042
0.0549624562263
0.0724388957024
0.0380111150444
0.0785842090845
0.0159864742309
-0.0205527041107
0.058964394033
0.0108627220616
0.047081798315
0.0227370709181
-0.0272102206945
-0.0428053438663
-0.0265694409609
-0.072950065136
-0.00875827297568
0.0277734287083
0.0156312026083
-0.0277360752225
-0.028500970453
0.0087241595611
-0.0619711056352
-0.00146641442552
-0.0772361382842
-0.00229074410163
-0.024308623746
0.0267173312604
0.0567659437656
-0.0122970622033
-0.0134531864896
-0.00434974441305
0.0156304165721
0.0772440806031
0.012940146029
0.0463623814285
-0.0617003850639
-0.0331517457962
-0.0653804838657
-0.0288675613701
0.0102562196553
-0.0475555956364
0.0313129276037
0.0356379784644
0.0514480657876
0.0114558367059
0.0144478175789
0.0198122896254
-0.0446686930954
-0.020644184202
-0.0734284743667
-0.0300006493926
0.0174272656441
-0.00922241713852
-0.0411017462611
-0.0207730848342
-0.09152084589
-0.0808704122901
-0.0545456260443
-0.00464849313721
-0.0633989199996
-0.0259719267488
0.000852285535075
0.00137154129334
0.0148334987462
-0.0847057402134
0.0489211603999
-0.000163569566212
-0.0383969284594
0.0388352498412
-0.0141576956958
-0.0170328952372
0.00870730727911
-0.0279680993408
-0.060130674392
-0.0551368184388
-0.0318467728794
-0.001764659537
-0.0539647750556
-0.0108025074005
0.0165361668915
-0.00911554787308
-0.0534787736833
-0.0299062933773
0.053342666477
0.0484213605523
0.0237223114818
-0.0125154508278
0.0201714541763
-0.0402824878693
-0.0633536279202
-0.0234187152237
0.01838109456
0.0454006008804
-0.0471598729491
0.0325502976775
-0.0390954874456
0.0290457662195
-0.0618591010571
0.0521452873945
0.0672032311559
0.0295556429774
0.0726283639669
0.0830725878477
0.0238184183836
0.0352624729276
-0.0274622645229
-0.0217713657767
0.0697858706117
0.0404034368694
0.0848511606455
-0.0383924916387
-0.0556751340628
0.0275913607329
0.0137984994799
0.00373007007875
0.0343560762703
-0.0502601601183
0.0702519565821
0.105417728424
-0.0102656967938
0.0336317718029
0.0315936990082
0.0042035090737
0.0426277555525
-0.0134911770001
0.0281687285751
-0.0220194682479
0.0277657937258
-9.9593125924e-05
-0.00486915884539
-0.0693736448884
-0.0465926751494
-0.0415426008403
-0.0543284490705
-0.114274196327
-0.0704175382853
0.0156223941594
-0.00978346355259
-0.0129188941792
-0.0713311955333
-0.0429190583527
-0.0299474783242
-0.0228178948164
-0.00875029247254
-0.0632030069828
0.0355790443718
-0.0211366359144
-0.0727345123887
-0.0654381588101
-0.0249869003892
-0.0259603206068
-0.0266983993351
0.017560377717
0.0469590052962
-0.0201394315809
0.00434256345034
0.00879729073495
0.0716057196259
0.00341833103448
0.0199266187847
0.00722603034228
0.0258292909712
0.00463586580008
0.0154355876148
-0.0220878869295
0.0613428130746
0.0167834814638
0.0463786013424
-0.038712374866
-0.0517079643905
0.0414150692523
0.0330680310726
-0.00669547682628
-0.046378467232
0.0332759097219
-0.00676099164411
-0.000637241639197
0.0529889389873
0.0178622733802
0.0985755845904
0.0173075795174
0.0510605759919
0.0601784437895
0.0693140402436
0.0287995636463
0.0396855175495
0.0304850004613
-0.0133609380573
0.0427341945469
-0.032169021666
-0.0142486570403
0.0544685199857
0.0127386674285
0.026658711955
0.0827272757888
0.0488334298134
0.00530670583248
0.0120377233252
0.0760992467403
0.0277641862631
-0.00940903276205
-0.0654254928231
0.0420910306275
-0.009914342314
-0.0143382577226
0.0145852696151
-0.0268466677517
0.0259863659739
-0.0799055173993
-0.0969226285815
-0.0133357672021
-0.0479113124311
-0.0789048075676
-0.0947553887963
-0.0163246709853
0.0150830680504
0.0370941869915
0.0145085453987
0.00688114576042
-0.0309780389071
-0.0508206784725
-0.0250737089664
-0.109340310097
-0.0624199621379
-0.000568799674511
0.0466542355716
0.0496015511453
0.0565553382039
0.0541198067367
0.039589419961
-0.0161160938442
0.0120309907943
0.0653759613633
0.0425982140005
0.104578562081
0.00584178231657
0.00145353295375
-0.053704533726
-0.050908062607
-0.0235430654138
0.0124002918601
0.0696519240737
-0.0163299068809
-0.0326981730759
-0.0117476964369
-0.0309292692691
-0.061514724046
-0.0797315314412
-0.0158008020371
-0.00960042793304
0.0165175367147
-9.92958302959e-05
0.0389638394117
0.0323238670826
0.0800681635737
0.0600127540529
0.00570257380605
0.00677470862865
0.0216438174248
0.00934470444918
0.00328522711061
0.0507394075394
0.0402454920113
-0.022527942434
0.0118662351742
0.0350014083087
0.0267788972706
0.0443407855928
0.0777889490128
-0.00805432349443
-0.0171249043196
-0.0137977264822
0.103662930429
0.0796060115099
0.0320949479938
-0.0105010485277
0.0244778506458
0.00673617422581
-0.0374939702451
0.0177338439971
-0.0171532966197
-0.0902508273721
-0.069282732904
-0.00985674280673
-0.0740102231503
-0.0925294235349
-0.0359572470188
0.00686075771227
-0.0728361457586
0.0440258011222
0.0130622815341
0.0551960617304
-0.0461305975914
0.00129167537671
0.0394786447287
0.014850708656
0.0458090342581
0.0318255126476
-0.037912722677
0.000525926356204
-0.0415282174945
0.0324965007603
0.0124490465969
-0.0453352071345
0.0100922696292
0.0346276573837
-0.0231813527644
0.0747234374285
0.0130427274853
0.00219681835733
0.00205606152304
-0.0167647209018
0.0086032198742
-0.0125886518508
0.0321191325784
-0.00471352413297
0.0338556468487
-0.00198727985844
