-0.0318578220904
-0.103896826506
-0.0965969413519
0.0347433537245
0.0474921539426
-0.0493707433343
-0.0448004752398
0.131572604179
0.111424893141
0.0170230083168
-0.0666101872921
-0.099590882659
0.0248229634017
0.016613021493
0.0715264156461
0.0168341137469
-0.060937795788
-0.123043052852
0.0342804044485
-0.0424596890807
-0.0524611435831
-0.142295733094
-0.00448315870017
0.0343490317464
-0.0572359338403
-0.0718976706266
0.06629896909
0.0776841640472
0.0272463522851
-0.0880083590746
0.085498213768
0.133453503251
0.0386732295156
0.0144227035344
-0.0126519622281
0.0569740943611
0.00469292560592
0.115111574531
-0.00593606568873
-0.0784405395389
0.0530821718276
0.00667568249628
0.0359676331282
-0.0447438322008
-0.0296300891787
-0.0113098043948
0.0450790375471
-0.0494136810303
0.0125599531457
0.0360072478652
-0.0651890262961
0.074840888381
-0.047755561769
0.00435501895845
-0.112814471126
0.0296600461006
-0.0406288392842
-0.02416822128
-0.0740135908127
-0.098677046597
-0.107713617384
0.0292767267674
0.0543648377061
-0.0019213212654
-0.0452069304883
0.0142335388809
-0.0254877340049
-0.0659592598677
0.0776304453611
-0.132671579719
0.0131210945547
-0.0703593194485
0.0478160381317
-0.0271795671433
-0.0642965137959
-0.0676613301039
-0.108276799321
0.0208083037287
0.139779776335
0.0299463700503
-0.013674381189
0.0556444898248
0.0332308597863
0.0501616485417
-0.024828882888
-0.00723053235561
0.11439152807
-0.14095108211
-0.077178157866
-0.0397893637419
0.175069049001
-0.0208757445216
0.0455979220569
-0.0255479104817
0.00800570007414
-0.0274499952793
-0.0901058167219
-0.0618041343987
0.0126107437536
-0.00276279216632
0.0689223632216
-0.0283106230199
0.128970220685
0.03612819314
-0.0455916002393
0.0332121476531
-0.0822127535939
0.0625937506557
0.00538782216609
-0.0203981623054
-0.109268791974
0.0112892352045
-0.0868689417839
-0.00864865444601
-0.0522759966552
-0.085971146822
0.0877132788301
-0.081037953496
-0.106213115156
-0.0170832108706
0.0971694365144
-0.0206621978432
0.035934895277
0.0810053125024
-0.0155423153192
0.0906143859029
0.0541664399207
0.0244934298098
-0.0841260030866
0.11336312443
-0.0154050439596
0.00419685477391
0.0309562422335
0.0329269431531
0.160163775086
0.000682013342157
-0.000160037379828
0.0721547007561
-0.0590148344636
-0.0297702532262
-0.0328882299364
-0.0627667233348
0.0482761524618
-0.0779233053327
0.0210178401321
0.071889296174
-0.0702157467604
-0.130131050944
0.0311002600938
-0.0552570670843
-0.00513919116929
-0.00171611353289
-0.0670705661178
-0.032106269151
-0.0521166175604
-0.00986357312649
-0.0445232465863
-0.00607065437362
0.00607980135828
0.043792501092
0.0906249582767
-0.0896123573184
-0.0385515987873
0.100466512144
-0.0220289938152
-0.0380911976099
0.0429170951247
0.0431870818138
-0.0476504713297
0.0240754149854
-0.0368901155889
0.0512648969889
0.0886957868934
-0.0716725289822
0.0834826081991
-0.0886792093515
0.040288221091
8.31906218082e-05
-0.100796885788
-0.0437031872571
0.0156938433647
0.023648576811
-0.0525577180088
0.102201335132
0.0688324943185
-0.00905249733478
0.0105025125667
-0.0307714045048
-0.0431408807635
-0.0424726866186
0.0298499129713
0.0112811485305
-0.0104410173371
0.0591575279832
-0.0463267415762
-0.0145305832848
-0.0421218797565
-0.115201167762
-0.0160179883242
-0.0449863187969
0.100608088076
-0.0320915356278
-0.0345063209534
-0.0467623285949
0.0362953133881
-0.0352945625782
0.0277584847063
0.0283962823451
-0.0261877086014
0.00259756203741
0.0111000621691
0.0686526671052
-0.0529672577977
0.022298919037
-0.0237733535469
0.0779583081603
-0.0250390656292
-0.0581004135311
-0.0625441968441
-0.0733953416348
0.115509361029
-0.036881480366
0.0517691448331
-0.0528393387794
-0.0177352540195
-0.00734629295766
-0.0584462061524
-0.0210565403104
-0.0421088896692
-0.0344452038407
0.0756013840437
-0.0281638968736
-0.0382852181792
-0.000479879934574
0.077242963016
0.0282681044191
0.0626552551985
-0.0199879165739
-0.0874513015151
0.0352520123124
-0.0669891685247
-0.0145828220993
0.0160838030279
-0.117309719324
0.00329728797078
0.0452804714441
-0.0294866934419
-0.00346246105619
-0.0769838094711
0.0582473985851
0.024470731616
0.0396872274578
0.0432473383844
-0.0649077296257
-0.0478380955756
-0.00513656297699
0.0439132004976
-0.0243640094995
-0.0342978350818
0.0100421151146
0.0836841836572
0.0167075656354
0.167041495442
-0.00485642347485
0.00598374893889
0.0295093525201
0.0982585176826
0.0525492019951
0.0474875867367
-0.0310092736036
0.03867809847
-0.0417066477239
0.030754243955
-0.0848161876202
0.00610613729805
-0.031671307981
-0.00350694661029
0.0693430006504
-0.0669130161405
-0.0152835845947
0.0223728679121
-0.0188781488687
0.0515229739249
-0.049373742193
-0.0770018845797
0.0449087768793
-0.0226847287267
0.0163274146616
0.0313070863485
0.0365519560874
-0.0846607759595
-0.0278903208673
-0.00618220074102
-0.0552071519196
0.0216459389776
-0.0339039489627
-0.0307961404324
0.0417622886598
0.0368534363806
0.00901490822434
-0.0584271177649
0.0395013280213
0.172050625086
-0.0980219766498
-0.0745052397251
-0.0715705901384
-0.0504100322723
-0.0437420718372
-0.0114005673677
0.00341688282788
0.0535646229982
-0.0510580278933
-0.0489417612553
-0.0369222722948
-0.0327967368066
-0.102486222982
-0.00684223230928
0.166366830468
-0.066184155643
-0.0324587039649
-0.011594790034
0.0508868359029
-0.10033531487
0.047031223774
-0.11180524528
-0.08259293437
0.0595506578684
0.0167632158846
0.0183342788368
0.0940303131938
-0.0224208738655
0.109635144472
0.0104119097814
0.0521568767726
0.00154158612713
0.0590753182769
0.0239628199488
-0.0393903292716
0.0300325863063
-0.0146440658718
-0.0973954945803
0.0757445171475
0.00935893133283
-0.00517384335399
-0.0753210633993
0.033207885921
-0.028548931703
-0.0341137312353
0.0352549366653
0.0381332188845
-0.033319555223
-0.0125976176932
-0.0103950090706
-0.0367241464555
-0.0470755584538
0.059388782829
-0.0361832603812
-0.0573455430567
0.103608764708
0.0596903041005
-0.0800777375698
-0.0377996899188
0.00539787998423
0.0249729286879
-0.0559676475823
0.0589252784848
-0.0373204648495
-0.0384662076831
0.0534182302654
0.0278726685792
-0.0355542004108
0.0541419014335
-0.0518695488572
0.0864237993956
0.0895488187671
-0.0387519299984
-0.0667894110084
-0.0205481871963
-0.0278276316822
0.0543376393616
0.0339681617916
-0.0651769265532
0.03397083655
-0.013476816006
-0.0522508956492
0.0356508530676
0.0446548610926
0.0576924309134
0.114483825862
0.0748413950205
-0.00347244576551
-0.0398952700198
0.0877398923039
0.0279152784497
-0.0979984849691
0.11842597276
0.0472690090537
0.0403843484819
-0.0681021884084
0.0630087777972
0.0850746408105
-0.0823116153479
0.0488977618515
0.0106092356145
-0.00607472239062
0.0102628013119
0.063333041966
0.00461074383929
-0.0153951263055
0.0617376826704
-0.00752739282325
0.0465710684657
0.131995230913
0.0196036472917
0.00762711232528
0.101233154535
-0.0339449010789
-0.0460243336856
0.0420425906777
0.152268573642
0.186066478491
-0.0308158453554
-0.0648192167282
0.0754247903824
0.0739704892039
0.00683137169108
0.0228147935122
0.00633269315585
-0.0616717860103
-0.167651414871
0.0386743731797
0.120429493487
-0.00563950883225
0.00156779377721
-0.054804366082
-0.00333931250498
-0.0677255392075
0.0439150780439
-0.0794074088335
-0.0763256549835
-0.0948379263282
0.0353274382651
0.0583857223392
-0.0422894284129
-0.126079514623
0.00622088368982
-0.0536815598607
-0.0434675700963
0.123163513839
0.0763441249728
0.0535604655743
-0.139843955636
-0.0425233580172
0.0700793638825
0.0587408952415
-0.0596795417368
0.00177724612877
-0.0698221176863
-0.00909697450697
0.0234674979001
-0.0518369600177
0.0321746729314
-0.027518061921
0.0443619117141
0.0428282320499
-0.0251400433481
0.0822561085224
-0.0711755976081
-0.0471408180892
0.0210122372955
-0.045674841851
-0.10180683434
-0.0734278261662
-0.0233959294856
-0.0579074732959
0.0253510475159
-0.0865310207009
0.13547052443
0.0436909534037
0.0582778193057
-0.0474403761327
0.00179905281402
-0.00909656565636
-0.0368019714952
0.105283148587
0.034265562892
0.129997640848
-0.0118295783177
-0.0684916004539
0.0557589866221
-0.00165614078287
0.0507033877075
-0.0124933412299
-0.0184511076659
-0.0476115085185
0.146466970444
-0.082579344511
-0.019943414256
-0.0335349440575
-0.0100370915607
0.0199686717242
-0.0725772455335
0.0300002619624
0.0552469268441
0.0100600253791
-0.0168069060892
0.0365781374276
-0.0593723766506
-0.0201561674476
-0.044872302562
-0.0226557236165
-0.03610470891
-0.0694049522281
-0.0156533438712
0.0449077673256
-0.071194216609
0.0740160644054
-0.0488274544477
0.0763357952237
-0.0281558241695
-0.145945355296
-0.0451017618179
-0.0511141940951
-0.0603566616774
-0.0662263035774
0.0268747583032
-0.0431853681803
0.0275629851967
-0.0341449715197
-0.0828266590834
0.102382130921
-0.0857540741563
0.00853969436139
0.0846257507801
-0.0994422063231
-0.032072480768
-0.0429292321205
0.0656929165125
0.106020137668
0.0445235930383
-0.074566885829
-0.0477726608515
-0.0196399968117
-0.0505661293864
-0.0544802322984
-0.0473791696131
-0.0908720865846
0.0612346306443
0.126035451889
0.00459577841684
0.0228891260922
0.0124002099037
-0.0765723139048
0.00208875280805
0.0121373301372
0.00281481258571
0.00667260633782
-0.0715394094586
0.0548940114677
0.0406287796795
0.0456772893667
-0.00330733181909
-0.0784624367952
0.0205938387662
0.0329276137054
-0.0803070291877
-0.0281195454299
0.0988042578101
0.0237623080611
-0.028284067288
0.0400173738599
0.00279429834336
0.0858576819301
-0.120530232787
0.0480453968048
-0.0315843299031
0.00420544249937
-0.0383490435779
0.014902128838
0.0801534354687
-0.0596263706684
0.00923282466829
-0.0578606277704
0.025006249547
-0.00394716626033
0.039096634835
-0.051658641547
0.105610914528
-0.101169966161
-0.0866033807397
-0.0312769450247
0.0672220438719
-0.0719040334225
0.00800127349794
0.0130187682807
0.0121463881806
-0.0261368285865
0.0954868122935
-0.0129109574482
-0.0551434867084
0.0862394347787
-0.0134197855368
-0.0221379194409
0.0429614335299
-0.00990388728678
0.00785579718649
0.0437702536583
-0.0324113406241
0.0668738856912
0.0143189663067
0.0468475967646
-0.0188383627683
0.0264046024531
0.110454179347
0.0927839875221
0.0221246425062
-0.0636919364333
-0.0829986706376
0.0207530800253
-0.0584382973611
0.0488885492086
0.0503930188715
-0.0783179923892
-0.0134543199092
-0.0600336976349
0.0773402750492
0.109819866717
0.100361526012
0.118248693645
0.056988760829
0.000591175688896
-0.00353970448487
-0.0357221700251
0.0269156172872
0.0585917159915
0.000137132592499
-0.0974680632353
-0.0504589937627
0.0802506506443
0.0240394491702
0.108354561031
-0.00628170790151
-0.00623030075803
0.00695557054132
0.0130940955132
0.0694915652275
0.0494084060192
0.0256331693381
-0.0260898787528
0.0534667000175
0.00332607585005
0.00858312100172
0.00802578777075
0.0824414789677
0.0382956303656
-0.0630285516381
-0.0249457992613
-0.00793273653835
-0.0110302427784
0.0121161853895
0.0112328398973
0.0702329352498
-0.0391956083477
-0.0322092585266
0.0915174558759
-0.00389641849324
0.0209310650826
0.011979399249
0.0279330518097
0.0362873636186
-0.0265946984291
-0.0212385803461
-0.0891589298844
0.0189240444452
-0.0235302560031
-0.0918306708336
-0.0546435005963
-0.134194463491
0.051831677556
0.0655868053436
0.000221926631639
-0.0655737817287
-0.065361969173
-0.0364425368607
-0.0551056675613
0.0280529558659
0.116558089852
-0.0397702008486
0.0665417388082
0.0601906143129
-0.0200809817761
-0.0495956279337
-0.128058567643
-0.0416970439255
-0.0511840991676
0.0148422429338
0.139798521996
-0.00990907195956
0.0466956421733
0.0471274666488
0.104173950851
0.0289105530828
-0.0582986213267
0.0646865665913
-0.0128137627617
-0.0514336824417
0.0706827789545
0.0345631763339
-0.0984527170658
-0.0561461485922
0.0654117241502
-0.129905804992
-0.0211770478636
-0.0545100048184
0.0928662642837
-0.0175503902137
-0.0379285588861
-0.025746639818
-0.040381655097
0.130045339465
0.0534072630107
-0.0117055084556
-0.12402214855
-0.0406457260251
-0.103552594781
0.0759246945381
0.00409553665668
0.0657290518284
-0.089163184166
0.00984881725162
0.0142351062968
0.0699377655983
0.0993154719472
0.0229388009757
0.033276643604
-0.0622175559402
0.0493537373841
0.0682734698057
0.0110139604658
0.147526785731
0.0445242784917
-0.0849421620369
-0.0404363125563
-0.110638014972
0.00382420048118
0.11820730567
-0.0131858829409
-0.00420551281422
-0.105195216835
0.0331584364176
-0.061496745795
-0.0656176432967
0.0104592498392
-0.0767695903778
-0.113332875073
0.0746428519487
-0.045451566577
0.0498540177941
-0.0651561170816
0.0201946794987
0.148873373866
0.098202444613
-0.0264683328569
-0.00313640385866
-0.0942635536194
0.0275883246213
-0.125459134579
-0.0162912476808
-0.064353659749
-0.0602878406644
-0.0316205881536
-0.00681985262781
-0.0194687042385
-0.167434349656
-0.0410495772958
0.0195823218673
0.0680889710784
0.0288987159729
-0.0662350133061
0.0446781441569
0.04966750741
0.10638640821
-0.0590686090291
0.102086633444
0.0886992514133
0.0263947565109
-0.0204366501421
0.0176610872149
0.0237606074661
-0.0220568757504
0.0706657022238
-0.0339373499155
-0.0307808667421
-0.0137844700366
0.032556809485
0.109178632498
-0.0399991832674
-0.0475081056356
-0.0671318843961
-0.0494069829583
0.0884313136339
-0.159530445933
-0.00927749834955
-0.0561667047441
0.0565621741116
0.0979476720095
0.132094472647
0.0294667668641
-0.0632293149829
-0.0182824060321
-0.0493780225515
0.0509805306792
0.19433259964
-0.0266693364829
0.146468877792
-0.0394531041384
0.0190391708165
-0.00936196465045
0.0472920946777
0.00245429622009
-0.018517287448
-0.0461443141103
0.00488515198231
-0.0506874918938
0.0406143069267
0.0656318366528
0.0300421901047
-0.0644456297159
-0.0246583819389
-0.0136994663626
-0.115003719926
0.0117618907243
0.0961211696267
-0.0387246385217
0.068089723587
0.0391084961593
0.0198068954051
-0.0869485512376
-0.0578473806381
0.0335444398224
0.0355068817735
-0.0504936687648
-0.0758207961917
-0.0058157062158
0.0393751524389
0.0455757305026
-0.0062105176039
0.141264483333
0.00635284511372
0.0628240853548
0.0668183863163
-0.016123265028
-0.0521692335606
-0.0129496138543
-0.078669115901
0.0345272645354
-0.0137569485232
0.073174290359
0.0264148768038
-0.0587256737053
-0.0931864306331
-0.0262760389596
-0.0536962971091
-0.0948234274983
0.0738209038973
0.0315183363855
-0.0386036075652
0.0602121502161
-0.0756452456117
-0.105288848281
0.0217296089977
0.0427981168032
-0.0449927970767
-0.0244940780103
0.0332640223205
-0.0228636190295
0.079562947154
0.0407671667635
0.0205660834908
0.125230908394
0.0194460637867
-0.0753116756678
-0.0399111621082
0.0509793311357
0.0920846238732
0.0206424128264
-0.0132099576294
-0.0872173309326
-0.0602731481194
0.020720584318
0.0499535575509
-0.0566832944751
0.0787299796939
-0.0172172561288
0.0883061662316
0.0127222836018
0.00184359156992
0.042097363621
-0.0233468785882
0.0764799341559
0.0480388365686
-0.0498333200812
-0.0561990998685
0.0105855716392
-0.102115489542
0.0354493781924
-0.0593466944993
0.0326598696411
0.0516923628747
-0.0648324042559
0.110627248883
0.0315853133798
0.0773474723101
0.00380087364465
0.00129116885364
-0.0470881611109
0.0216561164707
0.0184360351413
0.0631677135825
-0.0745691210032
0.0168264489621
-0.00487244082615
0.0638475641608
0.0416000671685
-0.0398387312889
-0.0660462677479
0.0736508369446
0.0496910326183
0.0603299364448
-0.172990366817
0.0671807378531
0.0744048207998
-0.010702772066
-0.0684409812093
0.0784602984786
0.0101319225505
-0.0217941757292
-0.023578889668
-0.0266761351377
0.0316593013704
0.111339025199
-0.0621911026537
0.108149327338
0.0273087285459
0.163701653481
-0.0135671915486
0.0654175877571
0.0423370040953
0.117391936481
-0.0403498485684
0.0263047255576
-0.125252589583
-0.0302076879889
0.117538116872
-0.0275877602398
0.0684457570314
0.0528305843472
-0.0101137496531
-0.0911054462194
0.0138532640412
-0.101654238999
0.0248081404716
-0.065681874752
-0.0069365859963
0.0142864855006
-0.120913848281
0.170175284147
0.0725631862879
0.0123044382781
-0.0197291728109
-0.0864444747567
0.0253499522805
0.0680652186275
-0.031120184809
-0.0360117219388
-0.0948391854763
-0.0324829407036
0.0325469262898
-0.0929200649261
-0.00120217620861
0.0839451178908
0.100512750447
-0.00485158152878
0.0521961674094
0.0117573207244
0.00406587310135
0.0286808535457
-0.0510767698288
0.00330253876746
-0.0998461544514
0.0088417455554
-0.0515520460904
0.0418046377599
-0.0939247086644
-0.0316722020507
-0.0590210445225
0.121530354023
-0.0460559017956
-0.0204703211784
0.0275083873421
-0.0467717051506
0.0238737631589
-0.0704443380237
-0.00873639341444
-0.005179873202
0.0154681680724
0.143436536193
-0.121066533029
0.0619035027921
-0.0345536507666
0.0702089816332
0.0638175755739
-0.0405579470098
-0.0290614329278
-0.0644892603159
0.0707185938954
0.0177239011973
-0.0465391427279
0.0521931946278
-0.0752435773611
0.00676563289016
0.00743904290721
-0.0360547490418
0.0246375221759
0.068009711802
0.0151382237673
0.00999282952398
0.0870328322053
-0.012800719589
0.108874186873
-0.0797181278467
0.0522029474378
0.032838575542
-0.0126216262579
0.0980829596519
-0.028652202338
-0.0809775292873
-0.019101684913
-0.018577478826
-0.113473623991
0.0109184011817
-0.0727917402983
0.000715389440302
0.0507365949452
-0.0151895042509
0.0531326681376
0.00193093973212
0.0263146590441
0.076110035181
-0.0830661058426
0.0435596816242
-0.0150949237868
0.0376932173967
-0.0346735529602
-0.120067998767
0.141693934798
-0.040744189173
-0.0355088748038
-0.160781547427
0.122969254851
0.137728452682
0.0522075816989
0.00642997166142
-0.0788168758154
0.00503634428605
0.0042371544987
0.0407822951674
0.0063764792867
0.0629139393568
0.0357301831245
-0.0952624976635
-0.0812708064914
0.114906474948
0.0737308785319
0.048892904073
-0.0265019536018
-0.00887507665902
-0.0798403844237
-0.0355837605894
-0.153593689203
-0.0694223642349
-0.110292501748
-0.0427932403982
-0.090548209846
-0.0955291092396
0.0610725320876
0.0358681865036
-0.133871287107
-0.0429783426225
0.0461047105491
0.0879278630018
-0.11142847687
0.127427354455
-0.00892630126327
0.06195031479
-0.000351260066964
-0.0252270996571
-0.0052036610432
-0.086929872632
-0.0854379758239
-0.0948285982013
-0.0234485473484
-0.0225218236446
0.0354849025607
0.0518599040806
0.122346267104
-0.081826724112
0.0899882093072
0.0711013153195
0.00417161919177
-0.006193658337
0.0678020268679
-0.0439803227782
-0.00836360733956
0.0807679966092
0.0183023829013
-0.0933639481664
0.0122478855774
-0.0469640344381
0.0733263269067
0.0809535235167
0.0157246366143
-0.0341088846326
-0.00146298028994
0.0293854624033
-0.0448021478951
-0.0837787091732
0.0322903767228
0.252227634192
0.0716224834323
0.00152507610619
-0.0845344141126
0.0112262386829
-0.0355636365712
0.144940122962
0.0311923455447
0.0491131059825
0.00494880741462
-0.0371311344206
0.0289037991315
0.0679325312376
0.063746586442
0.0290703941137
-0.13011482358
0.0444065667689
-0.0885247737169
0.0134068382904
-0.0501496680081
-0.0244534593076
-0.098300434649
-0.037276994437
-0.122703321278
-0.0500719062984
0.0781326591969
0.146626159549
-0.0911460742354
0.0450969859958
-0.00625655101612
0.0196247752756
-0.0126087842509
0.172790959477
0.0324484743178
-0.0430941581726
0.0536218099296
0.00223824218847
-0.0910606756806
-0.032882489264
0.147572785616
-0.00426594074816
-0.0815135091543
0.0145460283384
0.0319583937526
0.021090997383
0.138745337725
-0.0282955747098
0.145105451345
0.0769157782197
0.101261213422
0.0331980735064
0.0609006471932
0.0397517830133
0.0511600971222
0.022594595328
0.0855201631784
0.0415120720863
0.220016941428
-0.217572495341
-0.0168952718377
0.126287668943
-0.0729190632701
0.0104686301202
-0.180912211537
-0.135822758079
0.0665552392602
-0.0455837324262
-0.0732780173421
0.0897890329361
0.135914668441
0.0414155386388
-0.0253334566951
0.0312595143914
-0.00143478391692
0.057522136718
0.108199372888
0.0780522748828
-0.0335015654564
-0.109402745962
-0.0729855895042
-0.0327766016126
0.0555796325207
-0.0198246147484
0.0338921397924
0.0429608039558
-0.0511205345392
-0.0433069616556
0.0551610179245
-0.00911310035735
0.124054215848
-0.083652600646
-0.0900740548968
-0.116143487394
0.0628058314323
-0.11156719178
0.00441729463637
-0.0256352052093
0.0565270110965
0.0549137592316
0.0336988382041
0.0413631387055
-0.0329205878079
-0.0890454277396
0.0174124334008
-0.0318973176181
0.0255305599421
0.0682947635651
0.0176056418568
0.0514108575881
-0.0212497264147
0.0964164957404
-0.0460103414953
-0.16025775671
0.0067858826369
-0.0530719272792
-0.0224152505398
-0.0575771927834
-0.0247408170253
0.0812669917941
0.0907339602709
-0.00699751917273
0.0514337569475
0.0841705352068
0.0841246545315
-0.0271890573204
-0.0639881417155
-0.046402361244
-0.021760141477
-0.00367021397687
-0.0560669898987
-0.0543760582805
-0.144770473242
0.0178154222667
-0.0407777950168
0.126642301679
0.0659609809518
0.0251164417714
-0.0589681267738
-0.0617838278413
0.0423831343651
-0.0136715173721
0.0961111187935
-0.0157730747014
0.0773650705814
0.117786437273
0.131286248565
-0.104747764766
-0.0243270173669
0.0451104938984
0.00800689402968
0.0509709008038
-0.0094722378999
0.00582751492038
0.00796397682279
-0.0745986029506
-0.0289519503713
-0.138900488615
-0.0161353964359
-0.0415712147951
0.0621491111815
-0.051133133471
-0.058112859726
0.048343911767
0.0868161171675
0.0931996405125
0.023641994223
0.0362795814872
0.0747164413333
0.10558552295
0.181900635362
-0.0937381237745
0.0426409319043
0.099808730185
-0.0785199329257
-0.0246233046055
0.0546606257558
0.0348232463002
0.0693005174398
-0.117754422128
-0.0568164251745
-0.0383039824665
-0.0446115545928
0.181647449732
-0.0203942134976
0.0449360497296
-0.00460141152143
-0.00171562633477
0.0759353265166
-0.125102519989
0.073010481894
0.03907629475
0.12012425065
-0.0638675764203
0.0467726625502
-0.106154091656
0.0604860335588
0.0441602282226
-0.0944589674473
0.0854335129261
0.0552692376077
-0.108812734485
-0.0653712302446
-0.0809203907847
0.0657690688968
-0.054123762995
-0.0703247860074
-0.00438951235265
-0.109001986682
0.0515251383185
0.0307426583022
0.0638272538781
-0.0373630560935
0.00120811152738
0.0562556385994
-0.0779531672597
-0.108432590961
-0.062295448035
0.00343711930327
-0.0601394437253
-0.182095333934
0.034752395004
0.0105126658455
0.140644356608
0.110593624413
0.0435089692473
0.00739371497184
0.167194455862
0.163303509355
0.00922310352325
-0.0170300267637
-0.0115755787119
0.0155119420961
-0.00525400415063
0.0207519177347
-0.0118927909061
0.0178882237524
-0.0917253568769
-0.0433224178851
0.0585530512035
0.0977844297886
-0.00541674625129
-0.0534532517195
-0.11971975863
-0.093667306006
0.0474657490849
0.079038657248
-0.0288586076349
0.0381063148379
-0.0252223424613
-0.109074965119
0.0352730713785
-0.041599933058
-0.0667201057076
0.107267379761
0.0225049629807
0.0249572712928
-0.00996674969792
0.0228396896273
-0.051035579294
-0.000616711273324
-0.0966588631272
-0.00911112502217
0.0614445246756
0.00482529681176
0.0850394666195
-0.0935493335128
0.0712099000812
0.0173628330231
0.0441415198147
0.156867742538
-0.0290633738041
0.0900941938162
0.0899972096086
-0.0152987129986
-0.0627551525831
-0.0762774422765
0.018875233829
0.0448161065578
0.130142688751
-0.0647016018629
-0.00392065942287
0.0390563085675
-0.00485620787367
-0.01282787323
0.0797963961959
0.082492403686
0.176163986325
-0.0912428051233
-0.0346554405987
-0.0982559025288
-0.0288766622543
-0.0343921966851
-0.0803591236472
-0.0638739317656
-0.070001527667
0.0269508231431
0.146200507879
0.0327138639987
-0.102939233184
0.146258682013
-0.16890719533
-0.134786382318
-0.0292575079948
-0.124236233532
-0.017242917791
0.0740351676941
0.152727350593
-0.0400360152125
0.128060162067
0.0868631079793
-0.0122655406594
0.0355357713997
0.00897408556193
0.034801132977
0.14654584229
-0.00199843780138
-0.0117421289906
0.0638089329004
0.120514944196
0.00819027237594
-0.252287358046
-0.0994050875306
-0.0708597898483
0.0477581731975
-0.0261954460293
-0.0634538605809
-0.0750911533833
-0.0513022951782
0.0377761423588
0.0728599727154
-0.0226050149649
-0.0517406836152
-0.0858533456922
0.016055515036
-0.00772602809593
-0.0592276789248
-0.00243751564994
0.0816864818335
-0.0524258874357
0.00526806572452
-0.0856605991721
0.0146974986419
-0.0963065773249
0.00581554323435
0.138643503189
-0.042905151844
0.0539917759597
0.021851060912
0.129346773028
0.0550410114229
-0.0230127237737
0.107108898461
0.0302085764706
-0.103678680956
-0.162763595581
0.0852401480079
0.0240230876952
0.0944244116545
-0.0781626924872
0.03546840325
0.0548081472516
0.0301377791911
-0.059722777456
-0.103449732065
-0.10217230022
0.0579880848527
0.128817245364
0.114143535495
-0.0778163745999
0.0842939689755
-0.0189552474767
-0.0192944519222
-0.15219014883
0.0434984900057
0.063874438405
0.00239448319189
0.0777826011181
-0.0282227862626
-0.0468937829137
0.0565825589001
-0.0135396765545
-0.0893448516726
0.00828748289496
-0.0935604944825
-0.129205837846
-0.0931071862578
-0.0631150305271
-0.011364068836
-0.0297111030668
-0.0966820791364
-0.052606664598
0.0345467925072
0.0234697461128
-0.112980090082
0.0349039100111
-0.0858641415834
0.04492412135
-0.0550765357912
-0.0327517129481
0.0968976020813
0.141597017646
0.101764328778
0.0479869097471
-0.0308409389108
0.228171676397
-0.12397158891
0.0194472707808
0.135012164712
0.0946133062243
-0.0637462213635
-0.028428401798
0.115973681211
-0.161970734596
0.0927484706044
0.0929885804653
-0.0505485199392
0.0373142547905
0.0100209945813
0.0866983756423
-0.0541882626712
-0.0821668058634
-0.129418998957
0.0559378266335
-0.0450203493237
0.134574607015
-0.0295573771
0.104106850922
0.0643723011017
0.0249070655555
0.0250848326832
0.0867611393332
-0.0281767174602
-0.0344168059528
0.0333789214492
-0.137256398797
-0.0523089580238
0.00542707368731
0.0429202802479
-0.050634086132
-0.125333368778
-0.0365271903574
-0.06167146191
-0.00490208808333
0.173432826996
-0.0933124646544
0.10002759099
0.0160389617085
0.121166810393
-0.074882529676
-0.0434204116464
-0.0913334339857
0.00756524596363
-0.0330155231059
0.020020743832
-0.0225801263005
-0.0458001494408
0.0774640217423
-0.0893938839436
0.0246745236218
0.0552499257028
-0.0104175489396
0.0922136157751
-0.0679810941219
-0.127456098795
-0.106418535113
-0.026860659942
-0.0217131488025
0.0352536439896
0.172768428922
-0.007392201107
0.0760818123817
0.0296529345214
0.0875486955047
0.0540891773999
-0.111924186349
-0.0300447884947
-0.011602752842
-0.010464804247
0.0545565970242
-0.0102431233972
0.0421003289521
0.109121084213
-0.0621488951147
0.102674357593
0.000398660369683
0.053578928113
0.114649131894
-0.16830176115
-0.0247430410236
0.0358982868493
0.0754812657833
0.0410047732294
-0.0988582149148
0.00650641834363
-0.0901369079947
0.149944961071
-0.00852776225656
0.051417812705
0.113721452653
0.0556070692837
-0.0740298703313
-0.0635825693607
0.0502247214317
0.033512018621
-0.016750426963
-0.0050379387103
-0.115324050188
-0.0900872573256
0.0388473160565
0.0996193215251
-0.0964765250683
-0.016187639907
-0.0717765390873
0.13064391911
0.0399706363678
0.080647751689
0.00702545046806
-0.110801227391
0.039063770324
0.0705045759678
-0.0399383567274
-0.0714959427714
-0.00707637611777
0.045626744628
-0.00226679933257
0.0732386484742
0.0361759848893
-0.036201518029
-0.0602900534868
0.0683686509728
0.0127912117168
-0.0703407749534
-0.102153852582
-0.0306877195835
0.177829504013
-0.0967114940286
0.100753858685
0.0935922563076
-0.0333169102669
0.0866603404284
-0.0239468757063
0.0627604201436
-0.0142446961254
-0.00174089404754
-0.174099802971
0.0229064933956
-0.0515480265021
0.0146693298593
0.0340952835977
-0.0394252352417
0.099475607276
0.110881730914
-0.0538157746196
0.0441190227866
-3.38985300914e-05
-0.0102001922205
-0.0546551682055
-0.110456697643
0.0888084173203
0.0250175017864
0.0703063011169
0.0306116547436
8.67089547683e-05
-0.101563900709
-0.0339157357812
-0.0272905416787
-0.0653803274035
-0.133018255234
-0.0357911400497
-0.0465150736272
0.00290131359361
0.066194884479
-0.054919000715
-0.128445416689
-0.0526074692607
-0.067588314414
0.0300064720213
-0.0116899050772
-0.0087320888415
0.0872882381082
0.00236665946431
-0.0222217608243
-0.112633526325
-0.0662653595209
0.134291768074
-0.0819137617946
0.131007105112
0.0629484802485
0.0613169148564
-0.0679825991392
0.0309692844748
-0.0981487259269
0.0458585992455
0.0338883921504
0.0752120316029
0.106435753405
-0.00652774842456
-0.02141437307
-0.0705911964178
0.042647305876
-0.0294372029603
-0.09198050946
0.0863220915198
0.0688895955682
0.0554998405278
-0.0444102138281
0.0520556792617
0.0267155412585
-0.0549973845482
-0.0588787421584
0.108640745282
0.0219774860889
-0.00196369620971
0.0221761837602
-0.0446510612965
0.0398211441934
-0.145880073309
-0.118547447026
0.0816443562508
-0.0597184970975
-0.0707207322121
-0.0752149447799
-0.0911489352584
-0.025564417243
0.0891550704837
-0.0349902808666
0.0719772577286
-0.045779466629
0.000146406600834
-0.002818437526
0.0268398206681
-0.00176991568878
-0.10400249064
0.0402591042221
-0.0996769890189
0.0720961391926
0.0308747123927
-0.0169848296791
-0.0437003448606
-0.0990838631988
-0.0801688805223
0.0747671201825
-0.00868899002671
-0.0910397693515
0.00211002328433
0.079186744988
0.0615693069994
0.130067631602
0.00979087222368
-0.00438492372632
-0.0209006331861
-0.0140079930425
0.00187763315625
-0.0782081931829
-0.0285262428224
-0.0524238236248
-0.0398231633008
-0.0898310169578
0.0196232013404
0.0316878035665
0.0356646813452
-0.0344274826348
-0.00928951241076
-0.0722908452153
0.176389798522
0.0198684819043
0.00651530502364
-0.0507897734642
-0.0346631035209
-0.0148744601756
-0.102515891194
-0.0730560645461
-0.082489438355
-0.0192800294608
-0.0273168664426
-0.0553770661354
0.0459570027888
0.0650776177645
-0.00814239121974
-0.0912544354796
0.210512042046
-0.0561261996627
-0.0649254396558
0.13854688406
-0.0511872544885
-0.0127628734335
-0.0269838813692
-0.031983345747
0.0348855778575
0.118990190327
0.0724104493856
-0.0717132613063
0.00546094588935
-0.0180335305631
0.0101041980088
0.10988637805
-0.0950710996985
-0.0346598364413
0.00878898147494
0.0205006655306
-0.0662948340178
-0.0439582057297
0.158529371023
0.078705355525
-0.0252876356244
0.115098796785
0.00865495577455
0.0935645699501
-0.154965430498
-0.135347098112
-0.166720792651
-0.00859223958105
0.0267711374909
-0.0718607380986
0.00987437274307
-0.0489401072264
-0.00602660607547
-0.0730676800013
0.0587555617094
0.121359080076
-0.123903684318
0.0273240674287
-0.100261941552
0.049593899399
0.00233157840557
-0.0255219675601
0.0130342626944
0.0092464024201
0.040277402848
-0.0923152640462
0.0324086770415
-0.0450997017324
-0.0269752666354
-0.0702420696616
-0.0291078314185
-0.00284947361797
-0.122226156294
-0.053967371583
0.155938267708
0.104668714106
-0.0513535663486
-0.0246651284397
0.122715048492
0.00405585439876
-0.0851562321186
0.0551027655602
-0.051847640425
-0.0468285419047
0.124961450696
0.147623866796
0.0437895581126
-0.120872355998
-0.0418498516083
-0.111375756562
-0.0925381705165
-0.0226058065891
-0.0217315722257
0.00342897837982
-0.0112578198314
0.0103566776961
-0.0228627342731
-0.000350631162291
-0.12398775667
0.00679285079241
-0.00136607710738
0.122585617006
0.0549524091184
-0.0631331428885
0.096864387393
-0.00410504778847
-0.159262388945
-0.0542095974088
0.0342953838408
0.192783504725
0.05873657763
-0.0305256806314
0.038267031312
-0.141317665577
0.10831181705
-0.0061909770593
0.00557307712734
-0.00706373807043
0.00183289847337
-0.0559852235019
0.0558985099196
0.0223948433995
0.0511029846966
-0.0700903758407
-0.0513692051172
0.055664729327
0.0101306084543
0.0128100197762
0.0206444039941
-0.0061154877767
0.0199265740812
-0.00458022113889
0.055954605341
0.051100011915
0.0262413918972
-0.0610868521035
0.199810370803
0.20830899477
-0.0658030509949
-0.0330985896289
-0.00728906737641
-0.0012785398867
0.0695338398218
0.128594592214
-0.0231333132833
0.00232124258764
-0.0900368019938
-0.00337768299505
-0.0418741628528
0.0495110303164
0.0476922243834
0.0469345226884
0.118867583573
-0.0176319330931
0.00189407076687
0.0492199733853
-0.122882016003
0.0259514916688
-0.0233403462917
-0.0065823988989
-0.0166119486094
-0.0765861496329
0.0325290001929
-0.0260232444853
-0.0298019163311
-0.116187959909
0.0383063778281
-0.0292705371976
0.00821644440293
-0.00554359285161
0.0207596998662
-0.0261401962489
-0.0430223233998
0.078950561583
-0.07206197083
0.0712293609977
0.0583822652698
0.0119712511078
0.0848440900445
-0.0975690707564
-0.12093808502
0.0488574430346
0.00450083008036
0.135208666325
0.0358759239316
-0.118198119104
-0.0988540947437
0.0356107316911
-0.094355493784
-0.109404549003
-0.0715115889907
-0.0634766146541
-0.00626378506422
0.0553494095802
0.126754909754
-0.0676830038428
0.113110005856
0.00633703591302
0.102905198932
-0.0889125540853
-0.116161040962
0.214881688356
-0.0208276007324
0.0120739787817
-0.0889933332801
0.155907794833
0.0224507059902
0.063763923943
0.0862553268671
0.159867689013
-0.0383663363755
0.0425418652594
0.100555382669
-0.0432904735208
-0.0304548963904
0.0544998347759
0.15141454339
0.11101141572
0.0293526332825
0.158540800214
0.164086326957
-0.0255120024085
-0.0910901799798
-0.0556847378612
-0.0895909518003
0.11934004724
0.0332337617874
-0.0360281020403
0.0276405885816
0.0692199990153
0.0204878374934
0.00116981845349
0.0483154095709
-0.0192364677787
0.118294164538
0.0692880302668
-0.0203754417598
0.0976204127073
-0.0324062183499
-0.0467965714633
-0.208159968257
0.0484734289348
-0.0778591632843
-0.097977258265
0.0503172688186
0.0542684160173
-0.0282799433917
0.0183752737939
0.0123340878636
-0.0918403342366
-0.126916021109
-0.043614000082
0.00492311548442
-0.0230959393084
-0.11167228967
0.0535753443837
0.137023791671
0.111111745238
-0.0623857341707
-0.0301488470286
0.0121053401381
-0.0352393761277
-0.0371160209179
-0.0462359152734
-0.100368633866
-0.165831759572
0.0752711221576
-0.0358617044985
0.1421212852
-0.0174163151532
0.0614075213671
0.0891072973609
-0.101899802685
0.00355782243423
-0.070995606482
0.140474066138
-0.121960051358
0.0879392549396
-0.0061921775341
0.0233172178268
0.10404497385
-0.127220541239
0.105324573815
0.00763953384012
-0.0217683855444
-0.126316472888
-0.00194051209837
0.10475256294
0.0470335185528
-0.0189161356539
-0.0422508567572
0.0210694577545
0.0300669390708
-0.0201592035592
0.00532511807978
-0.0141211291775
-0.109555728734
-0.140781015158
-0.0299798697233
0.0516997538507
-0.0172279551625
0.0587559193373
-0.0969241485
-0.0146086355671
-0.145263716578
-0.0522633641958
-0.0727735608816
-0.0571400336921
-0.0786243751645
-0.04473945871
0.0224588885903
0.0459354147315
-0.0124387191609
0.0786336138844
0.110818997025
-0.0284828897566
-0.0277837794274
-0.0315819084644
-0.0458381175995
-0.0555276013911
0.0323314853013
-0.01137878187
-0.01772759296
0.16344410181
0.0555292405188
-0.0818347781897
-0.0151015836746
0.0459491312504
-0.0278627965599
0.067910708487
0.179100126028
0.0127194300294
0.0530423931777
-0.0259814374149
-0.109937280416
0.0817981809378
-0.00256933947094
-0.138614982367
0.035726737231
0.0356082320213
-0.0413987636566
0.00242623919621
-0.0565486773849
-0.0452030673623
-0.126082658768
-0.10616325587
0.0418549068272
0.025259014219
0.0816714838147
-0.0272714160383
-0.0723230913281
-0.0528181307018
0.020298352465
-0.0346509180963
0.0120156705379
0.0376591868699
0.0228425934911
0.106845200062
-0.0574115514755
0.108146257699
0.185833588243
-0.0411418378353
-0.00517495116219
0.00750831793994
-0.138830080628
-0.0349638126791
-0.0566275529563
0.0518604405224
-0.0816169902682
0.18739515543
0.000127366336528
-0.083825878799
0.0272373761982
0.097116202116
0.0185977276415
0.0877522081137
-0.0468247309327
0.0727268457413
-0.0517346635461
0.067592702806
0.0901078656316
-0.0711493492126
-0.151050746441
-0.157944306731
-0.00648893788457
-0.0280604939908
0.117980249226
-0.000226000149269
0.075320482254
0.0446757674217
0.0630082637072
-0.0866276100278
-0.0274880100042
0.00775167206302
-0.077161796391
0.0748785063624
-0.116741992533
0.127283483744
0.0102548645809
0.000385836960049
0.00431125145406
-0.0659290105104
-0.0357775092125
-0.013892496936
-0.129250630736
-0.00704181147739
-0.0667908787727
-0.0537004619837
-0.0473551601171
-0.00907816924155
-0.025333289057
-0.0498695671558
0.0137500585988
0.039774697274
-0.100496202707
0.0139822391793
0.0779398605227
-0.0342336371541
-0.0628373399377
0.167152121663
-0.132176414132
0.0119541864842
-0.0618174895644
0.00467340787873
0.0131806870922
-0.0628073364496
0.0709962397814
0.0805033445358
-0.0625295042992
-0.0412145778537
-0.0607519969344
0.00154450221453
-0.00668292073533
-0.0563143528998
-0.0546463690698
-0.0291378628463
-0.0115394350141
-0.00343513605185
0.0343898944557
-0.0462722294033
-0.0965094491839
0.0180492736399
-0.0638617873192
-0.157643944025
0.0402455963194
0.155603170395
-0.0847888290882
-0.0523299984634
0.15736284852
-0.0987046211958
-0.0275565162301
0.0606765374541
0.0392444171011
-0.123002700508
-0.0161857102066
0.0997695028782
0.0378982461989
0.000824153132271
0.0216727461666
-0.0171332415193
-0.0652260482311
0.0162599217147
-0.0476873889565
-0.0162344891578
-0.067167468369
-0.00575928436592
0.06622261554
-0.0678883641958
0.137363031507
0.0221985056996
-0.107742764056
-0.0564529262483
0.0675994306803
0.035308342427
-0.0535650961101
-0.0594732053578
-0.117790736258
0.00697548966855
0.0155091946945
0.0213158689439
-0.060111541301
-0.0828364416957
0.00720695545897
-0.0165737606585
0.0457065366209
0.0573761090636
0.0214590579271
-0.0697322636843
-0.00676844408736
-0.0153925511986
-0.0225915759802
-0.0159360673279
-0.0735285207629
-0.0749646127224
0.0717158168554
0.114536322653
0.0391302406788
-0.0801952704787
0.0394378602505
0.0557534694672
-0.0570677295327
0.00156066950876
0.0833902806044
-0.00485007837415
0.0734746903181
-0.0831922292709
0.041944976896
-0.0441954769194
0.0334462448955
-0.0383985303342
0.0148373879492
0.00494616944343
0.143582850695
0.0432287268341
-0.0346460789442
-0.0370439067483
-0.0281801279634
0.0216154679656
-0.0810591652989
-0.00531781325117
-0.00338953034952
-0.0290626902133
0.0211944486946
0.0127722658217
-0.0211878418922
-0.111676119268
-0.0679015517235
-0.205169081688
0.0385246314108
-0.0873024985194
0.0539362877607
-0.0142114134505
-0.056959848851
0.113827459514
0.0676768273115
0.0167963095009
-0.0360961481929
0.0501071959734
0.12362729758
-0.0168886873871
0.0443064570427
0.0244677066803
0.0226608663797
-0.0333362407982
0.102471612394
-0.012476509437
0.0775030776858
0.123286895454
-0.103463701904
0.0930830463767
-0.141900092363
0.0728822872043
-0.0675171762705
-0.0982959419489
0.0532118454576
-0.0369810238481
0.0874125063419
0.0464037358761
-0.0659452304244
-0.0589664876461
0.166899114847
0.00195967452601
-0.0120406737551
0.0973170176148
0.061418376863
0.080836571753
-0.10307521373
0.0130041157827
-0.032131806016
0.0131204407662
-0.0213756486773
-0.0730655118823
0.097374342382
-0.0392812751234
-0.019450256601
0.0433312505484
-0.03400586918
0.00102265435271
-0.100241839886
0.0231723450124
0.0222663339227
0.0519737936556
-0.118013434112
-0.0417085289955
-0.103218473494
0.0332800149918
0.0507786720991
0.0196375716478
-0.0320734232664
0.0574953146279
-0.0063778324984
-0.0146438153461
-0.0103305047378
0.0791055709124
0.0115918023512
-0.0645414814353
0.00226366426796
-0.0339530147612
0.0187279954553
0.108498618007
0.0169668458402
-0.0216959435493
0.0282230693847
0.0667848289013
0.0132502568886
-0.0288497135043
0.0310877133161
-0.047671250999
-0.049984395504
-0.0347684361041
-0.00131322967354
0.0193014685065
-0.114004433155
0.0928343310952
0.011844269
-0.00414020335302
0.00921690743417
0.0172858498991
-0.0809375867248
0.0102539313957
-0.0673348903656
-0.0761080905795
-0.0792088508606
-0.105051845312
0.0724635347724
0.020952809602
-0.0699373781681
0.0301979053766
0.0219298880547
0.114422284067
0.0111550483853
0.0708931908011
-0.0937453061342
0.015433379449
0.00664263824001
9.21916362131e-05
-0.0508785918355
-0.0330115482211
0.0421399027109
-0.0932858809829
-0.00582912703976
-0.0425471179187
-0.107067681849
0.0144086899236
-0.0124467369169
0.0071194479242
0.246867209673
0.0287680923939
-0.0536011010408
-0.0238203946501
0.0290880743414
-0.0204542055726
-0.104003846645
0.0410317182541
-0.0127515476197
0.0524315237999
0.0385675691068
0.0289214365184
-0.0606829412282
-0.0213353987783
0.0649375319481
-0.136382624507
-0.119699828327
0.0950191766024
0.0346154235303
0.0834060534835
-0.0161913409829
-0.0574678219855
-0.0585276074708
-0.0552930422127
0.0993851944804
0.0697617977858
0.0109406895936
0.100315801799
-0.0442671142519
0.130253061652
-0.0890123173594
-0.0321836285293
0.0758932605386
0.0845707431436
-0.0591804794967
-0.0276621673256
-0.0621543452144
-0.0768672376871
0.0188888087869
-0.0161009151489
0.112912543118
-0.0170457772911
0.097973562777
0.107282228768
0.0177088007331
0.0356997959316
-0.0385813824832
-0.153544872999
-0.19329495728
-0.0401518791914
-0.0434856191278
-0.0431201346219
0.0206466913223
0.0886279195547
0.11473017931
-0.0437465757132
-0.00774279609323
-0.0808633863926
-0.0449947454035
-0.00451762555167
0.0840731784701
-0.0459968671203
0.000457347283373
0.0520497485995
0.0660324320197
0.0878613889217
0.0700970590115
0.0319475978613
-0.0772378370166
-0.0368328914046
-0.147276490927
-0.0282556451857
0.0223582517356
0.0172200389206
0.0408571437001
0.0445562079549
-0.00783594977111
0.0762853547931
0.0925685465336
-0.0172711275518
-0.0661955475807
0.10861684382
0.0669492781162
0.129103526473
0.0637056156993
0.0637896433473
0.000917539873626
0.0509644262493
-0.0868872329593
-0.0412676110864
0.0170651748776
-0.116576857865
0.0775442346931
-0.00760476337746
-0.0941983312368
-0.0219035800546
0.0117155499756
-0.111574105918
0.041716363281
-0.107452332973
0.0276782624424
-0.0438593812287
-0.180502131581
0.0985907465219
-0.0302785616368
-0.00902102701366
0.120216213167
-0.0417877398431
0.0973225161433
0.0245991777629
-0.124983727932
-0.146344676614
-0.0131118027493
0.120458863676
-0.053975250572
-0.0255745332688
0.0470385029912
-0.0304939970374
0.0539453737438
0.119736149907
1.20721078929e-05
-0.0171352755278
0.0708781778812
0.00109776912723
0.0627552866936
0.0283116139472
0.102394163609
-0.112381197512
0.026093987748
-0.0887077078223
0.00929461140186
0.0104588326067
0.00522295664996
0.081317782402
-0.0641491562128
0.0262266658247
-0.297459036112
0.0770349055529
0.230580791831
0.105726256967
-0.0967119336128
0.109534673393
-0.120126537979
0.0169312953949
0.0786525979638
-0.00740824220702
-0.0591920092702
-0.0418516136706
-0.0133374873549
0.128340736032
0.137239098549
0.00492933159694
-0.142758920789
0.0564749166369
0.0100662922487
-0.0194411668926
-0.0901996865869
-0.0573327355087
0.0588963888586
-0.0232703313231
0.154659628868
-0.0578576438129
-0.0588315725327
-0.0556816980243
-0.0177456829697
0.0713689774275
-0.137359246612
-0.0255489107221
-0.0701654031873
-0.0593677982688
0.0343474559486
-0.0796205401421
-0.0269317682832
-0.163942351937
0.0217268485576
0.0375574938953
-0.0106668965891
0.0206642579287
0.0161217097193
-0.0625208318233
0.101076245308
-0.0379481576383
0.0384181216359
0.0420000217855
0.0133197456598
-0.13589335978
0.0127785168588
0.0404050163925
0.125221416354
-0.111359938979
-0.0549108423293
-0.00197263807058
0.0899644941092
-0.0234712231904
-0.0256371758878
-0.0355498567224
0.0211196877062
0.0296375490725
0.126438260078
0.0550899468362
0.0116716409102
0.0199220757931
0.0662061497569
-0.0592852719128
0.0604671016335
0.085326500237
0.042884349823
-0.138779118657
-0.051738563925
0.0711685419083
0.0396205149591
-0.0327877700329
0.0166090577841
-0.0396784059703
-0.0294317491353
-0.129452496767
-0.0371983759105
0.110272824764
-0.0550889968872
0.0738657191396
0.0588195100427
0.0352590046823
-0.0309441573918
-0.0614021942019
0.123585820198
-0.0906103178859
0.00409639533609
-0.047700561583
-0.0325921960175
0.00183497392572
0.018258228898
0.0690881088376
-0.0711523815989
-0.123875416815
-0.0954701080918
-0.00880143418908
-0.0511268749833
0.0993873327971
-0.0258415807039
-0.0148736154661
0.0260531473905
0.0664593204856
-0.0210175756365
-0.0482333377004
-0.0956098437309
-0.039280898869
-0.0906261950731
-0.0330098494887
-0.0337415784597
-0.0471533499658
-0.120668254793
0.0233924221247
-0.0649547874928
-0.00732099963352
0.0373963974416
0.0301093626767
0.0476600080729
0.0376359373331
0.053218908608
0.0370064862072
0.0046728476882
0.012441156432
-0.07943264395
0.14470718801
-0.0282787326723
0.0633283481002
0.115264803171
0.0563471391797
0.0887340828776
-0.0253584422171
-0.0947937294841
0.0617616176605
0.0312891826034
-0.0364273265004
0.0376445353031
-0.0617623403668
0.0815828517079
0.0490508899093
-0.0316010378301
0.00486219627783
0.0195451937616
0.0991975441575
-0.0180419944227
-0.158594191074
0.118222050369
-0.0322482436895
0.196910098195
-0.127346336842
0.152071326971
-0.0348442196846
0.0390733331442
0.0730090141296
-0.00128957896959
0.0731280222535
0.0301512442529
-0.0402712449431
-0.0428484752774
-0.0608380287886
0.0392029210925
-0.135543212295
-0.0591856837273
-0.0278572067618
0.0557435378432
0.068514354527
-0.05551199615
0.0556386783719
0.0563053078949
0.05688560009
0.0376268811524
-0.055788975209
-0.00319195375778
0.00876464508474
-0.0698950439692
-0.0541538521647
-0.0864626094699
0.0612439401448
0.100488200784
0.00146409939043
0.0178766939789
0.00170686643105
-0.0686953291297
0.0739801228046
-0.05076174438
0.0708527565002
-0.0500141829252
0.0708823353052
-0.158568784595
0.0234286654741
0.0123750586063
-0.052015658468
0.0521212629974
-0.0878974124789
0.0241585131735
0.107698179781
-0.0164789631963
0.0490028299391
0.0483867041767
-0.0533775389194
-0.0243682023138
0.0615300498903
0.0259342733771
-0.103828676045
0.0694138556719
0.0400458425283
0.050311230123
0.0480226166546
0.108744882047
-0.0536950528622
-0.0196351706982
0.0427772402763
0.00906373094767
0.0764870941639
-0.0652787163854
-0.0305070467293
-0.200207725167
0.0282739941031
0.0784395933151
-0.0139792477712
0.0555353537202
-0.0903350040317
0.10000205785
0.0666678920388
0.0134196970612
0.150475770235
-0.0338548533618
0.0775103494525
0.0503514707088
0.137243106961
0.0698498263955
0.070717856288
0.0266009997576
0.0187199041247
0.0828976929188
-0.0119121465832
0.0629212036729
-0.0348241366446
-0.071943461895
-0.16148994863
-0.0355108343065
-0.0990675315261
-0.0912747457623
0.1363183707
0.0120195681229
0.0335823297501
0.0789022222161
-0.0502298586071
0.137817934155
-0.12368285656
-0.12589918077
0.0689075365663
0.0661180093884
0.0146353002638
-0.0259191095829
0.0179149825126
-0.00935193896294
-0.0443366803229
0.0778785198927
-0.120872303843
-0.0397328697145
0.157340496778
0.00451293587685
-0.00561623321846
0.0903669148684
0.10244307667
0.00916326697916
0.041063837707
0.00540565140545
0.143226876855
0.0103481113911
0.0993626341224
-0.0143307596445
0.0470821298659
0.00039108141209
0.00537822255865
-0.0133796716109
0.0590504184365
-0.0320551842451
-0.143176496029
-0.0562478527427
-0.10743329674
-0.0657440498471
0.0247759055346
0.0133268423378
0.119115166366
-0.005648244638
0.0788967162371
0.103102698922
0.0425468571484
0.00284020137042
0.0347014032304
-0.0424708090723
0.0982700139284
0.0436554402113
-0.0901173427701
-0.0858612433076
-0.0352564491332
0.0648068338633
0.037837356329
0.140018358827
-0.052582602948
0.00509070418775
0.114441342652
0.0218933597207
-0.0462849140167
0.0622969269753
0.00780549272895
-0.0709449127316
-0.0567420385778
0.175324574113
-0.0736614242196
0.121507011354
-0.0470563545823
0.0254821144044
0.0109622189775
-0.173640519381
-0.0275228451937
-0.125257641077
-0.0543476715684
-0.0180725567043
-0.0725736618042
0.133040204644
-0.0543016120791
0.00716800009832
0.0837429910898
-0.0715212970972
0.121126823127
0.0295309443027
-0.00225297943689
-0.0891119688749
-0.0244559198618
0.0337756201625
-0.126754522324
-0.0855950340629
-0.0544328838587
0.0989398658276
0.108682624996
0.0707539469004
0.00936327315867
0.00247554946691
0.14376835525
0.0119626838714
-0.00593563029543
0.0352469235659
0.101221397519
-0.0160578321666
0.0940488800406
0.0227562375367
0.00584777351469
-0.0969167873263
-0.0256788972765
0.0356393642724
0.0676358938217
-0.0591703206301
-0.00748462975025
0.0132069513202
-0.0625413581729
-0.0873667523265
0.0614738240838
-0.0369039960206
0.0172089692205
-0.03293806687
0.0794052481651
-0.0356368273497
-0.143066033721
-0.068850569427
-0.02784467116
-0.0424827225506
-0.148394912481
0.00833174586296
0.0197890922427
0.0305307041854
-0.000772221479565
0.0392623767257
0.145270451903
0.1541467309
-0.0307012796402
0.0656984969974
0.0292647946626
-0.00792134460062
-0.00771565642208
0.0923542678356
0.0817838460207
0.0200899429619
-0.0602116584778
0.000134009038447
-0.0623313188553
-0.023239178583
0.112324081361
-0.0126108704135
-0.0957335233688
0.164811447263
-0.0389921367168
0.164409860969
0.0123269511387
-0.0798923894763
0.0321281403303
-3.95646165998e-05
0.0416910424829
0.065808005631
-0.0446907393634
-0.0359387211502
0.0979955717921
0.00302848918363
0.0319580473006
0.0468711778522
-0.0609248131514
0.0527284182608
0.0259965956211
-0.0715320631862
-0.00442803697661
-0.114834047854
0.00564615102485
-0.0335799455643
0.0575296394527
-0.0638448223472
-0.0301228445023
0.0202630758286
-0.01862988621
0.0208256356418
0.032116856426
-0.00388387427665
0.0837423801422
-0.103227958083
-0.0955216065049
-0.173148572445
0.00321699446067
-0.13857652247
0.0137918461114
-0.0123704485595
0.179640620947
0.0079946545884
0.0286981910467
0.147973611951
-0.118075013161
-0.0843354687095
-0.0448703095317
0.0963125824928
0.0276749245822
0.01416142378
0.11713206023
-0.00494426675141
-0.0964758396149
0.129604771733
0.0905439779162
0.0779228284955
0.0583538562059
0.0977190211415
0.0463063195348
-0.0473632477224
0.0955663099885
0.00130687048659
-0.132444307208
-0.00182142830454
0.0375946685672
-0.0538480468094
0.0449634082615
0.031189115718
0.0190251711756
-0.0194485727698
0.0678327605128
-0.0635389536619
-0.0647036954761
0.0385122001171
0.00309680751525
-0.0669990479946
-0.0179253704846
-0.0499496273696
-0.0044770357199
0.086499042809
-0.0692113265395
-0.0440127588809
-0.0975052937865
0.00348050473258
-0.05578000471
0.0223324801773
0.102547138929
-0.0146301379427
0.0196281056851
0.00493158772588
-0.050059735775
0.0439483113587
0.062402792275
-0.0871731415391
0.0233325585723
-0.0202880650759
-0.0613267272711
-0.0562753789127
0.00307909911498
-0.056691031903
0.00545059656724
0.021633522585
-0.0571727454662
-0.00096198846586
-0.0629194751382
-0.0201909709722
-0.127143338323
0.0818467959762
-0.0293863862753
-0.0144358221442
0.0179610438645
0.067942738533
0.0609980933368
0.0138562414795
0.0814253389835
-0.0405256599188
-0.00550986407325
0.0274273175746
0.0610406547785
-0.00371930957772
0.0430202521384
0.0417574755847
0.0413247272372
0.0857838690281
-0.00796561408788
-0.0776890218258
-0.0655413269997
0.0398415066302
-0.0187404453754
-0.0291629713029
-0.0102652097121
0.0122577724978
0.137560591102
-0.0738041326404
0.0452657416463
-0.121288061142
5.74275327381e-06
0.0106664812192
-0.0678612217307
0.00637242430821
0.0894939675927
0.00900916568935
-0.0100827282295
0.0103748366237
-0.0845096632838
-0.000568235642277
0.0596217438579
-0.0287222173065
0.0650455206633
-0.0346665047109
-0.0545832291245
-0.0330427326262
0.0122974617407
-0.113351859152
0.0249368604273
0.021539254114
-0.126011073589
0.0707950666547
-0.0916976779699
-0.042399238795
0.0133905755356
-0.103347301483
-0.0183455273509
-0.116832561791
0.0250454973429
0.00194514414761
-0.0141550144181
-0.0267121810466
-0.0726383700967
0.0280529726297
-0.0668070316315
0.0557324402034
0.0172004103661
-0.0253113992512
-0.0665029659867
0.00120800849982
0.0529353544116
-0.0506143532693
0.101600497961
0.0618076212704
-0.0780124440789
-0.0111482730135
-0.0519445426762
0.030225450173
-0.0935585647821
-0.000401116907597
-0.0821765512228
0.0693334266543
-0.000404412508942
0.0546258464456
0.0054070292972
-0.00758657511324
0.0558266974986
-0.0702876523137
-0.134048700333
0.000113870257337
-0.0350585989654
0.0735183134675
-0.0101369097829
-0.0593595840037
0.0177201926708
-0.0227716099471
-0.0997065007687
0.0256817899644
-0.0242822729051
-0.115682937205
-0.0296696648002
0.00571657624096
0.0992063060403
-0.012374708429
0.0612565241754
-0.102176003158
-0.0388544462621
-0.0414126552641
-0.110541380942
0.0545107088983
-0.0294027477503
0.0157148074359
-0.086176879704
-0.00990477111191
0.0839738994837
-0.0130265457556
-0.102237306535
0.0664245635271
0.0924865305424
-0.135154500604
0.060282073915
-0.0116626936942
-0.0288599189371
-0.0529835782945
-0.0436531230807
-0.0986080616713
0.0105769084767
0.0243011973798
0.011605989188
-0.0659132748842
-0.036096919328
0.0626445710659
0.0769519135356
0.086342073977
0.171271845698
-0.0136985890567
0.027172120288
0.073944337666
0.0843798816204
-0.0776250511408
0.0410966873169
0.00434776162729
-0.0324445776641
0.0586764886975
-0.00258734100498
-0.00990734901279
-0.0737407058477
0.111907243729
-0.0940950587392
0.0888959765434
-0.132161483169
-0.100236557424
0.0745518654585
-0.0315452255309
-0.0348184891045
0.116594389081
0.0635104849935
-0.0769034400582
-0.134200632572
-0.0235094670206
0.0111048072577
-0.090887658298
-0.000477288936963
-0.00828715786338
-0.0416687577963
-0.0665553659201
-0.0194865763187
-0.166996195912
0.0264183729887
0.0677833706141
0.0437994226813
0.0820253491402
-0.000632244162261
-0.00925635453314
-0.0561959706247
0.0705661922693
-0.0411572642624
-0.00200519990176
0.103104330599
0.00978989433497
-0.0993382409215
0.0724292248487
0.0353254824877
0.081168204546
-0.0374263115227
-0.0794507712126
0.0518163368106
-0.0149739701301
-0.130824834108
0.0422817021608
-0.0227200202644
-0.06323094666
0.0522403977811
-0.0276610385627
0.0060832137242
0.0214568842202
-0.00418318156153
0.0637974590063
-0.0113978972659
-0.0881668031216
0.109871812165
-0.04933129251
-0.0374962687492
-0.032705988735
-0.0596840381622
0.0781342536211
-0.0729257464409
-0.0469269864261
0.0163917113096
0.109037771821
0.0430865436792
0.0995645821095
0.0293069984764
0.0153724271804
-0.0922052189708
0.0401701442897
0.0319958254695
0.0245472714305
0.0199476163834
-0.0289365015924
0.0541421100497
-0.0337400697172
0.0356606021523
0.0929603204131
0.0220054667443
0.0343170203269
0.0133515484631
-0.019623529166
0.0353653244674
0.0180016215891
-0.0835049450397
0.0828632041812
-0.0461200624704
-0.00308177131228
-0.0536042079329
0.0864405706525
0.00365287601016
-0.0642453059554
-0.051028560847
-0.0309412144125
0.00579464901239
0.0929421186447
-0.0338269323111
0.0647370293736
-0.0846870467067
-0.00876445043832
0.11460031569
-0.0428665839136
-0.0527784451842
-0.0379290767014
-0.0630251765251
0.0240044426173
-0.0155160482973
-0.0275122467428
-0.0766763389111
0.0422256961465
-0.0414874516428
-0.115769721568
-0.0902512222528
-0.0230200961232
-0.00143750628922
-0.0629505962133
-0.0548830516636
-0.0362466238439
-0.0130626130849
0.0557752922177
-0.0800175592303
0.114636741579
0.0099848434329
-0.152435660362
0.101205766201
0.0303599685431
-0.00796943157911
-0.0415852852166
0.0156703777611
-0.145232439041
0.0574091486633
-0.0500773526728
0.111201941967
-0.00249629281461
-0.0446501225233
-0.054145783186
-0.0186270289123
-0.0040375739336
-0.0850365906954
-0.0392158776522
-0.0122528541833
0.133329421282
-0.00903603620827
0.0145100709051
-0.00541087193415
0.167133718729
0.0370280109346
-0.022988198325
-0.0305585116148
0.138920471072
0.0343193411827
0.155349239707
0.0521413236856
0.13675378263
-0.0603344291449
0.106438085437
0.0105126313865
-0.10176397115
-0.0650171414018
-0.0118994479999
0.0854933038354
0.0303386896849
0.0555680245161
-0.0494491830468
0.0520682372153
-0.0743075758219
-0.0881083533168
0.144987314939
0.149044901133
-0.142633870244
-0.120191290975
-0.127024531364
0.0281535517424
-0.0190412737429
0.0531334541738
-0.0408798865974
0.123936399817
0.0202664993703
-0.168451979756
-0.0314042791724
-0.0731406509876
0.0715954452753
-0.00973976682872
-0.0147765325382
0.000476540881209
0.000403750513215
0.0414029695094
-0.0979473218322
-0.00647484371439
-0.0379282943904
-0.0314712077379
0.0544477514923
-0.0129232509062
-0.000807948701549
-0.0675248578191
-0.0851228609681
0.0151709867641
0.0151746859774
0.00193709274754
0.0914710983634
-0.0251936297864
0.00343551579863
-0.0102320406586
-0.127253815532
-0.00773185677826
-0.0431040674448
-0.0437073297799
-0.102301903069
0.0348532125354
-0.0523898266256
0.0414342880249
-0.0236872266978
0.072083003819
-0.00704456865788
0.0415239259601
-0.00432961713523
-0.0326467677951
-0.0744196623564
0.0728259161115
-0.054674576968
-0.0316988602281
-0.105202533305
-0.0764954686165
0.0513142421842
-0.0202150028199
0.100466109812
-0.0051366891712
0.0355580560863
0.0278033800423
0.110899925232
0.10285705328
0.043959852308
-0.0220486782491
0.0602377690375
0.0348401218653
0.11111420393
-0.0918442457914
-0.0236954260617
0.0965200737119
0.055395655334
0.0723265632987
-0.154412478209
0.0867745056748
0.0353372767568
-0.0486464351416
0.0344945378602
0.0613325610757
-0.0692179352045
-0.0868115350604
0.108469955623
0.0181425027549
-0.0595779381692
0.0018213908188
-0.0892178937793
0.0485169924796
-0.00276322639547
-0.103106282651
0.0584539137781
-0.0561366826296
-0.0827727541327
-0.00832645501941
-0.106197148561
0.163226649165
0.0733359456062
-0.0367097482085
-0.0889612808824
-0.0536459684372
-0.123175323009
0.0651539117098
-0.0665790513158
0.0227839015424
-0.148898303509
-0.0160208437592
-0.0832583233714
-0.0682469010353
0.101324319839
-0.00719941500574
0.0140908639878
0.1001932621
-0.00542103126645
0.0426142215729
0.0819783881307
-0.078360080719
0.067662961781
-0.0181115139276
-0.0532003939152
-0.0498881600797
-0.0225108638406
-0.106665506959
-0.115975305438
0.17225509882
-0.0795183256269
-0.0419466532767
0.0249216239899
0.0992441177368
-0.021241767332
-0.0467769615352
0.0432389862835
-0.0792551413178
0.0287736319005
-0.077382825315
-0.12137709558
-0.0510562434793
0.00913751684129
-0.0677529349923
0.136814936996
-0.00853022839874
0.000109288972453
-0.0124953351915
0.000958918419201
0.121072113514
-0.005077698268
-0.058924138546
0.129564777017
0.114682458341
0.0744410976768
0.0221559628844
0.120818868279
0.10034456104
0.102132834494
0.151837155223
0.035658441484
-0.0376488156617
-0.0415091253817
0.00515133002773
-0.0628044754267
0.062153108418
-0.0624518431723
-0.0604686811566
0.00737581122667
0.0674827545881
-0.0241496320814
-0.0210148040205
0.00619406020269
0.00440632039681
0.0738451778889
0.0074018840678
0.0263132695109
0.0918157473207
0.10116853565
0.0757365748286
0.0159787647426
-0.036827981472
-0.0276684872806
0.120540954173
-0.0266255103052
0.0720496922731
0.0753789767623
-0.0510781705379
0.0262448918074
-0.0112484619021
0.132219567895
0.0201508160681
-0.0170912574977
0.0388290062547
-0.0869316458702
0.0416983366013
-0.121663793921
0.0167379360646
0.0188930407166
-0.010503209196
0.0861106589437
-0.0444022342563
0.0767941400409
0.0153897330165
0.0358102954924
-0.0465276837349
0.0405200086534
0.107525028288
-0.0942611023784
-0.0124587602913
-0.182460218668
0.0680340975523
-0.0536723993719
0.0651970431209
0.0132029950619
0.031361643225
0.0223983041942
-0.0155222164467
-0.0963661968708
-0.0454991459846
-0.0661364719272
0.0529343821108
-0.100260943174
-0.0373614132404
0.135690629482
-0.0772092193365
0.00966452620924
-0.14158578217
-0.0504264235497
0.0712472051382
0.0699945911765
-0.00961024221033
0.0407137870789
0.00842654239386
0.0213028732687
-0.0581525303423
-0.0236786268651
0.0822818204761
-0.0500361099839
0.0129173854366
0.0246983729303
-0.0601871572435
0.0734504759312
-0.0834794268012
-0.0561069324613
-0.0827819406986
-0.0279312096536
-0.0544539019465
0.049334898591
0.0238788090646
0.0152225457132
0.0904837921262
0.0410256646574
0.0451660454273
0.0768867135048
0.0489809066057
0.0291199777275
-0.0595656484365
0.0948501080275
0.10101031512
-0.0569662190974
0.0210470184684
-0.0760879144073
-0.0292232856154
0.0414962284267
-0.0312198139727
0.0629936754704
0.0520812384784
-0.0542445406318
0.0880004912615
0.00581513391808
0.0905156806111
0.0125587889925
-0.0528272762895
0.00969319790602
0.07604739815
0.160736322403
0.0932286158204
0.0422833748162
-0.0370891243219
-0.117489121854
-0.0442017503083
0.0142402825877
0.067300401628
0.00124585360754
-0.0109289074317
0.00967440102249
-0.0576279424131
0.0743503198028
-0.0755805745721
-0.00917264726013
-0.0611836872995
0.187436282635
0.0303488969803
0.115365095437
-0.093732714653
-0.0607967562973
-0.0140302637592
0.11629036814
-0.0635879039764
0.055294804275
-0.0255960412323
-0.0372735150158
0.040052678436
0.130253449082
0.0173529796302
0.0426517501473
-0.247874796391
-0.0396341122687
0.00596282817423
-0.0452120043337
0.0719632506371
0.0941457599401
0.0227237548679
0.080445215106
0.0213960036635
0.113701172173
0.0558863021433
0.087013438344
0.0960111916065
-0.0359745323658
-0.0844270735979
-0.0196496266872
-0.0447993911803
-0.0210088640451
0.000978051684797
-0.0160901360214
-0.11820500344
-0.0717720538378
-0.00246093119495
0.000279021536699
-0.123796403408
-0.043318092823
0.00616881018505
-0.0428498461843
-0.0549745373428
-0.0287854596972
0.00781668443233
-0.0323651395738
-0.0725616440177
-0.0808666497469
0.0787882879376
-0.0220812428743
-0.149763390422
-0.109125323594
0.0198978632689
-0.073106110096
0.0379381850362
-0.0472791753709
0.130093857646
0.00441617611796
0.131011590362
0.0597239471972
-0.0423269830644
0.0591751858592
0.0774100646377
-0.0369479134679
-0.0628006756306
0.076030164957
-0.0622228905559
0.117908284068
0.0252976082265
-0.0202082507312
0.0560498200357
-0.0328135341406
0.0784786716104
-0.0876370146871
0.0281276386231
-0.0781216025352
0.0217605102807
-0.0491704083979
-0.0251014642417
0.0640798211098
0.128662347794
-0.0682927072048
0.063161380589
-0.0631129741669
0.0926802903414
0.059220738709
0.00482635525987
-0.12558169663
-0.062917098403
-0.145890623331
-0.0428428612649
0.00840298738331
-0.00268615130335
0.0149879492819
0.0784406512976
0.100284762681
0.0300903934985
-0.0646013095975
-0.0918242260814
-0.0150135923177
0.0548425801098
0.0073955678381
0.0723916813731
-0.068321749568
-0.00600077304989
-0.0238192919642
0.173831567168
-0.00673892255872
0.00143133150414
-0.0669519454241
0.0594866126776
-0.0122025236487
-0.0100272204727
0.030203204602
-0.0139229791239
0.0384511649609
0.0753078237176
0.0544389896095
0.000786921591498
0.0566941834986
0.00596908247098
-0.0390769056976
0.0701619759202
0.00219908216968
-0.0886272639036
0.120056964457
-0.00876543205231
-0.064759336412
-0.0226533338428
0.126213863492
-0.0643426626921
-0.0579573586583
-0.0694582909346
0.0108144497499
0.0259565804154
-0.111321792006
-0.0176059324294
-0.127139300108
-0.0091170668602
0.0437299273908
0.0039699873887
0.0821139886975
0.126717105508
0.0971480533481
-0.00424466328695
0.111860893667
-0.0300565809011
-0.196370452642
-0.0426685139537
-0.0385108143091
-0.118916742504
0.0104283615947
0.103519760072
0.0544193759561
0.000757733068895
0.131132900715
0.0859653577209
-0.0216752458364
-0.0775907859206
-0.046062849462
-0.0216825567186
0.000377338379622
0.0528722442687
-0.0195853002369
-0.0528593584895
0.164777621627
0.0347000397742
0.0298513621092
-0.0577300004661
0.168734073639
-0.0762646272779
-0.035545989871
-0.036087077111
-0.122162863612
0.0819118991494
0.0343893319368
-0.0406328327954
-0.0201943982393
-0.125950187445
-0.0118623180315
0.0287762861699
0.0405122339725
-0.0977382212877
0.0395415909588
-0.0639984309673
-0.025694090873
-0.0504621379077
0.0387758389115
-0.0367907844484
0.0256609730422
-0.0477687753737
-0.0808746442199
-0.0655325874686
-0.0698523819447
-0.0020492465701
0.0197922494262
-0.087475694716
0.049967110157
0.00747747579589
-0.00568279484287
0.0202428419143
0.0364877283573
-0.0139534892514
-0.0911152660847
-0.0985930785537
-0.0651354044676
0.0360884517431
0.0158869642764
-0.0411136932671
0.00745027186349
0.0299954153597
0.0771273374557
-0.0320650413632
-0.0419589243829
-0.086743876338
0.0369741134346
0.0566709563136
0.173652932048
0.00027789658634
0.0781392529607
-0.0447725132108
-0.0478117316961
-0.101976104081
-0.00464264769107
-0.00603518728167
0.114783152938
0.0656809210777
-0.0832783579826
0.13433842361
0.110665306449
-0.0801399424672
-0.0315053984523
0.00145447661635
0.0401760861278
0.0792858675122
0.0348302088678
0.106375806034
-0.0180345512927
0.0795256197453
-0.0553098507226
-0.00396101409569
-0.105325989425
-0.0253537818789
0.0845810249448
0.077793084085
-0.0525512993336
-0.0893519967794
0.133732736111
0.0177010074258
-0.0535079576075
-0.100916787982
0.0131938653067
0.00743135903031
-0.0829992219806
-0.108969733119
0.0491980835795
0.0312423072755
0.0389026999474
-0.00971004366875
0.00966228079051
0.0180600956082
0.159234181046
-0.129245325923
-0.044467035681
-0.0638137087226
-0.00117005733773
0.121587969363
-0.0252238325775
-0.0630899965763
-0.0238777082413
-0.0624678432941
0.0597628057003
0.059295963496
-0.044186860323
-0.0187665540725
-0.00910398364067
0.0197574850172
-0.147014126182
-0.0337340943515
0.0733875408769
0.12682531774
0.000650299538393
0.0483364127576
0.0207970906049
0.0413219965994
-0.00917553342879
-0.0560647211969
0.154993861914
0.0221219379455
0.0355347767472
0.103566557169
0.00320690055378
-0.0596407838166
-0.00214097206481
-0.0439083576202
-0.128719106317
-0.000945610925555
0.0392617434263
0.0511440262198
0.083355717361
0.0236471872777
0.0545017793775
-0.0716508775949
-0.0440149344504
0.0324198380113
0.0469413772225
0.0212565343827
0.00122060580179
-0.1176809147
-0.0413170568645
-0.0631781220436
-0.0290933419019
0.135108456016
0.0900858491659
0.0875957757235
-0.00451709562913
-0.0729069411755
-0.0577652305365
0.0486399717629
0.0682817026973
0.0691319555044
-0.068423487246
0.00817601010203
0.105249553919
0.0456487610936
-0.0380399189889
-0.0412923134863
0.00902758073062
-0.111908778548
0.0960352569818
0.0187712796032
-0.0368208400905
0.0313285328448
0.0158818010241
-0.00736443605274
-0.0388728678226
-0.0129499686882
-0.131833747029
-0.0132989017293
-0.0379719436169
0.0584118813276
0.0300680100918
-0.065252840519
0.0646070539951
0.178114682436
-0.089618973434
-0.0319839194417
0.0219923537225
-0.0292739905417
-0.0732794031501
0.0575743764639
-0.0825037509203
-0.0236300192773
0.0257283430547
-0.111949302256
0.0300307497382
-0.140988484025
-0.0435092002153
0.024620635435
-0.0327067375183
-0.117738269269
-0.00674054631963
-0.029865976423
-0.129065170884
-0.0835554674268
-0.0665591210127
-0.22597424686
0.116499260068
0.0494818128645
0.0215090047568
-0.0021313498728
0.0819244906306
0.0293990559876
-0.0311233829707
-0.0357319302857
-0.0914319753647
0.091626547277
-0.00482744211331
-0.048678971827
0.113205581903
-0.0650779083371
-0.153540104628
-0.0248280670494
0.0470718741417
0.0183696597815
-0.0363256558776
0.00269519584253
0.0171519126743
-0.0129137039185
0.103175222874
-0.101937793195
-0.06213561818
0.0842504501343
-0.0847904756665
0.0759895592928
0.00673757772893
0.100755311549
-0.00954036787152
0.0999288335443
-0.104707702994
0.0021056253463
0.13053599
-0.0735192596912
-0.0246674809605
0.111527346075
-0.0211467090994
-0.0329804942012
0.0634712204337
0.0466838590801
-0.0620282180607
0.125709697604
0.0296591036022
-0.0486580654979
-0.0201153475791
-0.147415220737
0.0785942822695
0.0686653628945
0.110464118421
0.0559556297958
0.0822386816144
0.0157907176763
0.129316717386
-0.0136509938166
0.132042750716
-0.00781276915222
-0.00983501877636
0.0662561506033
-0.087394580245
0.0299470368773
0.128990873694
0.0251299217343
0.0618399307132
-0.00398479308933
0.146790221334
0.0796084925532
-0.00668881740421
0.033687915653
0.00270470022224
-0.0330553762615
-0.095885746181
-0.0551441945136
-0.16626060009
0.123003013432
-0.0661385059357
0.0900080353022
0.114231467247
-0.0413519665599
-0.036629781127
-0.0181464012712
-0.00253327796236
0.0751042738557
0.00195618136786
-0.0870672985911
0.0150949032977
-0.0232835933566
-0.0805754885077
-0.0738169550896
-0.0697576105595
-0.0688380897045
-0.0751232802868
-0.0242336280644
-0.0131361996755
0.0537756830454
0.082131549716
0.00636440142989
-0.084816776216
-0.181962862611
-0.0542651936412
0.115855447948
-0.0489825718105
0.0716863796115
0.0216276533902
0.105475276709
0.0739984735847
-0.0191908366978
0.0059725982137
0.118555538356
0.0608915835619
-0.103533647954
-0.0554396770895
-0.0602141693234
0.135139375925
-0.0777821019292
0.156118452549
-0.124158360064
0.0295331571251
0.00589440390468
0.0757679268718
-0.0930208489299
-0.109042525291
-0.0234473329037
-0.119991570711
-0.0493304133415
-0.0766227692366
-0.0783011615276
-0.04191531986
0.0587753765285
0.0723297670484
-0.0610846020281
-0.0542068630457
0.114591665566
0.12014837563
0.0780225172639
0.0134950708598
0.116859599948
0.0915258675814
-0.0636031031609
-0.0380037352443
0.118752323091
0.212121769786
0.00149751489516
-0.0801385194063
-0.00196089409292
-0.0305329132825
-0.0431494228542
0.0742963254452
0.039164390415
0.0222983900458
-0.0141019355506
0.0227188840508
0.0215373281389
-0.0596072562039
-0.0269679520279
0.00172121473588
0.0602747127414
-0.0368248932064
-0.0587460026145
-0.0121644381434
0.118847608566
0.0400474891067
0.0486386083066
-0.106618411839
-0.0705064609647
-0.141224220395
0.0319471769035
0.0221436489373
-0.0457454100251
-0.0362358130515
-0.105045929551
0.100455150008
0.0914682373405
0.0408001244068
-0.0617340356112
0.119023926556
-0.0828479751945
-0.0326899364591
-0.0799220874906
0.0523907840252
0.0800918117166
0.0569088868797
0.143700629473
0.047003749758
-0.0605588592589
0.0785236954689
0.0403311662376
-0.0976339131594
0.0154380099848
-0.0274770334363
-0.0642077326775
0.034738805145
-0.0804735422134
-0.0703770071268
0.143682986498
-0.0311418510973
-0.0251015126705
0.0259558819234
-0.0977641940117
-0.00296163279563
-0.0885057672858
0.0540626049042
0.0861449986696
0.113138727844
0.0627271533012
-0.0891567245126
-0.139536172152
0.129542544484
-0.0737756192684
0.00678688893095
0.00609445292503
-0.0295381583273
-0.00554771348834
0.0761447995901
-0.0485896207392
-0.016618411988
-0.04585134238
0.0193945169449
-0.00336048100144
-0.0309807136655
-0.00276057166047
0.11086191982
-0.0495385937393
0.166334435344
0.0277519356459
0.103296086192
0.0471942350268
0.0536483861506
0.040755096823
-0.0635551139712
0.122916989028
0.152270585299
0.0200216174126
-0.0239728353918
-0.00101480260491
-0.100272387266
-0.0299428850412
0.0413445718586
-0.0563636757433
-0.0182832982391
-0.0409359112382
-0.0273697394878
-0.111293099821
-0.010489997454
0.038531575352
0.0183584876359
0.00204377621412
0.029483711347
-0.0223368685693
-0.0222236402333
0.0134290223941
-0.000911498849746
-0.0903971940279
-0.0725401937962
-0.10500369221
-0.140622869134
0.101509205997
-0.0631701275706
-0.0170582979918
0.0211113803089
0.0463235750794
-0.15627078712
0.0120742898434
0.0476242639124
-0.0865064561367
-0.0264119356871
0.056695561856
-0.095047198236
0.0558352135122
0.162736415863
0.0654505565763
-0.0745935812593
0.0456325747073
-0.0941534489393
-0.0688216239214
0.0181390736252
-0.00865182839334
-0.0721267834306
0.0622831732035
0.0107522914186
0.0178812015802
0.175050809979
0.0934716388583
-0.0706429928541
-0.0165630169213
0.109852969646
-0.147043004632
0.0663396716118
-0.0232902932912
0.0866496413946
-0.0115667320788
-0.047189231962
0.0183473937213
-0.106591656804
0.00235906918533
0.0114184850827
0.0431715250015
-0.0733784213662
0.00699070235714
-0.00270817987621
-0.0825230851769
0.0529892593622
-0.0345539525151
0.0306364204735
0.0649203360081
-0.00750711467117
-0.0672440677881
-0.0601755306125
0.0169248338789
-0.0386275686324
-0.0869037210941
-0.0371127985418
-0.0501815825701
-0.0866658985615
-0.0978857129812
-0.0428142510355
-0.0278177782893
-0.0380833931267
-0.0488224178553
0.179813593626
-0.0011792377336
-0.0984253585339
0.0700688436627
0.097187012434
-0.12106128782
-0.0605998076499
-0.00735434331
-0.0360196940601
-0.025363381952
-0.000503850984387
-0.00968829169869
0.0435060225427
-0.013205897063
0.0576249733567
0.00962485931814
0.0263175815344
0.0474360324442
0.0193209834397
-0.00920015852898
-0.0451846905053
0.0299876388162
0.0627398788929
0.0391550213099
0.0721242278814
-0.0484370440245
-0.0393422544003
0.0416209064424
-0.0913111791015
0.0330566465855
-0.0282575394958
0.0427080504596
0.0249989200383
0.0774399191141
0.0616862252355
-0.088093355298
-0.109148532152
-0.0804032236338
-0.0634201392531
-0.0793293863535
0.00748915411532
0.0247334428132
0.0612292140722
-0.0335648059845
0.0660689324141
-0.115943625569
0.0483645275235
-0.121870853007
-0.115088529885
0.00338140060194
-0.0897278040648
-0.152725920081
-0.134465053678
-0.125420078635
0.000759686343372
0.102594137192
-0.00161291181576
0.00788363814354
-0.0902282372117
0.149625629187
-0.0762729346752
0.0299016777426
0.168328478932
-0.0131783830002
0.00710892118514
0.0243218261749
0.100544571877
-0.0996813848615
0.0916441380978
0.134538978338
-0.0298293046653
-0.0274164266884
-0.00840176455677
0.0348827503622
-0.0177657678723
0.00953201204538
-0.00328862993047
0.0784574151039
-0.0365153215826
-0.123689763248
0.120604477823
0.0277421995997
0.0189122613519
-0.0315840728581
-0.0860268995166
0.0068200994283
-0.0779878273606
0.0416192263365
-0.0216679293662
0.0652351155877
0.111544214189
0.152626469731
-0.0968609750271
-0.0701418444514
0.0430263504386
0.159346476197
-0.0144148916006
-0.0591461546719
-0.00144496338908
0.000781495240517
0.0537518821657
-0.0663752481341
0.0245853830129
0.0640952885151
-0.0281699895859
-0.0291320662946
-0.0669366717339
-0.127194076777
0.0918613448739
0.0127596138045
-0.205121278763
0.067640773952
0.0728204473853
-0.00187474011909
0.0488228425384
-0.0727917104959
0.0471682175994
-0.0654953718185
-0.0538244508207
-0.147293910384
0.0891573131084
0.042507160455
0.0313038006425
0.0914097651839
-0.0251100957394
-0.126262843609
0.0723506435752
0.0202708877623
0.0428135357797
-0.0262101273984
0.075290299952
-0.0564700961113
0.016111459583
-0.142522141337
-0.0691137984395
-0.0244967639446
-0.0706253647804
-0.115990646183
-0.0118785258383
-0.0403123795986
0.0282460283488
0.202221274376
0.157118245959
-0.0575693920255
0.0333858951926
-0.0312190782279
-0.040508504957
0.0829071849585
0.0027211366687
-0.113780088723
-0.0689807757735
0.154738545418
0.0849924907088
0.0761195197701
0.0651442855597
-0.0447378605604
-0.0650546848774
0.0391668304801
0.0789046362042
0.130653426051
0.0619039535522
-0.00947452895343
-0.063958376646
-0.0865829586983
-0.150698557496
-0.00839905813336
-0.080548517406
-0.231401339173
-0.0881661325693
0.163238629699
-0.0601023845375
-0.0106029193848
0.0457373000681
-0.0276406835765
-0.0391708500683
-0.0356819592416
-0.0299249663949
-0.105836778879
0.0230058860034
0.156015321612
0.0436586365104
0.031868737191
-0.0202569868416
0.0446693263948
0.0138617176563
0.0049375561066
-0.0215210746974
0.142052590847
-0.0624475590885
0.0860407054424
0.0966415777802
0.108972936869
-0.0868326127529
-0.0251208618283
0.0488109067082
0.00618541892618
0.00657542794943
0.0266625359654
-0.0432320386171
-0.0230905637145
-0.0867124050856
-0.0746241509914
-0.0336654037237
0.00136483297683
-0.0593839287758
-0.0507049486041
0.0240010581911
-0.0968873798847
-0.0405837073922
-0.0313718356192
0.0424840599298
-0.0515937916934
-0.072163015604
0.0888965651393
0.0635624527931
-0.149450659752
0.113227203488
-0.106408305466
-0.126453816891
-0.0398574508727
-0.0434311702847
-0.0908518135548
0.00678623188287
-0.0970477536321
-0.0519591644406
0.0305938068777
-0.094056494534
-0.0618522651494
0.029704850167
0.060168273747
-0.0557931140065
-0.0034701556433
0.0486499220133
-0.0493822693825
0.0642825290561
0.0146969547495
-0.0396996252239
0.0887366831303
-0.0418615862727
0.0414530113339
0.0286831576377
-0.0947007909417
0.0785293355584
-0.0942317247391
-0.0800280719995
0.079880155623
-0.0681122392416
0.0876573249698
-0.0678665190935
-0.00557871628553
0.123549357057
0.0862691402435
0.0655517801642
0.0126093914732
0.00399778643623
0.0991297215223
0.0480783060193
-0.0164792295545
-0.0585649572313
-0.0633684247732
-0.0169645044953
-0.0299057979137
-0.089820086956
0.0146640501916
-0.0464635081589
-0.0328916870058
-0.0406219065189
-0.031272251159
-0.0724731460214
-0.0101001141593
0.0363670475781
-0.0365890488029
0.0213311687112
0.000436615257058
-0.127308338881
0.0676133930683
-0.0916973203421
0.0177025590092
0.00724806636572
0.10751093179
-0.0761338844895
-0.0827468335629
0.0285280477256
-0.0163249112666
-0.0465945787728
0.0599288977683
-0.169884890318
0.0837113261223
0.10333673656
0.0181002393365
-0.0329130627215
0.0396228916943
0.020750509575
0.0101304389536
-0.136020839214
-0.0780456066132
-0.160874515772
0.0758293867111
0.0362708978355
0.0388438478112
-0.103305265307
0.11890693754
0.045161575079
-0.0208133030683
0.0302573163062
0.09680134058
0.106090068817
-0.038000356406
-0.0463556498289
0.0353787951171
-0.0509826689959
0.0328635796905
0.0829343572259
-0.118259623647
-0.0672633498907
-0.0129405427724
0.0324524976313
-0.141622647643
-0.235996112227
0.00884000118822
-0.105712108314
-0.0746792033315
0.0210572388023
0.0593467466533
-0.0249105151743
-0.193583905697
0.045175909996
0.171852111816
0.022827655077
-0.0498642958701
-0.0304390490055
0.0775598213077
0.171698719263
0.00635398598388
0.0323401130736
-0.00383470207453
-0.09868671
-0.0517802834511
-0.0239325538278
-0.0603786669672
-0.0530252233148
-0.0584683939815
-0.0188598763198
-0.0227371025831
-0.0297219231725
-0.0135526200756
-0.063305541873
-0.100240565836
0.144635036588
0.0256217140704
0.0647260248661
0.0713814795017
-0.028970407322
0.154846534133
-0.0645494312048
0.0370386019349
-0.109683267772
-0.0738862082362
0.0139162531123
0.112906552851
0.0240470413119
0.141040816903
0.118019580841
0.0396582596004
0.12191965431
-0.0618984103203
0.0853096470237
0.00945567153394
0.00463920133188
-0.149275422096
-0.0147340996191
-0.0907898619771
-0.0943389162421
0.110089570284
0.0412870012224
0.0528600364923
-0.019921688363
-0.0423373840749
0.0174733325839
0.0144764576107
0.0349664129317
0.0571612156928
-0.0487282052636
0.141517624259
-0.0690574347973
1.779464219e-05
0.142746165395
-0.0308493953198
0.10920098424
-0.101982660592
0.165241137147
-0.0538612529635
0.0717772692442
0.104821592569
-0.050634548068
0.092027746141
0.0397937074304
0.0336774215102
-0.0486051142216
0.0486560687423
-0.0719167366624
0.108481682837
0.0450044609606
-0.0468400642276
-0.0368504226208
0.0364988707006
0.18262194097
0.084603369236
-0.0434378087521
0.0221665780991
0.0388681255281
-0.0217231176794
-0.0584590286016
-0.0928798913956
-0.0625872090459
0.0719353109598
0.0327771380544
-0.0683604478836
0.00378761300817
0.0868024751544
-0.0612589903176
0.0067003518343
0.0479431338608
0.0551628284156
0.0536691695452
0.0970119982958
-0.0424512960017
-0.0626041516662
0.0156477633864
0.0486245304346
-0.0801608487964
0.0109991887584
0.0731216296554
0.0309972129762
-0.0546498037875
-0.0286929700524
0.00356347346678
-0.0141891622916
-0.0484970584512
0.0879780054092
0.090434461832
0.0889299362898
-0.0745189785957
0.0544359609485
-0.120383098722
-0.0472476147115
0.00929082743824
-0.0213150903583
0.0254751108587
0.0119931194931
-0.146566420794
-0.119537524879
0.0384003371
0.0238949581981
-0.118748441339
0.0724304318428
-0.0595723204315
0.0362081490457
-0.0733896940947
-0.0534627884626
-0.00192586623598
0.0061601405032
0.0249431058764
0.0513239055872
0.0310311820358
-0.0413082651794
-0.076418466866
0.101899921894
-0.12466006726
-0.0808993056417
-0.0212746560574
-0.104774415493
0.051718827337
0.0514278821647
0.143668457866
0.117020092905
0.00259900512174
0.0804182067513
-0.0312588512897
-0.0428402610123
-0.0463223233819
-0.0612622909248
0.0371375083923
0.0224238708615
0.0576143153012
-0.0772513896227
0.0737944841385
-0.138886079192
0.108048021793
0.0393913835287
-0.0457653813064
-0.0718233734369
-0.147110164165
0.0167593322694
0.0169621836394
0.0459201410413
0.0152753274888
0.0928924307227
0.0248367842287
-0.0477755814791
-0.0570379309356
-0.0553160309792
-0.0358624868095
-0.0958794802427
-0.147693306208
0.0214515551925
0.00978979840875
-0.0403075516224
-0.0749758854508
0.00417859712616
-0.0235360283405
0.0215440094471
0.0614985562861
0.0571065060794
-0.0419664382935
-0.0032383154612
0.00760726211593
0.159527868032
0.0292533468455
-0.0954448208213
-0.000758372363634
0.0329203233123
0.00650558108464
-0.0149912768975
-0.0864567905664
0.154445946217
-0.0913705974817
-0.0631348863244
0.110249094665
0.0524758547544
-0.131997123361
-0.03924555704
0.0140809612349
-0.0680312663317
-0.0915736630559
0.0702054128051
-0.0184398517013
-0.029359806329
0.0966496542096
-0.0264006666839
-0.158357828856
-0.115602165461
-0.110386557877
0.0278798807412
0.0927896425128
0.0602929219604
-0.0676576718688
0.0713724792004
0.0414928123355
0.0616513602436
-0.0293745752424
0.0800232663751
-0.0646932795644
-0.0811762884259
-0.0341402366757
-0.0607627332211
0.00261409743689
-0.0249193832278
-0.020433107391
0.0731722787023
-0.0643741637468
-0.138768836856
0.108547091484
-0.0184486806393
-0.0501629672945
0.095504231751
0.099057033658
0.041949428618
-0.0955623239279
0.0906288027763
-0.00479447422549
0.0585903413594
0.0268553309143
-0.0325202979147
-0.122006461024
-0.0240116193891
0.0458249039948
0.0238511804491
0.0563595071435
-0.163120552897
0.15503038466
0.0316803045571
-0.110778875649
0.0455822385848
-0.12848867476
-0.0529319010675
-0.000890674244147
-0.0879205092788
0.00748719181865
-0.100980170071
0.0268716868013
-0.0285362973809
-0.00017192280211
-0.130572080612
-0.161309719086
-0.000867823895533
0.0264411903918
-0.094325825572
-0.0460250489414
-0.0546536445618
0.192807614803
-0.0823703408241
-0.0416878089309
-0.00387952057645
0.0305039025843
-0.263531684875
0.0125404288992
-0.0250333696604
-0.106595776975
0.0975467562675
0.109516970813
0.0598933808506
-0.0198770146817
-0.00470342254266
0.0444605015218
0.168422564864
-0.173111468554
-0.0409653522074
0.134638473392
-0.054125521332
0.0102461762726
0.0129064051434
0.024152174592
-0.102163374424
0.0684008449316
-0.113014020026
0.0284098107368
-0.0720879361033
0.0597788020968
0.238457322121
0.143690958619
-0.0301430635154
0.057134732604
0.00861776992679
-0.0879872217774
-0.169635847211
-0.0667924582958
-0.0547137968242
0.000540936307516
0.0134534453973
